FANN_FLO_2.1
num_layers=3
learning_rate=0.700000
connection_rate=1.000000
network_type=0
learning_momentum=0.400000
training_algorithm=0
train_error_function=1
train_stop_function=0
cascade_output_change_fraction=0.010000
quickprop_decay=-0.000100
quickprop_mu=1.750000
rprop_increase_factor=1.200000
rprop_decrease_factor=0.500000
rprop_delta_min=0.000000
rprop_delta_max=50.000000
rprop_delta_zero=0.100000
cascade_output_stagnation_epochs=12
cascade_candidate_change_fraction=0.010000
cascade_candidate_stagnation_epochs=12
cascade_max_out_epochs=150
cascade_min_out_epochs=50
cascade_max_cand_epochs=150
cascade_min_cand_epochs=50
cascade_num_candidate_groups=2
bit_fail_limit=3.49999994039535522461e-01
cascade_candidate_limit=1.00000000000000000000e+03
cascade_weight_multiplier=4.00000005960464477539e-01
cascade_activation_functions_count=10
cascade_activation_functions=3 5 7 8 10 11 14 15 16 17 
cascade_activation_steepnesses_count=4
cascade_activation_steepnesses=2.50000000000000000000e-01 5.00000000000000000000e-01 7.50000000000000000000e-01 1.00000000000000000000e+00 
layer_sizes=22 97 4 
scale_included=0
neurons (num_inputs, activation_function, activation_steepness)=(0, 0, 0.00000000000000000000e+00) (0, 0, 0.00000000000000000000e+00) (0, 0, 0.00000000000000000000e+00) (0, 0, 0.00000000000000000000e+00) (0, 0, 0.00000000000000000000e+00) (0, 0, 0.00000000000000000000e+00) (0, 0, 0.00000000000000000000e+00) (0, 0, 0.00000000000000000000e+00) (0, 0, 0.00000000000000000000e+00) (0, 0, 0.00000000000000000000e+00) (0, 0, 0.00000000000000000000e+00) (0, 0, 0.00000000000000000000e+00) (0, 0, 0.00000000000000000000e+00) (0, 0, 0.00000000000000000000e+00) (0, 0, 0.00000000000000000000e+00) (0, 0, 0.00000000000000000000e+00) (0, 0, 0.00000000000000000000e+00) (0, 0, 0.00000000000000000000e+00) (0, 0, 0.00000000000000000000e+00) (0, 0, 0.00000000000000000000e+00) (0, 0, 0.00000000000000000000e+00) (0, 0, 0.00000000000000000000e+00) (22, 4, 5.00000000000000000000e-01) (22, 4, 5.00000000000000000000e-01) (22, 4, 5.00000000000000000000e-01) (22, 4, 5.00000000000000000000e-01) (22, 4, 5.00000000000000000000e-01) (22, 4, 5.00000000000000000000e-01) (22, 4, 5.00000000000000000000e-01) (22, 4, 5.00000000000000000000e-01) (22, 4, 5.00000000000000000000e-01) (22, 4, 5.00000000000000000000e-01) (22, 4, 5.00000000000000000000e-01) (22, 4, 5.00000000000000000000e-01) (22, 4, 5.00000000000000000000e-01) (22, 4, 5.00000000000000000000e-01) (22, 4, 5.00000000000000000000e-01) (22, 4, 5.00000000000000000000e-01) (22, 4, 5.00000000000000000000e-01) (22, 4, 5.00000000000000000000e-01) (22, 4, 5.00000000000000000000e-01) (22, 4, 5.00000000000000000000e-01) (22, 4, 5.00000000000000000000e-01) (22, 4, 5.00000000000000000000e-01) (22, 4, 5.00000000000000000000e-01) (22, 4, 5.00000000000000000000e-01) (22, 4, 5.00000000000000000000e-01) (22, 4, 5.00000000000000000000e-01) (22, 4, 5.00000000000000000000e-01) (22, 4, 5.00000000000000000000e-01) (22, 4, 5.00000000000000000000e-01) (22, 4, 5.00000000000000000000e-01) (22, 4, 5.00000000000000000000e-01) (22, 4, 5.00000000000000000000e-01) (22, 4, 5.00000000000000000000e-01) (22, 4, 5.00000000000000000000e-01) (22, 4, 5.00000000000000000000e-01) (22, 4, 5.00000000000000000000e-01) (22, 4, 5.00000000000000000000e-01) (22, 4, 5.00000000000000000000e-01) (22, 4, 5.00000000000000000000e-01) (22, 4, 5.00000000000000000000e-01) (22, 4, 5.00000000000000000000e-01) (22, 4, 5.00000000000000000000e-01) (22, 4, 5.00000000000000000000e-01) (22, 4, 5.00000000000000000000e-01) (22, 4, 5.00000000000000000000e-01) (22, 4, 5.00000000000000000000e-01) (22, 4, 5.00000000000000000000e-01) (22, 4, 5.00000000000000000000e-01) (22, 4, 5.00000000000000000000e-01) (22, 4, 5.00000000000000000000e-01) (22, 4, 5.00000000000000000000e-01) (22, 4, 5.00000000000000000000e-01) (22, 4, 5.00000000000000000000e-01) (22, 4, 5.00000000000000000000e-01) (22, 4, 5.00000000000000000000e-01) (22, 4, 5.00000000000000000000e-01) (22, 4, 5.00000000000000000000e-01) (22, 4, 5.00000000000000000000e-01) (22, 4, 5.00000000000000000000e-01) (22, 4, 5.00000000000000000000e-01) (22, 4, 5.00000000000000000000e-01) (22, 4, 5.00000000000000000000e-01) (22, 4, 5.00000000000000000000e-01) (22, 4, 5.00000000000000000000e-01) (22, 4, 5.00000000000000000000e-01) (22, 4, 5.00000000000000000000e-01) (22, 4, 5.00000000000000000000e-01) (22, 4, 5.00000000000000000000e-01) (22, 4, 5.00000000000000000000e-01) (22, 4, 5.00000000000000000000e-01) (22, 4, 5.00000000000000000000e-01) (22, 4, 5.00000000000000000000e-01) (22, 4, 5.00000000000000000000e-01) (22, 4, 5.00000000000000000000e-01) (22, 4, 5.00000000000000000000e-01) (22, 4, 5.00000000000000000000e-01) (22, 4, 5.00000000000000000000e-01) (22, 4, 5.00000000000000000000e-01) (22, 4, 5.00000000000000000000e-01) (22, 4, 5.00000000000000000000e-01) (22, 4, 5.00000000000000000000e-01) (22, 4, 5.00000000000000000000e-01) (22, 4, 5.00000000000000000000e-01) (22, 4, 5.00000000000000000000e-01) (22, 4, 5.00000000000000000000e-01) (22, 4, 5.00000000000000000000e-01) (22, 4, 5.00000000000000000000e-01) (22, 4, 5.00000000000000000000e-01) (22, 4, 5.00000000000000000000e-01) (22, 4, 5.00000000000000000000e-01) (22, 4, 5.00000000000000000000e-01) (22, 4, 5.00000000000000000000e-01) (22, 4, 5.00000000000000000000e-01) (22, 4, 5.00000000000000000000e-01) (22, 4, 5.00000000000000000000e-01) (22, 4, 5.00000000000000000000e-01) (0, 0, 0.00000000000000000000e+00) (97, 4, 5.00000000000000000000e-01) (97, 4, 5.00000000000000000000e-01) (97, 4, 5.00000000000000000000e-01) (0, 0, 0.00000000000000000000e+00) 
connections (connected_to_neuron, weight)=(0, -2.79839730262756347656e+00) (1, 1.98284263610839843750e+01) (2, 1.20917379856109619141e+00) (3, -5.45756340026855468750e-01) (4, -1.15934818983078002930e-01) (5, -3.00120639801025390625e+00) (6, 6.96215778589248657227e-02) (7, 2.67795062065124511719e+00) (8, 2.37447524070739746094e+00) (9, -1.00851202011108398438e+01) (10, -6.97378540039062500000e+00) (11, -2.76057928800582885742e-01) (12, 1.71869903802871704102e-01) (13, -6.44001662731170654297e-01) (14, 9.69708189368247985840e-02) (15, -7.45935344696044921875e+00) (16, -2.64487037658691406250e+01) (17, 1.40537118911743164062e+00) (18, -4.96754407882690429688e-01) (19, 1.13582935333251953125e+01) (20, -1.39594945907592773438e+01) (21, -2.19270286560058593750e+01) (0, -2.18984651565551757812e+00) (1, -7.98853814601898193359e-01) (2, 4.83361363410949707031e-01) (3, -1.75498113036155700684e-01) (4, -1.59015089273452758789e-01) (5, 1.03653736412525177002e-01) (6, -7.83783476799726486206e-03) (7, -7.02401101589202880859e-01) (8, 6.56202256679534912109e-01) (9, 9.64472353458404541016e-01) (10, 6.46500229835510253906e-01) (11, -1.10244363546371459961e-01) (12, 5.41121214628219604492e-02) (13, -5.37824444472789764404e-02) (14, -3.77800837159156799316e-02) (15, -2.23935201764106750488e-01) (16, -3.70403826236724853516e-01) (17, 3.68390440940856933594e-01) (18, -9.10713076591491699219e-01) (19, -1.00157010555267333984e+00) (20, -5.25249540805816650391e-01) (21, -4.79160833358764648438e+00) (0, -3.58426189422607421875e+00) (1, 3.54770636558532714844e+00) (2, -2.42560935020446777344e+00) (3, -1.26391208171844482422e+00) (4, -3.37608051300048828125e+00) (5, -9.43231046199798583984e-01) (6, -1.66262820363044738770e-01) (7, -5.62772607803344726562e+00) (8, -5.03248929977416992188e+00) (9, 3.36846232414245605469e+00) (10, -2.12527084350585937500e+00) (11, -8.69536578655242919922e-01) (12, -5.89473843574523925781e-01) (13, 1.76175665855407714844e+00) (14, 6.98294490575790405273e-02) (15, -6.66919946670532226562e+00) (16, 4.60469322204589843750e+01) (17, -3.29967880249023437500e+01) (18, -6.25109367370605468750e+01) (19, -3.87467002868652343750e+01) (20, -5.50650138854980468750e+01) (21, 6.22913503646850585938e+00) (0, -9.94946837425231933594e-01) (1, -8.63633632659912109375e-01) (2, 1.71027450561523437500e+01) (3, -1.21041052043437957764e-01) (4, 8.72796952724456787109e-01) (5, 7.32015371322631835938e-01) (6, 1.23124444484710693359e+00) (7, 2.32549071311950683594e+00) (8, 3.16566038131713867188e+00) (9, 1.58099293708801269531e+00) (10, 1.15607357025146484375e+00) (11, -2.45801761746406555176e-01) (12, 1.94699788093566894531e+00) (13, -4.86508101224899291992e-01) (14, 1.39270633459091186523e-01) (15, -2.23373198509216308594e+00) (16, -8.22664306640625000000e+02) (17, -6.39909973144531250000e+01) (18, 2.71444530487060546875e+01) (19, 3.61653470993041992188e+00) (20, -1.23845653533935546875e+01) (21, 3.89169239997863769531e+00) (0, 6.28111915588378906250e+01) (1, 2.26197013854980468750e+01) (2, -2.64647156000137329102e-01) (3, 1.94882469177246093750e+01) (4, -2.59967827796936035156e+00) (5, 3.36070022583007812500e+01) (6, 7.71102070808410644531e-01) (7, -2.64928698539733886719e+00) (8, 3.52035064697265625000e+01) (9, 1.22064218521118164062e+01) (10, 9.32132720947265625000e+00) (11, 6.42690038681030273438e+00) (12, 1.57290506362915039062e+00) (13, 3.65323028564453125000e+01) (14, 2.90215790271759033203e-01) (15, 3.08611202239990234375e+01) (16, -8.64847869873046875000e+01) (17, 1.39218187332153320312e+01) (18, -3.28597640991210937500e+01) (19, -2.11693572998046875000e+00) (20, -4.48932380676269531250e+01) (21, -7.08424530029296875000e+01) (0, -5.22357821464538574219e-01) (1, -2.88209825754165649414e-01) (2, 4.92619991302490234375e+00) (3, 3.57550859451293945312e-01) (4, 1.70316565036773681641e+00) (5, 8.54568123817443847656e-01) (6, 7.93918311595916748047e-01) (7, 2.41157650947570800781e-01) (8, -6.15242052078247070312e+00) (9, -5.32323904335498809814e-02) (10, 1.17113268375396728516e+00) (11, -1.79044020175933837891e+00) (12, 7.56743252277374267578e-01) (13, 3.64206290245056152344e+00) (14, 9.70958620309829711914e-02) (15, 5.01961052417755126953e-01) (16, -3.61946929931640625000e+02) (17, 1.07678918838500976562e+01) (18, 1.45749177932739257812e+01) (19, -5.31655836105346679688e+00) (20, 3.31167864799499511719e+00) (21, -1.14187657833099365234e+00) (0, -1.27482652664184570312e+00) (1, 1.52852687835693359375e+01) (2, 9.91458535194396972656e-01) (3, -4.62489098310470581055e-01) (4, 4.71303090453147888184e-02) (5, -1.66916501522064208984e+00) (6, 1.44020721316337585449e-01) (7, 7.98157095909118652344e-01) (8, 6.15504086017608642578e-01) (9, -3.26500558853149414062e+00) (10, -1.95352494716644287109e+00) (11, -2.38950014114379882812e-01) (12, -9.09969396889209747314e-03) (13, -6.35950803756713867188e-01) (14, -8.14691260457038879395e-02) (15, -2.19531226158142089844e+00) (16, -1.31727638244628906250e+01) (17, 2.20960187911987304688e+00) (18, -3.68356406688690185547e-01) (19, 4.32547044754028320312e+00) (20, -6.94427442550659179688e+00) (21, -1.88950023651123046875e+01) (0, -3.94771080017089843750e+01) (1, 2.98829631805419921875e+01) (2, 9.79783248901367187500e+00) (3, 1.76432693004608154297e+00) (4, -1.23196721076965332031e+00) (5, -2.28679060935974121094e+00) (6, 2.89591044187545776367e-01) (7, -2.85733532905578613281e+00) (8, 2.31338787078857421875e+00) (9, 1.86436331272125244141e+00) (10, 7.14317750930786132812e+00) (11, -2.21514821052551269531e+00) (12, 3.82986158132553100586e-01) (13, -5.56571602821350097656e-01) (14, 1.96432135999202728271e-02) (15, -3.04526996612548828125e+00) (16, -3.32087669372558593750e+01) (17, 2.04157066345214843750e+01) (18, 3.31815261840820312500e+01) (19, 1.47359409332275390625e+01) (20, 1.32372074127197265625e+01) (21, -2.31089000701904296875e+01) (0, -5.81028401851654052734e-01) (1, 1.63468933105468750000e+01) (2, 2.25691914558410644531e+00) (3, -3.73919010162353515625e-01) (4, 1.13345883786678314209e-01) (5, -1.75593996047973632812e+00) (6, 1.09071075916290283203e-01) (7, 5.95177002251148223877e-02) (8, 7.29986071586608886719e-01) (9, -3.00547790527343750000e+00) (10, -1.44453001022338867188e+00) (11, -2.01538667082786560059e-01) (12, 7.85204023122787475586e-02) (13, -4.63979005813598632812e-01) (14, 4.37052641063928604126e-03) (15, -3.98563027381896972656e+00) (16, -1.67451972961425781250e+01) (17, 4.36066770553588867188e+00) (18, 1.60978639125823974609e+00) (19, 5.08386087417602539062e+00) (20, -5.84223604202270507812e+00) (21, -2.07757225036621093750e+01) (0, -1.51518285274505615234e-01) (1, 1.60412101745605468750e+01) (2, 3.08315682411193847656e+00) (3, -3.94520252943038940430e-01) (4, 1.35298788547515869141e+00) (5, -1.68240571022033691406e+00) (6, 1.31606966257095336914e-01) (7, -1.86860978603363037109e-01) (8, 1.62400558590888977051e-01) (9, -3.02639603614807128906e+00) (10, -1.30645084381103515625e+00) (11, -3.93184870481491088867e-02) (12, 1.31845593452453613281e-01) (13, -3.46775293350219726562e-01) (14, -2.47666593641042709351e-02) (15, -4.11418151855468750000e+00) (16, -1.61383991241455078125e+01) (17, 4.66158866882324218750e+00) (18, 3.51269507408142089844e+00) (19, 6.52579116821289062500e+00) (20, -5.16499662399291992188e+00) (21, -2.09921360015869140625e+01) (0, -1.34106998443603515625e+01) (1, -6.17171621322631835938e+00) (2, 1.82409019470214843750e+01) (3, 1.13796675205230712891e+00) (4, 7.39930057525634765625e+00) (5, 4.69284486770629882812e+00) (6, 4.00421142578125000000e-01) (7, 6.02221965789794921875e+00) (8, -7.04401540756225585938e+00) (9, -3.73254418373107910156e-01) (10, -6.11951208114624023438e+00) (11, -3.75854468345642089844e+00) (12, 3.48849624395370483398e-01) (13, 5.83442226052284240723e-02) (14, -7.17253684997558593750e-02) (15, -1.38941946029663085938e+01) (16, -4.64657592773437500000e+01) (17, 1.35444793701171875000e+01) (18, 4.55148887634277343750e+01) (19, 1.00205192565917968750e+01) (20, 3.58111877441406250000e+01) (21, -8.90443134307861328125e+00) (0, 4.99252777099609375000e+01) (1, 1.50608646869659423828e+00) (2, 1.32755861282348632812e+01) (3, 8.41612517833709716797e-01) (4, 1.12426495552062988281e+00) (5, 1.11303396224975585938e+01) (6, 4.41169947385787963867e-01) (7, -4.15774440765380859375e+00) (8, -4.59784221649169921875e+00) (9, 1.27490015029907226562e+01) (10, 7.06138038635253906250e+00) (11, -2.93968820571899414062e+00) (12, 6.97205126285552978516e-01) (13, 1.00626671314239501953e+00) (14, -2.76776365935802459717e-02) (15, 9.37089252471923828125e+00) (16, -9.71547470092773437500e+01) (17, 1.56648731231689453125e+01) (18, 1.12428916931152343750e+02) (19, 4.06809692382812500000e+01) (20, 6.61409225463867187500e+01) (21, -7.26055755615234375000e+01) (0, -6.44243927001953125000e+01) (1, -1.17813774108886718750e+02) (2, 2.27094402313232421875e+01) (3, -1.01614677906036376953e+00) (4, 1.24258184432983398438e+00) (5, 6.02845764160156250000e+00) (6, 3.99842232465744018555e-01) (7, 3.50559043884277343750e+00) (8, 1.48685419559478759766e+00) (9, -1.01649360656738281250e+01) (10, 3.58896827697753906250e+00) (11, -3.71697521209716796875e+00) (12, 4.19828712940216064453e-01) (13, -2.86870718002319335938e+00) (14, 9.82164517045021057129e-02) (15, 1.29370508193969726562e+01) (16, -5.29940700531005859375e+00) (17, -9.06248664855957031250e+00) (18, -1.14032602310180664062e+01) (19, 1.00508213043212890625e+01) (20, -1.41015300750732421875e+01) (21, 6.07077360153198242188e-01) (0, -2.97535419464111328125e+00) (1, -7.88950681686401367188e+00) (2, 8.32989811897277832031e-01) (3, 2.47979909181594848633e-02) (4, 1.26085147261619567871e-01) (5, 3.86539012193679809570e-01) (6, -3.96399460732936859131e-02) (7, -1.57418942451477050781e+00) (8, 7.06850230693817138672e-01) (9, 1.66470420360565185547e+00) (10, 1.90597629547119140625e+00) (11, 7.37749636173248291016e-02) (12, -1.00049665197730064392e-02) (13, 1.34635940194129943848e-01) (14, -8.06433036923408508301e-02) (15, -7.91875198483467102051e-02) (16, 2.43254232406616210938e+00) (17, 9.98643577098846435547e-01) (18, -5.32322406768798828125e-01) (19, -1.78478586673736572266e+00) (20, 4.39059793949127197266e-01) (21, -5.03372812271118164062e+00) (0, -7.55720043182373046875e+00) (1, -2.05057258605957031250e+01) (2, -7.21759319305419921875e-01) (3, 3.06555032730102539062e+00) (4, -7.01782584190368652344e-01) (5, 6.09575510025024414062e+00) (6, -2.13300641626119613647e-02) (7, -5.27196705341339111328e-01) (8, -4.49388265609741210938e-01) (9, -1.40055918693542480469e+00) (10, -9.55782651901245117188e-01) (11, 2.62197464704513549805e-01) (12, -7.00470805168151855469e-02) (13, 3.90778005123138427734e-01) (14, -7.36721456050872802734e-02) (15, -2.01221060752868652344e+00) (16, 3.00529050827026367188e+00) (17, 2.06243729591369628906e+00) (18, -3.43174648284912109375e+00) (19, -3.20335769653320312500e+00) (20, -1.48162925243377685547e+00) (21, 1.83557778596878051758e-01) (0, 5.12917232513427734375e+00) (1, 1.24020538330078125000e+01) (2, 5.10572385787963867188e+00) (3, -7.58769631385803222656e-01) (4, 8.93412017822265625000e+00) (5, 2.16710543632507324219e+00) (6, 3.49907696247100830078e-01) (7, 5.38934850692749023438e+00) (8, -2.48975443840026855469e+00) (9, 3.75074005126953125000e+00) (10, 3.55797004699707031250e+00) (11, -3.64924573898315429688e+00) (12, 4.40791875123977661133e-01) (13, -5.60269260406494140625e+00) (14, 6.40182942152023315430e-02) (15, 5.58773815631866455078e-01) (16, -4.13806343078613281250e+01) (17, 6.76643562316894531250e+00) (18, 9.93444919586181640625e+00) (19, 4.13241624832153320312e+00) (20, 1.72030341625213623047e+00) (21, -2.40095405578613281250e+01) (0, -2.28512535095214843750e+01) (1, -1.69134068489074707031e+00) (2, -3.32784581184387207031e+00) (3, -1.39577567577362060547e+00) (4, -2.59175952523946762085e-02) (5, 1.08946332931518554688e+01) (6, -3.51966060698032379150e-02) (7, -1.56947863101959228516e+00) (8, -7.90262579917907714844e-01) (9, -3.85189461708068847656e+00) (10, 4.61986684799194335938e+00) (11, -2.92158842086791992188e-01) (12, -2.12247818708419799805e-01) (13, 4.31800460815429687500e+00) (14, 1.31511194631457328796e-02) (15, -4.30731248855590820312e+00) (16, 1.93417530059814453125e+01) (17, -1.18642606735229492188e+01) (18, -2.03935146331787109375e+01) (19, -1.66592216491699218750e+01) (20, -8.94102001190185546875e+00) (21, 7.71662569046020507812e+00) (0, -5.53647089004516601562e+00) (1, -2.46772804260253906250e+01) (2, -5.11847114562988281250e+00) (3, 2.96411871910095214844e+00) (4, -1.06436908245086669922e+00) (5, 4.25961637496948242188e+00) (6, -2.11045056581497192383e-01) (7, -2.94924902915954589844e+00) (8, -8.54395985603332519531e-01) (9, -3.11336040496826171875e+00) (10, -9.25298035144805908203e-01) (11, 3.92453581094741821289e-01) (12, -1.22362233698368072510e-01) (13, 4.17477697134017944336e-01) (14, 7.85243138670921325684e-02) (15, -2.78013515472412109375e+00) (16, 1.94918708801269531250e+01) (17, 3.78728461265563964844e+00) (18, -1.36688292026519775391e+00) (19, 2.04317346215248107910e-01) (20, -2.64833354949951171875e+00) (21, -1.15273594856262207031e+00) (0, -1.07702541351318359375e+01) (1, -1.14591014385223388672e+00) (2, -1.81690704822540283203e+00) (3, -6.27389669418334960938e-01) (4, 1.89089357852935791016e-01) (5, -1.46714782714843750000e+00) (6, 1.74653917551040649414e-01) (7, 5.11892366409301757812e+00) (8, -3.20973968505859375000e+00) (9, -2.48731994628906250000e+00) (10, -1.05939464569091796875e+01) (11, 3.14030855894088745117e-01) (12, 1.73536747694015502930e-01) (13, -1.74681591987609863281e+00) (14, -3.71760800480842590332e-02) (15, 1.42998516559600830078e+00) (16, -1.94405460357666015625e+01) (17, 4.08899879455566406250e+00) (18, -2.12169342041015625000e+01) (19, 2.48807678222656250000e+01) (20, -3.74520416259765625000e+01) (21, 2.96038222312927246094e+00) (0, -6.83209705352783203125e+00) (1, -2.47537088394165039062e+00) (2, 4.23316717147827148438e+00) (3, -1.50376164913177490234e+00) (4, 3.73211789131164550781e+00) (5, 3.88157582283020019531e+00) (6, 2.24779665470123291016e-01) (7, -5.01967477798461914062e+00) (8, -7.16666746139526367188e+00) (9, -1.71102523803710937500e+00) (10, -1.54583683013916015625e+01) (11, 2.82549023628234863281e+00) (12, 2.80872017145156860352e-01) (13, 5.51677131652832031250e+00) (14, -3.30311469733715057373e-02) (15, 1.43085014820098876953e+00) (16, 1.91095981597900390625e+01) (17, -2.44808464050292968750e+01) (18, 1.68981018066406250000e+02) (19, 1.15406684875488281250e+02) (20, 4.54910163879394531250e+01) (21, -4.16899070739746093750e+01) (0, 1.79364356994628906250e+01) (1, 6.19486856460571289062e+00) (2, -1.32953178882598876953e+00) (3, -2.96935796737670898438e-01) (4, 1.02266359329223632812e+01) (5, 1.71710472106933593750e+01) (6, -1.46238252520561218262e-01) (7, -3.80273461341857910156e+00) (8, -7.10937321186065673828e-01) (9, -1.05405628681182861328e+00) (10, 5.37297534942626953125e+00) (11, -1.46182909607887268066e-01) (12, -3.97015959024429321289e-01) (13, -2.05890506505966186523e-01) (14, -1.67586319148540496826e-02) (15, 1.47920083999633789062e+01) (16, 5.05106315612792968750e+01) (17, -1.92047810554504394531e+00) (18, -1.65752661228179931641e+00) (19, 6.46191406250000000000e+00) (20, -9.68298625946044921875e+00) (21, -3.14921989440917968750e+01) (0, -5.71047973632812500000e+00) (1, -2.15178146362304687500e+01) (2, -6.75771284103393554688e+00) (3, 3.97753286361694335938e+00) (4, -7.20072150230407714844e-01) (5, 4.78196382522583007812e+00) (6, -3.05486381053924560547e-01) (7, -6.27071905136108398438e+00) (8, -1.10374021530151367188e+00) (9, -3.27405619621276855469e+00) (10, -1.52457666397094726562e+00) (11, -1.60819012671709060669e-02) (12, -1.63137227296829223633e-01) (13, 2.91211342811584472656e+00) (14, -1.96913983672857284546e-02) (15, -2.97196865081787109375e-01) (16, 3.57422142028808593750e+01) (17, 1.27973699569702148438e+01) (18, 2.79033589363098144531e+00) (19, 3.19834876060485839844e+00) (20, -2.33222931623458862305e-01) (21, -2.12790107727050781250e+00) (0, -2.26817417144775390625e+01) (1, -3.34412727355957031250e+01) (2, 1.42716522216796875000e+01) (3, -8.86759698390960693359e-01) (4, 2.30176067352294921875e+00) (5, 1.15488421916961669922e+00) (6, 3.11239302158355712891e-01) (7, 5.86487674713134765625e+00) (8, 1.17795264720916748047e+00) (9, -5.14705944061279296875e+00) (10, -8.27561759948730468750e+00) (11, 5.69823205471038818359e-01) (12, 4.16118562221527099609e-01) (13, -1.70498943328857421875e+00) (14, 1.64787486195564270020e-01) (15, -1.10627794265747070312e+00) (16, -2.08165607452392578125e+01) (17, -5.59382343292236328125e+00) (18, -8.01282405853271484375e+00) (19, 6.50079965591430664062e+00) (20, -1.11267967224121093750e+01) (21, -3.32579946517944335938e+00) (0, -3.30263948440551757812e+00) (1, 1.77232990264892578125e+01) (2, 2.22094327211380004883e-01) (3, -4.36235010623931884766e-01) (4, 1.33740425109863281250e+00) (5, -2.24414873123168945312e+00) (6, 1.60766273736953735352e-01) (7, 5.24700462818145751953e-01) (8, 1.72410833835601806641e+00) (9, -5.44097471237182617188e+00) (10, -3.39388656616210937500e+00) (11, -7.02111423015594482422e-02) (12, 2.39948481321334838867e-01) (13, -4.39783215522766113281e-01) (14, 4.75370958447456359863e-02) (15, -4.17736625671386718750e+00) (16, -2.49672813415527343750e+01) (17, 5.07458114624023437500e+00) (18, -1.02401149272918701172e+00) (19, 7.71565008163452148438e+00) (20, -1.06173782348632812500e+01) (21, -1.95909957885742187500e+01) (0, -1.84254479408264160156e+00) (1, 1.65453109741210937500e+01) (2, 2.18123364448547363281e+00) (3, -2.82491296529769897461e-01) (4, 1.61877289414405822754e-01) (5, -1.88241374492645263672e+00) (6, 2.10636541247367858887e-01) (7, 6.98776602745056152344e-01) (8, 1.00301301479339599609e+00) (9, -3.72478890419006347656e+00) (10, -1.89795470237731933594e+00) (11, -2.39978045225143432617e-01) (12, 1.10563427209854125977e-01) (13, -5.28131663799285888672e-01) (14, 9.61597934365272521973e-02) (15, -2.47101306915283203125e+00) (16, -1.72513809204101562500e+01) (17, 3.89007091522216796875e+00) (18, -5.49705803394317626953e-01) (19, 5.85229301452636718750e+00) (20, -8.27333736419677734375e+00) (21, -1.96703872680664062500e+01) (0, -2.45605516433715820312e+00) (1, 2.55687637329101562500e+01) (2, 8.06791687011718750000e+00) (3, -8.95946025848388671875e-02) (4, 2.21320927143096923828e-01) (5, -3.33651947975158691406e+00) (6, 2.16410353779792785645e-01) (7, 9.43192064762115478516e-01) (8, 4.35074138641357421875e+00) (9, -1.06248331069946289062e+01) (10, -3.15668201446533203125e+00) (11, -1.91510334610939025879e-01) (12, 1.85988649725914001465e-01) (13, -9.09019529819488525391e-01) (14, -2.94219702482223510742e-02) (15, -6.93948554992675781250e+00) (16, -3.54188804626464843750e+01) (17, 6.28916835784912109375e+00) (18, 3.33206772804260253906e+00) (19, 1.57948131561279296875e+01) (20, -1.54684467315673828125e+01) (21, -2.83585128784179687500e+01) (0, -1.85375139117240905762e-01) (1, 2.07036584615707397461e-01) (2, -2.59503626823425292969e+00) (3, 1.14326727390289306641e+00) (4, -6.92032277584075927734e-01) (5, 2.49165511131286621094e+00) (6, -1.41126304864883422852e-01) (7, -9.49110090732574462891e-01) (8, -1.87329137325286865234e+00) (9, -2.39854979515075683594e+00) (10, 1.20019525289535522461e-01) (11, 2.40302070975303649902e-01) (12, -7.56134241819381713867e-02) (13, -5.36189913749694824219e-01) (14, 8.52553453296422958374e-03) (15, -9.23126041889190673828e-01) (16, 2.16937217712402343750e+01) (17, -2.96826720237731933594e+00) (18, -1.64189016819000244141e+00) (19, -2.53677511215209960938e+00) (20, 4.60449814796447753906e-01) (21, -5.12478971481323242188e+00) (0, -1.30987977981567382812e+01) (1, -4.94700622558593750000e+00) (2, -1.91112174987792968750e+01) (3, 3.18678736686706542969e+00) (4, 1.11073999404907226562e+01) (5, 9.69253921508789062500e+00) (6, -1.36518493294715881348e-01) (7, -1.04397764205932617188e+01) (8, -5.69660997390747070312e+00) (9, 3.72679662704467773438e+00) (10, 8.65817260742187500000e+00) (11, 1.27462763339281082153e-02) (12, -3.26643288135528564453e-01) (13, 9.90693032741546630859e-01) (14, 8.36587995290756225586e-02) (15, -2.60593185424804687500e+01) (16, 1.30803497314453125000e+02) (17, -4.95523796081542968750e+01) (18, 6.23711395263671875000e+01) (19, -7.21090927124023437500e+01) (20, 1.90026626586914062500e+02) (21, -1.10123062133789062500e+01) (0, 4.48752861022949218750e+01) (1, -9.92647323608398437500e+01) (2, -4.34762763977050781250e+00) (3, -3.57888013124465942383e-01) (4, 8.63168239593505859375e+00) (5, -1.95322525501251220703e+00) (6, -1.49902626872062683105e-01) (7, -7.37893915176391601562e+00) (8, -2.72152090072631835938e+00) (9, 7.54515111446380615234e-01) (10, 4.15569877624511718750e+00) (11, -1.85036703944206237793e-01) (12, -2.80817925930023193359e-01) (13, -1.01268899440765380859e+00) (14, -1.31058804690837860107e-02) (15, -7.42103517055511474609e-01) (16, 8.35203475952148437500e+01) (17, 1.66436061859130859375e+01) (18, 9.11654052734375000000e+01) (19, 4.23580017089843750000e+01) (20, 5.19146118164062500000e+01) (21, -5.83540458679199218750e+01) (0, -2.59477066993713378906e+00) (1, 1.66421718597412109375e+01) (2, 1.62842643260955810547e+00) (3, -4.15230870246887207031e-01) (4, 4.67475280165672302246e-02) (5, -1.72708535194396972656e+00) (6, 8.01454409956932067871e-02) (7, 2.01387333869934082031e+00) (8, 1.04925370216369628906e+00) (9, -4.65697526931762695312e+00) (10, -3.02423810958862304688e+00) (11, -1.24417774379253387451e-01) (12, 1.35256856679916381836e-01) (13, -8.63487780094146728516e-01) (14, -4.69057001173496246338e-02) (15, -2.36733675003051757812e+00) (16, -1.54392652511596679688e+01) (17, 1.75523948669433593750e+00) (18, -1.47122049331665039062e+00) (19, 6.20248126983642578125e+00) (20, -9.57463550567626953125e+00) (21, -1.89611759185791015625e+01) (0, -8.22377624511718750000e+01) (1, 2.18155918121337890625e+01) (2, -3.49719822406768798828e-01) (3, 4.08617466688156127930e-01) (4, 5.32025289535522460938e+00) (5, -7.04443380236625671387e-02) (6, 4.42061349749565124512e-02) (7, 1.57447648048400878906e+00) (8, -5.98465251922607421875e+00) (9, 5.21964216232299804688e+00) (10, 6.34902048110961914062e+00) (11, -5.13234376907348632812e-01) (12, 2.96775754541158676147e-02) (13, -7.40767046809196472168e-02) (14, 1.02955058217048645020e-01) (15, -4.00939846038818359375e+00) (16, -1.82123546600341796875e+01) (17, 1.53972635269165039062e+01) (18, 1.65896263122558593750e+01) (19, 3.29060554504394531250e+01) (20, -4.81045484542846679688e+00) (21, 1.28458337783813476562e+01) (0, -7.56540870666503906250e+00) (1, -2.06189651489257812500e+01) (2, -1.01590298116207122803e-01) (3, 6.64191663265228271484e-01) (4, -7.86428332328796386719e-01) (5, 3.00287038087844848633e-01) (6, -6.90103247761726379395e-02) (7, 1.39203861355781555176e-01) (8, 6.15029096603393554688e-01) (9, -5.02263545989990234375e-01) (10, -1.03041589260101318359e+00) (11, 1.54223203659057617188e-01) (12, -1.86911262571811676025e-02) (13, 6.78696930408477783203e-02) (14, 8.33997428417205810547e-02) (15, -1.78921699523925781250e+00) (16, 2.04539036750793457031e+00) (17, 1.56788718700408935547e+00) (18, -3.37321448326110839844e+00) (19, -2.76840305328369140625e+00) (20, -1.59003043174743652344e+00) (21, 1.46569341421127319336e-01) (0, -1.90481066703796386719e+00) (1, 8.56661021709442138672e-01) (2, 3.76547604799270629883e-01) (3, -3.83437648415565490723e-02) (4, -1.46189138293266296387e-01) (5, -1.28012627363204956055e-01) (6, 1.17706529796123504639e-01) (7, -8.47407355904579162598e-02) (8, 9.92001965641975402832e-02) (9, -4.98151719570159912109e-01) (10, -6.03071093559265136719e-01) (11, -4.01095524430274963379e-02) (12, -1.66939441114664077759e-02) (13, 2.58626304566860198975e-02) (14, 9.12946984171867370605e-02) (15, -1.09541702270507812500e+00) (16, -2.38041377067565917969e+00) (17, 1.17966100573539733887e-01) (18, -5.21883845329284667969e-01) (19, -3.56570333242416381836e-01) (20, -9.07329618930816650391e-01) (21, -5.47018623352050781250e+00) (0, -7.18330955505371093750e+00) (1, -2.36382884979248046875e+01) (2, -2.96509432792663574219e+00) (3, 1.76796185970306396484e+00) (4, -6.74185037612915039062e-01) (5, 1.40394866466522216797e+00) (6, -1.15637928247451782227e-01) (7, -1.06718778610229492188e+00) (8, 9.08795535564422607422e-01) (9, -2.66259551048278808594e+00) (10, -8.27292144298553466797e-01) (11, 4.26128864288330078125e-01) (12, -7.66473496332764625549e-03) (13, 1.96210548281669616699e-01) (14, 5.09721562266349792480e-02) (15, -2.05758404731750488281e+00) (16, 8.35990524291992187500e+00) (17, 2.40210008621215820312e+00) (18, -2.46920275688171386719e+00) (19, -2.71559309959411621094e+00) (20, -8.70666980743408203125e-01) (21, -2.53418952226638793945e-01) (0, -6.67680692672729492188e+00) (1, -2.32526912689208984375e+01) (2, -3.66583108901977539062e+00) (3, 1.37474811077117919922e+00) (4, -5.02370595932006835938e-01) (5, 1.42627894878387451172e+00) (6, -1.03461690247058868408e-01) (7, -1.61514699459075927734e+00) (8, 9.69701886177062988281e-01) (9, -2.53181576728820800781e+00) (10, -8.09899926185607910156e-01) (11, 4.28155869245529174805e-01) (12, -1.28486841917037963867e-01) (13, -2.98188650049269199371e-03) (14, -5.36293573677539825439e-02) (15, -2.06754803657531738281e+00) (16, 1.25158910751342773438e+01) (17, 2.90445566177368164062e+00) (18, -1.20059442520141601562e+00) (19, -1.28990006446838378906e+00) (20, -4.04890060424804687500e-01) (21, -8.56494963169097900391e-01) (0, 4.66130752563476562500e+01) (1, 3.97835159301757812500e+00) (2, -1.06523904800415039062e+01) (3, -7.93255209922790527344e-01) (4, -3.66643452644348144531e+00) (5, -3.49743676185607910156e+00) (6, -2.42791220545768737793e-01) (7, -1.04329948425292968750e+01) (8, -8.17089462280273437500e+00) (9, -5.46252202987670898438e+00) (10, -4.91809558868408203125e+00) (11, 2.63769328594207763672e-02) (12, -4.95536983013153076172e-01) (13, -1.59098815917968750000e+00) (14, 6.47224336862564086914e-02) (15, -2.60198330879211425781e+00) (16, 8.37996673583984375000e+01) (17, -2.07039756774902343750e+01) (18, -2.72368068695068359375e+01) (19, 4.07198295593261718750e+01) (20, -7.09044723510742187500e+01) (21, -3.57023353576660156250e+01) (0, -5.91920733451843261719e-01) (1, 1.59287204742431640625e+01) (2, 1.70996773242950439453e+00) (3, -4.61289793252944946289e-01) (4, 2.88977074623107910156e+00) (5, -1.92051196098327636719e+00) (6, 1.50246515870094299316e-01) (7, -1.17689423263072967529e-01) (8, 1.19347631931304931641e+00) (9, -3.23063135147094726562e+00) (10, -3.20190262794494628906e+00) (11, -2.69800722599029541016e-01) (12, 2.14564368128776550293e-01) (13, -1.80658385157585144043e-01) (14, -2.47377064079046249390e-02) (15, -3.96071100234985351562e+00) (16, -2.12771759033203125000e+01) (17, 6.07330417633056640625e+00) (18, 2.38691043853759765625e+00) (19, 6.34450912475585937500e+00) (20, -5.86127090454101562500e+00) (21, -2.03963718414306640625e+01) (0, -7.80413198471069335938e+00) (1, -1.99600658416748046875e+01) (2, 8.00837755203247070312e-01) (3, 7.80548691749572753906e-01) (4, -8.13972651958465576172e-01) (5, 2.75308370590209960938e-01) (6, 3.72991450130939483643e-02) (7, -7.41164609789848327637e-02) (8, 6.01838767528533935547e-01) (9, -7.15075552463531494141e-01) (10, -1.02966630458831787109e+00) (11, 1.27183437347412109375e-01) (12, -1.19408294558525085449e-02) (13, 1.02175533771514892578e-01) (14, 1.97063032537698745728e-02) (15, -1.84100806713104248047e+00) (16, 8.48462104797363281250e-01) (17, 1.84961307048797607422e+00) (18, -3.83186793327331542969e+00) (19, -3.30388140678405761719e+00) (20, -1.84216165542602539062e+00) (21, 3.79401028156280517578e-01) (0, -2.29234242439270019531e+00) (1, 2.16548194885253906250e+01) (2, 1.76732569932937622070e-01) (3, -8.33484470844268798828e-01) (4, 8.93054828047752380371e-02) (5, -3.29747080802917480469e+00) (6, 2.70424008369445800781e-01) (7, 3.87258410453796386719e+00) (8, 1.84532821178436279297e+00) (9, -9.56678009033203125000e+00) (10, -7.29789447784423828125e+00) (11, -2.42621764540672302246e-01) (12, 3.37781012058258056641e-01) (13, -8.42289328575134277344e-01) (14, -5.48673868179321289062e-02) (15, -7.21955442428588867188e+00) (16, -4.15233268737792968750e+01) (17, 3.18113493919372558594e+00) (18, 7.59630143642425537109e-01) (19, 1.07668933868408203125e+01) (20, -1.38685216903686523438e+01) (21, -2.40227718353271484375e+01) (0, -1.92500305175781250000e+00) (1, 1.56107473373413085938e+01) (2, 1.88148188591003417969e+00) (3, -3.02157819271087646484e-01) (4, -1.46011918783187866211e-01) (5, -1.67932176589965820312e+00) (6, 1.81858494877815246582e-01) (7, 9.35939133167266845703e-01) (8, 1.28817725181579589844e+00) (9, -3.63874292373657226562e+00) (10, -1.78992426395416259766e+00) (11, -2.16201916337013244629e-01) (12, 1.38895392417907714844e-01) (13, -5.47898173332214355469e-01) (14, -1.24762952327728271484e-02) (15, -2.61968469619750976562e+00) (16, -1.58398275375366210938e+01) (17, 3.16192889213562011719e+00) (18, -1.31205105781555175781e+00) (19, 4.23964977264404296875e+00) (20, -7.71740293502807617188e+00) (21, -1.85477809906005859375e+01) (0, -9.21050834655761718750e+00) (1, 7.78454494476318359375e+00) (2, 1.40241947174072265625e+01) (3, 1.77788126468658447266e+00) (4, -2.65410423278808593750e+00) (5, -4.48487615585327148438e+00) (6, 1.17906436324119567871e-01) (7, 1.73425807952880859375e+01) (8, 3.30897617340087890625e+00) (9, 9.97115516662597656250e+00) (10, -1.22428884506225585938e+01) (11, -3.80196005105972290039e-01) (12, 2.65413910150527954102e-01) (13, -2.24406766891479492188e+00) (14, 3.64664867520332336426e-02) (15, -9.53780460357666015625e+00) (16, -2.90106773376464843750e+01) (17, -6.45446729660034179688e+00) (18, -7.12858581542968750000e+01) (19, -2.15699024200439453125e+01) (20, -6.64589767456054687500e+01) (21, 5.19136095046997070312e+00) (0, -5.16023814678192138672e-01) (1, 1.81162414550781250000e+01) (2, 1.31011188030242919922e-01) (3, -6.22224926948547363281e-01) (4, 4.28872299194335937500e+00) (5, -2.14857220649719238281e+00) (6, 2.02257916331291198730e-01) (7, 2.42688566446304321289e-01) (8, 5.60636341571807861328e-01) (9, -3.51997280120849609375e+00) (10, -4.95299577713012695312e+00) (11, -1.53147548437118530273e-01) (12, 2.48009040951728820801e-01) (13, -3.42073768377304077148e-01) (14, 5.03969788551330566406e-02) (15, -3.45371651649475097656e+00) (16, -2.47643051147460937500e+01) (17, 5.57763338088989257812e+00) (18, 3.31903195381164550781e+00) (19, 8.64126014709472656250e+00) (20, -7.14214944839477539062e+00) (21, -2.25788249969482421875e+01) (0, -5.76069879531860351562e+00) (1, -2.33765830993652343750e+01) (2, -5.01102399826049804688e+00) (3, 1.60901963710784912109e+00) (4, -8.26037049293518066406e-01) (5, 1.65324354171752929688e+00) (6, -6.47738352417945861816e-02) (7, -3.09589743614196777344e+00) (8, 3.90502929687500000000e-01) (9, -3.11329317092895507812e+00) (10, -9.66941356658935546875e-01) (11, 5.81088721752166748047e-01) (12, -3.99648733437061309814e-02) (13, -4.95428830385208129883e-01) (14, -1.01401291787624359131e-01) (15, -2.71891212463378906250e+00) (16, 1.98822803497314453125e+01) (17, 4.45351457595825195312e+00) (18, 1.28237009048461914062e+00) (19, 1.97615897655487060547e+00) (20, -1.12391650676727294922e+00) (21, -1.83463275432586669922e+00) (0, -2.34677124023437500000e+00) (1, 1.89175949096679687500e+01) (2, 4.79342079162597656250e+00) (3, -4.50582146644592285156e-01) (4, -1.40641200542449951172e+00) (5, 7.87611126899719238281e-01) (6, -6.13354444503784179688e-02) (7, -5.43432086706161499023e-02) (8, -6.46558713912963867188e+00) (9, 1.32816028594970703125e+00) (10, -9.43769454956054687500e+00) (11, 1.32899358868598937988e-01) (12, -3.29036861658096313477e-01) (13, -4.13672637939453125000e+00) (14, -6.88098147511482238770e-02) (15, -4.37031173706054687500e+00) (16, 3.23917274475097656250e+01) (17, -1.98211631774902343750e+01) (18, -3.62191581726074218750e+01) (19, -1.41234960556030273438e+01) (20, -3.40278778076171875000e+01) (21, -1.61193180084228515625e+01) (0, -6.52720308303833007812e+00) (1, -3.24183374643325805664e-01) (2, -7.32353270053863525391e-01) (3, -1.46562922000885009766e+00) (4, -3.32732152938842773438e+00) (5, -4.31983137130737304688e+00) (6, 5.85989654064178466797e-01) (7, 1.16217613220214843750e+00) (8, -1.90381944179534912109e+00) (9, -1.30489540100097656250e+00) (10, -6.80315017700195312500e+00) (11, 3.83454537391662597656e+00) (12, 6.33896112442016601562e-01) (13, -1.93503165245056152344e+00) (14, 4.79263402521610260010e-02) (15, 7.63767898082733154297e-01) (16, -1.33008132934570312500e+02) (17, -2.01570415496826171875e+01) (18, -7.91644134521484375000e+01) (19, -1.38194625854492187500e+02) (20, 3.72712287902832031250e+01) (21, 1.61756401062011718750e+01) (0, -1.77424316406250000000e+01) (1, 1.32901644706726074219e+00) (2, 3.62815827131271362305e-01) (3, 5.39764612913131713867e-02) (4, -3.22100973129272460938e+00) (5, -4.15029239654541015625e+00) (6, 3.26575845479965209961e-01) (7, -1.91476953029632568359e+00) (8, -4.46073818206787109375e+00) (9, 4.94992303848266601562e+00) (10, -4.31698656082153320312e+00) (11, -2.06159067153930664062e+00) (12, 4.18086171150207519531e-01) (13, -6.98886573314666748047e-01) (14, -5.30405566096305847168e-02) (15, -8.73590087890625000000e+00) (16, -8.02505264282226562500e+01) (17, 1.70995464324951171875e+01) (18, -3.68628692626953125000e+01) (19, 4.43311805725097656250e+01) (20, -5.24310226440429687500e+01) (21, 3.94537925720214843750e+00) (0, -9.65795576572418212891e-01) (1, 1.57810554504394531250e+01) (2, 1.24676191806793212891e+00) (3, -4.41320925951004028320e-01) (4, 3.88855457305908203125e-01) (5, -1.88121223449707031250e+00) (6, 1.03511251509189605713e-01) (7, 6.12300574779510498047e-01) (8, 4.34754878282546997070e-01) (9, -3.11665940284729003906e+00) (10, -1.94666433334350585938e+00) (11, -1.46905332803726196289e-01) (12, 1.24563135206699371338e-01) (13, -7.10488796234130859375e-01) (14, -5.45463338494300842285e-02) (15, -2.92202377319335937500e+00) (16, -1.42329587936401367188e+01) (17, 3.29202461242675781250e+00) (18, 1.03261554241180419922e+00) (19, 5.72347974777221679688e+00) (20, -6.86840867996215820312e+00) (21, -1.98480339050292968750e+01) (0, -1.09378204345703125000e+02) (1, 1.84094600677490234375e+01) (2, -9.01768970489501953125e+00) (3, 2.80420875549316406250e+00) (4, -1.13541674613952636719e+00) (5, 1.67390966415405273438e+00) (6, -2.87279367446899414062e-01) (7, -1.29106407165527343750e+01) (8, -3.81404495239257812500e+00) (9, -1.97263088226318359375e+01) (10, -5.59424877166748046875e+00) (11, 8.59460532665252685547e-01) (12, -3.00411701202392578125e-01) (13, 7.18822145462036132812e+00) (14, 3.63616412505507469177e-03) (15, -7.82149934768676757812e+00) (16, 6.51799087524414062500e+01) (17, 2.11321811676025390625e+01) (18, 9.19108276367187500000e+01) (19, 6.21258354187011718750e+01) (20, 3.42889518737792968750e+01) (21, 1.22474336624145507812e+01) (0, -3.76436066627502441406e+00) (1, -2.72771924734115600586e-01) (2, 1.08882200717926025391e+00) (3, 3.87955874204635620117e-01) (4, 1.63536000251770019531e+00) (5, 2.76947826147079467773e-01) (6, 4.84645098447799682617e-01) (7, -7.99124419689178466797e-01) (8, -5.63285160064697265625e+00) (9, 1.19504547119140625000e+00) (10, 2.60502004623413085938e+00) (11, -2.19710469245910644531e+00) (12, 6.05416595935821533203e-01) (13, 1.21367764472961425781e+00) (14, -2.99215707927942276001e-02) (15, -1.96322858333587646484e+00) (16, -2.81981353759765625000e+02) (17, -1.11425580978393554688e+01) (18, 9.80296230316162109375e+00) (19, 3.76005411148071289062e+00) (20, 2.97494006156921386719e+00) (21, -9.30606007575988769531e-01) (0, 6.64038467407226562500e+01) (1, 1.21993894577026367188e+01) (2, 5.39405775070190429688e+00) (3, -3.03958922624588012695e-01) (4, -2.04534602165222167969e+00) (5, 5.98820485174655914307e-03) (6, 9.47896540164947509766e-02) (7, 1.85347213745117187500e+01) (8, -2.98313713073730468750e+00) (9, 3.82076287269592285156e+00) (10, -1.23736076354980468750e+01) (11, 4.21058744192123413086e-01) (12, 2.78339952230453491211e-01) (13, -2.20296382904052734375e+00) (14, 2.77848504483699798584e-02) (15, -1.09524888992309570312e+01) (16, -4.02593040466308593750e+01) (17, 4.29451084136962890625e+00) (18, -4.29306793212890625000e+01) (19, -8.36673164367675781250e+00) (20, -4.15063362121582031250e+01) (21, -5.02213554382324218750e+01) (0, -7.39019536972045898438e+00) (1, -2.27165718078613281250e+01) (2, -2.69526076316833496094e+00) (3, 5.53335905075073242188e+00) (4, -1.07528495788574218750e+00) (5, 6.53948831558227539062e+00) (6, -1.81123957037925720215e-01) (7, -1.69366693496704101562e+00) (8, -9.47351098060607910156e-01) (9, -4.54219579696655273438e+00) (10, -8.73383462429046630859e-01) (11, 4.18677985668182373047e-01) (12, -1.72899648547172546387e-01) (13, -1.95266045629978179932e-02) (14, -4.55676615238189697266e-02) (15, -2.01354503631591796875e+00) (16, 4.38136291503906250000e+00) (17, 3.34357261657714843750e+00) (18, -2.81365394592285156250e+00) (19, -3.82948875427246093750e+00) (20, -6.28929138183593750000e-01) (21, -3.39814624749124050140e-03) (0, -1.56138580322265625000e+02) (1, 8.75067040324211120605e-02) (2, -1.40876328945159912109e+00) (3, 9.56937253475189208984e-01) (4, 1.92511863708496093750e+01) (5, 7.52350234985351562500e+00) (6, 1.87094599008560180664e-01) (7, 7.90350246429443359375e+00) (8, 1.37888622283935546875e+01) (9, -2.01031703948974609375e+01) (10, -2.18247585296630859375e+01) (11, 4.15312409400939941406e-01) (12, 4.56360787153244018555e-01) (13, -1.05533428192138671875e+01) (14, -2.67822928726673126221e-02) (15, -3.91272020339965820312e+00) (16, -6.63154525756835937500e+01) (17, -3.99505653381347656250e+01) (18, -1.83904628753662109375e+01) (19, -2.15333976745605468750e+01) (20, 1.53426313400268554688e+01) (21, 5.04761886596679687500e+01) (0, -2.80181813240051269531e+00) (1, -1.77934324741363525391e+00) (2, 1.19222080707550048828e+00) (3, -3.07679027318954467773e-01) (4, 2.08854079246520996094e-01) (5, -6.82597696781158447266e-01) (6, 1.02662771940231323242e-01) (7, -7.91895508766174316406e-01) (8, -3.62651765346527099609e-01) (9, -1.80526807904243469238e-01) (10, -5.94290971755981445312e-01) (11, -1.43721355125308036804e-02) (12, 5.37016615271568298340e-02) (13, -3.93501937389373779297e-01) (14, 5.78360483050346374512e-02) (15, -1.43244981765747070312e+00) (16, -2.74934148788452148438e+00) (17, 1.02472114562988281250e+00) (18, -3.31276506185531616211e-01) (19, -4.59241867065429687500e-01) (20, -3.92844676971435546875e-01) (21, -5.41024732589721679688e+00) (0, -2.66156911849975585938e+00) (1, 1.75014095306396484375e+01) (2, 1.77901253104209899902e-01) (3, -5.12158989906311035156e-01) (4, 1.87035095691680908203e+00) (5, -2.33209586143493652344e+00) (6, 1.50435701012611389160e-01) (7, 3.97474855184555053711e-01) (8, 1.50652503967285156250e+00) (9, -4.47966766357421875000e+00) (10, -3.67522025108337402344e+00) (11, -1.81854784488677978516e-01) (12, 2.48573869466781616211e-01) (13, -4.42672401666641235352e-01) (14, 7.57615342736244201660e-02) (15, -4.41588926315307617188e+00) (16, -2.44423351287841796875e+01) (17, 5.44223070144653320312e+00) (18, 4.10375803709030151367e-01) (19, 8.92170715332031250000e+00) (20, -1.02297868728637695312e+01) (21, -2.01125240325927734375e+01) (0, 2.44267082214355468750e+01) (1, 3.91110801696777343750e+01) (2, -1.58694286346435546875e+01) (3, -4.31710816919803619385e-02) (4, -2.77990722656250000000e+00) (5, -5.33996343612670898438e+00) (6, 1.44797757267951965332e-01) (7, -1.96978187561035156250e+00) (8, -1.42012023925781250000e+00) (9, 1.20542011260986328125e+01) (10, -6.43544769287109375000e+00) (11, -7.70482957363128662109e-01) (12, 4.74027276039123535156e-01) (13, -9.16289508342742919922e-01) (14, 1.20064735412597656250e-01) (15, -9.21099662780761718750e+00) (16, -6.62209472656250000000e+01) (17, 4.71325731277465820312e+00) (18, -9.75666427612304687500e+01) (19, -8.25584030151367187500e+01) (20, -5.12075881958007812500e+01) (21, -3.96268386840820312500e+01) (0, 3.09364757537841796875e+01) (1, -1.54172714233398437500e+02) (2, 7.27909374237060546875e+00) (3, 2.76222014427185058594e+00) (4, -4.13147896528244018555e-01) (5, -4.13438510894775390625e+00) (6, 6.15022815763950347900e-02) (7, 1.41231756210327148438e+01) (8, -3.95311355590820312500e+00) (9, -2.91393113136291503906e+00) (10, -4.27764606475830078125e+00) (11, 2.37439982593059539795e-02) (12, -9.26690548658370971680e-02) (13, -3.27491092681884765625e+00) (14, -1.88758689910173416138e-02) (15, -7.14249253273010253906e-01) (16, 3.77727661132812500000e+01) (17, -3.12198162078857421875e+01) (18, -6.15774116516113281250e+01) (19, -3.91129112243652343750e+01) (20, -4.29614372253417968750e+01) (21, -1.82815780639648437500e+01) (0, -5.29546689987182617188e+00) (1, -2.81634235382080078125e+01) (2, -6.41377782821655273438e+00) (3, 8.66566777229309082031e-01) (4, -8.15160274505615234375e-01) (5, 1.63547706604003906250e+00) (6, -5.43578602373600006104e-02) (7, -4.31364202499389648438e+00) (8, -8.05289566516876220703e-01) (9, -2.81295895576477050781e+00) (10, -1.06470096111297607422e+00) (11, 5.51628410816192626953e-01) (12, -1.18008732795715332031e-01) (13, -1.46558955311775207520e-01) (14, -9.07586291432380676270e-02) (15, -3.13249087333679199219e+00) (16, 2.69091720581054687500e+01) (17, 3.94498252868652343750e+00) (18, -1.14543855190277099609e+00) (19, 1.88499772548675537109e+00) (20, -3.44092988967895507812e+00) (21, -1.78574717044830322266e+00) (0, -1.42902815341949462891e+00) (1, 1.54140787124633789062e+01) (2, 1.02876031398773193359e+00) (3, -4.73722547292709350586e-01) (4, 5.63931243959814310074e-04) (5, -1.67062878608703613281e+00) (6, -9.99767519533634185791e-03) (7, 7.81496524810791015625e-01) (8, 6.52861714363098144531e-01) (9, -3.37634730339050292969e+00) (10, -1.96222472190856933594e+00) (11, -1.68153911828994750977e-01) (12, 2.83067710697650909424e-02) (13, -5.92972040176391601562e-01) (14, 6.34549707174301147461e-02) (15, -2.28998470306396484375e+00) (16, -1.36059007644653320312e+01) (17, 2.35992288589477539062e+00) (18, -6.43119394779205322266e-01) (19, 4.40451192855834960938e+00) (20, -7.07268047332763671875e+00) (21, -1.88753299713134765625e+01) (0, -4.39096450805664062500e+00) (1, -2.56312768906354904175e-02) (2, 6.71923160552978515625e+00) (3, 5.82799732685089111328e-01) (4, 1.86524617671966552734e+00) (5, -5.24275922775268554688e+00) (6, 8.26033711433410644531e-01) (7, 5.62058401107788085938e+00) (8, -1.26800405979156494141e+00) (9, 1.34354043006896972656e+00) (10, -1.22685470581054687500e+01) (11, 6.66075277328491210938e+00) (12, 1.12268173694610595703e+00) (13, 2.78743803501129150391e-01) (14, 3.74293774366378784180e-02) (15, -1.89457714557647705078e+00) (16, -2.73299133300781250000e+02) (17, -1.50712308883666992188e+01) (18, 1.53746976852416992188e+01) (19, 2.90196967124938964844e+00) (20, -6.07757985591888427734e-01) (21, -1.20573914051055908203e+00) (0, -3.64604830741882324219e+00) (1, -6.98644340038299560547e-01) (2, -4.43190544843673706055e-01) (3, 2.76528120040893554688e-01) (4, 1.03017613291740417480e-01) (5, 5.27483820915222167969e-01) (6, 1.70347690582275390625e-02) (7, 2.36909762024879455566e-01) (8, 1.98798984289169311523e-01) (9, -2.06812396645545959473e-01) (10, 1.11133441329002380371e-01) (11, 8.08691903948783874512e-02) (12, -1.22873382642865180969e-02) (13, 6.44804313778877258301e-02) (14, -9.67308804392814636230e-02) (15, 4.84290093183517456055e-01) (16, 1.30772614479064941406e+00) (17, -2.60809987783432006836e-01) (18, -2.55618304014205932617e-01) (19, -5.69637000560760498047e-01) (20, 9.84144955873489379883e-03) (21, -4.60179710388183593750e+00) (0, -6.14565253257751464844e-01) (1, 1.64644203186035156250e+01) (2, 2.27497434616088867188e+00) (3, -3.83252918720245361328e-01) (4, 6.99192881584167480469e-01) (5, -1.84058034420013427734e+00) (6, 1.20860882103443145752e-01) (7, 1.52781471610069274902e-01) (8, 7.41150975227355957031e-01) (9, -3.15226602554321289062e+00) (10, -1.54978644847869873047e+00) (11, -3.35318185389041900635e-02) (12, 7.70272267982363700867e-03) (13, -4.98008102178573608398e-01) (14, -1.83247197419404983521e-02) (15, -3.87575030326843261719e+00) (16, -1.77704868316650390625e+01) (17, 4.64024448394775390625e+00) (18, 1.88892471790313720703e+00) (19, 5.68693161010742187500e+00) (20, -5.98157405853271484375e+00) (21, -2.09002838134765625000e+01) (0, -5.85456943511962890625e+00) (1, -9.64844644069671630859e-01) (2, 7.50506591796875000000e+00) (3, 2.67846673727035522461e-01) (4, 9.76871073246002197266e-01) (5, -9.54108893871307373047e-01) (6, 1.00981473922729492188e+00) (7, 2.26870775222778320312e+00) (8, 3.82325077056884765625e+00) (9, 5.90064637362957000732e-02) (10, 3.93326187133789062500e+00) (11, -3.26563167572021484375e+00) (12, 7.82820522785186767578e-01) (13, 1.74691295623779296875e+00) (14, 7.17698186635971069336e-02) (15, -2.78735470771789550781e+00) (16, -4.12344390869140625000e+02) (17, -9.16633529663085937500e+01) (18, 1.33364381790161132812e+01) (19, 2.88469910621643066406e+00) (20, -1.10764586925506591797e+00) (21, 3.63137626647949218750e+00) (0, 7.48293697834014892578e-01) (1, -3.06934261322021484375e+00) (2, -1.02973270416259765625e+00) (3, -9.85592126846313476562e-01) (4, -9.54391121864318847656e-01) (5, -6.17317390441894531250e+00) (6, 2.89784878492355346680e-01) (7, -2.99805927276611328125e+00) (8, -2.50677919387817382812e+00) (9, 1.92997097969055175781e+00) (10, -8.41292476654052734375e+00) (11, 2.37150168418884277344e+00) (12, 5.90710699558258056641e-01) (13, 4.71822947263717651367e-01) (14, 7.05628246068954467773e-02) (15, -5.34364986419677734375e+00) (16, -9.98950119018554687500e+01) (17, 1.25327997207641601562e+01) (18, -2.93997440338134765625e+01) (19, -7.76694536209106445312e+00) (20, -2.60807762145996093750e+01) (21, 1.95258820056915283203e+00) (0, 2.87177252769470214844e+00) (1, 2.05491161346435546875e+00) (2, 6.75803661346435546875e+00) (3, -7.87040684372186660767e-04) (4, -8.08796882629394531250e+00) (5, -1.55959582328796386719e+00) (6, 1.25063717365264892578e+00) (7, 4.63206386566162109375e+00) (8, 2.55933046340942382812e+00) (9, 3.47224950790405273438e-01) (10, 4.19121056795120239258e-01) (11, -5.35709559917449951172e-01) (12, 1.14260363578796386719e+00) (13, 6.10786199569702148438e-01) (14, 1.59455642104148864746e-01) (15, 9.40552651882171630859e-01) (16, -5.64168701171875000000e+02) (17, 7.54501647949218750000e+01) (18, 1.13482379913330078125e+01) (19, -1.23893814086914062500e+01) (20, 2.58145391941070556641e-01) (21, -6.83076977729797363281e-01) (0, -3.02717280387878417969e+00) (1, -3.64446997642517089844e+00) (2, 1.78068566322326660156e+00) (3, -6.30334615707397460938e-01) (4, -2.00917291641235351562e+00) (5, -3.25221729278564453125e+00) (6, 4.17870134115219116211e-01) (7, 1.92648160457611083984e+00) (8, 1.28773200511932373047e+00) (9, -8.15240383148193359375e+00) (10, -5.97235107421875000000e+00) (11, 6.02952241897583007812e-01) (12, 5.76570987701416015625e-01) (13, 6.10941164195537567139e-02) (14, 6.91846013069152832031e-02) (15, 5.00802695751190185547e-01) (16, -5.27905578613281250000e+01) (17, -2.21016120910644531250e+00) (18, -3.95832753181457519531e+00) (19, -1.01113986968994140625e+01) (20, 1.17420899868011474609e+00) (21, -2.95621514320373535156e-01) (0, -3.40561366081237792969e+00) (1, 1.91907196044921875000e+01) (2, -5.28130196034908294678e-02) (3, -4.97135460376739501953e-01) (4, 6.58399999141693115234e-01) (5, -2.37770295143127441406e+00) (6, 2.10886880755424499512e-01) (7, 1.42969894409179687500e+00) (8, 3.60960340499877929688e+00) (9, -7.89272594451904296875e+00) (10, -4.83546590805053710938e+00) (11, -3.00672829151153564453e-01) (12, 1.89243510365486145020e-01) (13, -5.64484417438507080078e-01) (14, 5.92119805514812469482e-02) (15, -4.92994070053100585938e+00) (16, -2.84878292083740234375e+01) (17, 1.33204305171966552734e+00) (18, -3.14296269416809082031e+00) (19, 4.14137935638427734375e+00) (20, -1.12444992065429687500e+01) (21, -2.03812065124511718750e+01) (0, 3.34996299743652343750e+01) (1, -3.06913223266601562500e+01) (2, -7.65677785873413085938e+00) (3, 1.21209073066711425781e+00) (4, -3.41168975830078125000e+00) (5, -2.88564181327819824219e+00) (6, -1.79717570543289184570e-01) (7, -5.29932260513305664062e+00) (8, -5.38500308990478515625e+00) (9, -1.83899417519569396973e-01) (10, -3.32649874687194824219e+00) (11, 4.31869834661483764648e-01) (12, -4.05484139919281005859e-01) (13, -7.31438845396041870117e-02) (14, 2.56505832076072692871e-02) (15, -2.74957799911499023438e+00) (16, 5.55686225891113281250e+01) (17, -1.55125637054443359375e+01) (18, -3.09990673065185546875e+01) (19, -4.49276580810546875000e+01) (20, 1.40510101318359375000e+01) (21, -2.05222053527832031250e+01) (0, -5.42663497924804687500e+01) (1, 3.43715763092041015625e+00) (2, -1.50162372589111328125e+01) (3, 2.75965332984924316406e+00) (4, -2.66506028175354003906e+00) (5, -2.61005115509033203125e+00) (6, -3.00333142280578613281e-01) (7, -1.93438072204589843750e+01) (8, -1.81530666351318359375e+00) (9, -1.41287159919738769531e+00) (10, 1.85094032287597656250e+01) (11, 1.81985735893249511719e-01) (12, -4.73766416311264038086e-01) (13, 2.21899414062500000000e+00) (14, -1.06054574251174926758e-01) (15, -1.01841058731079101562e+01) (16, 7.30666809082031250000e+01) (17, -4.97641868591308593750e+01) (18, -6.07263259887695312500e+01) (19, -5.85732536315917968750e+01) (20, -2.28606777191162109375e+01) (21, 2.86394577026367187500e+01) (0, -8.23094367980957031250e+00) (1, -1.77831230163574218750e+01) (2, -5.88268816471099853516e-01) (3, 5.15536785125732421875e-01) (4, -7.63992309570312500000e-01) (5, 2.25891351699829101562e-01) (6, -1.73922255635261535645e-02) (7, 5.20296096801757812500e+00) (8, 9.82483208179473876953e-01) (9, -2.32010889053344726562e+00) (10, -6.78420126438140869141e-01) (11, 1.35677278041839599609e-01) (12, 4.48051653802394866943e-02) (13, 2.62937545776367187500e-02) (14, 8.51681530475616455078e-02) (15, -2.56552052497863769531e+00) (16, 3.48842334747314453125e+00) (17, 1.00422763824462890625e+00) (18, -2.51014757156372070312e+00) (19, -1.82794976234436035156e+00) (20, -1.74004101753234863281e+00) (21, 2.17455297708511352539e-01) (0, -5.77536725997924804688e+00) (1, -2.09461021423339843750e+01) (2, -2.18635392189025878906e+00) (3, 8.95710885524749755859e-01) (4, -4.05168503522872924805e-01) (5, 1.14316236972808837891e+00) (6, -4.34072464704513549805e-02) (7, -9.41850423812866210938e-01) (8, 3.41016888618469238281e-01) (9, -2.57766795158386230469e+00) (10, -9.41895425319671630859e-01) (11, 4.31214839220046997070e-01) (12, 3.09132933616638183594e-02) (13, -1.56183674931526184082e-01) (14, -1.27066234126687049866e-02) (15, -1.61508011817932128906e+00) (16, 6.76613378524780273438e+00) (17, 4.18911743164062500000e+00) (18, 1.38384193181991577148e-01) (19, -2.94492930173873901367e-01) (20, 5.22005319595336914062e-01) (21, -1.62666618824005126953e+00) (0, -7.65605092048645019531e-01) (1, 1.75521888732910156250e+01) (2, 2.59081065654754638672e-01) (3, -5.09200870990753173828e-01) (4, 3.36920356750488281250e+00) (5, -1.87277352809906005859e+00) (6, 2.03161716461181640625e-01) (7, -2.02345758676528930664e-01) (8, 1.03931486606597900391e+00) (9, -3.03197026252746582031e+00) (10, -3.60116720199584960938e+00) (11, -1.83125987648963928223e-01) (12, 1.57496348023414611816e-01) (13, -1.08130723237991333008e-01) (14, -2.20350157469511032104e-02) (15, -3.86351561546325683594e+00) (16, -2.26658382415771484375e+01) (17, 5.45718574523925781250e+00) (18, 1.95453238487243652344e+00) (19, 6.33935070037841796875e+00) (20, -6.38393735885620117188e+00) (21, -2.18296546936035156250e+01) (0, -1.75297069549560546875e+01) (1, -1.19700183868408203125e+01) (2, -4.75217849016189575195e-01) (3, 5.21849334239959716797e-01) (4, 1.03321373462677001953e+00) (5, -1.10630333423614501953e-01) (6, 7.86374509334564208984e-02) (7, -9.58666622638702392578e-01) (8, -1.63237893581390380859e+00) (9, 1.80356941223144531250e+01) (10, 1.45633971691131591797e+00) (11, 2.93772220611572265625e-01) (12, -8.61244872212409973145e-02) (13, 1.44729152321815490723e-01) (14, -1.60976201295852661133e-02) (15, -1.06689810752868652344e+00) (16, 8.75096607208251953125e+00) (17, 2.63229322433471679688e+00) (18, -4.84594494104385375977e-01) (19, -3.62744379043579101562e+00) (20, 5.78225612640380859375e+00) (21, -7.54355955123901367188e+00) (0, 2.68283977508544921875e+01) (1, -3.51393604278564453125e+00) (2, -1.63963213562965393066e-01) (3, 2.23199534416198730469e+00) (4, -1.60005629062652587891e+00) (5, 5.44176101684570312500e+00) (6, 3.16386938095092773438e-01) (7, -9.23599123954772949219e-01) (8, -3.78355741500854492188e+00) (9, -7.22509288787841796875e+00) (10, 1.10541296005249023438e+01) (11, -3.73226046562194824219e+00) (12, 6.34174048900604248047e-01) (13, -1.00599360466003417969e+00) (14, -6.42627254128456115723e-02) (15, -6.03960514068603515625e+00) (16, -5.42739372253417968750e+01) (17, 5.10698270797729492188e+00) (18, 1.52820396423339843750e+01) (19, 2.24500484466552734375e+01) (20, -1.41305580139160156250e+01) (21, -2.61842193603515625000e+01) (0, -9.41917181015014648438e-01) (1, -3.47733211517333984375e+00) (2, 2.86063766479492187500e+00) (3, -4.77792590856552124023e-01) (4, -6.29703569412231445312e+00) (5, 2.56783103942871093750e+00) (6, 8.98250162601470947266e-01) (7, 3.56904125213623046875e+00) (8, -5.06471395492553710938e+00) (9, -3.67103624343872070312e+00) (10, -1.66268324851989746094e+00) (11, -1.11106419563293457031e+00) (12, 1.28609144687652587891e+00) (13, -1.07995784282684326172e+00) (14, 1.21440604329109191895e-01) (15, 1.93825793266296386719e+00) (16, -5.60011169433593750000e+02) (17, 8.65114212036132812500e+01) (18, 1.16990451812744140625e+01) (19, -6.24597778320312500000e+01) (20, 3.28810844421386718750e+01) (21, 4.58720207214355468750e+00) (0, 9.38725352287292480469e-01) (1, 3.54315032958984375000e+01) (2, 9.06513786315917968750e+00) (3, 4.73930835723876953125e+00) (4, 1.55906553268432617188e+01) (5, 2.27572655677795410156e+00) (6, 4.17883813381195068359e-01) (7, -5.52607834339141845703e-01) (8, 2.22863718867301940918e-01) (9, 4.13210421800613403320e-01) (10, -8.77434539794921875000e+00) (11, -2.81980156898498535156e+00) (12, 5.34680902957916259766e-01) (13, -5.10024738311767578125e+00) (14, -5.88077232241630554199e-02) (15, -9.88652324676513671875e+00) (16, -4.56250114440917968750e+01) (17, 1.48671655654907226562e+01) (18, 3.05950565338134765625e+01) (19, 1.26635670661926269531e+00) (20, 2.11151828765869140625e+01) (21, -4.81750488281250000000e+01) (0, -1.43409264087677001953e+00) (1, 7.85611271858215332031e-01) (2, 6.68696832656860351562e+00) (3, -3.54911422729492187500e+00) (4, -2.41354417800903320312e+00) (5, 6.21921920776367187500e+00) (6, 4.54644411802291870117e-02) (7, -1.63712100982666015625e+01) (8, 3.72640109062194824219e+00) (9, -6.35072112083435058594e-01) (10, 3.05736708641052246094e+00) (11, -8.18060278892517089844e-01) (12, -5.20327985286712646484e-01) (13, -2.63954019546508789062e+00) (14, -1.09222576022148132324e-01) (15, -5.10008668899536132812e+00) (16, 8.19489440917968750000e+01) (17, -8.67006683349609375000e+01) (18, -2.00096679687500000000e+02) (19, 1.02533149719238281250e+02) (20, -2.69341308593750000000e+02) (21, 1.92470817565917968750e+01) (0, -7.38367938995361328125e+00) (1, -1.95377006530761718750e+01) (2, -2.38621607422828674316e-01) (3, 1.40645921230316162109e+00) (4, -7.61536598205566406250e-01) (5, 2.80385255813598632812e-01) (6, -3.55280786752700805664e-02) (7, -6.72312200069427490234e-01) (8, -1.53294697403907775879e-01) (9, -9.44201469421386718750e-01) (10, -1.01692509651184082031e+00) (11, 2.86441385746002197266e-01) (12, -4.53747361898422241211e-02) (13, 2.56721138954162597656e-01) (14, 3.90867181122303009033e-02) (15, -1.96177315711975097656e+00) (16, 1.93524718284606933594e+00) (17, 2.04306888580322265625e+00) (18, -3.36673831939697265625e+00) (19, -2.96255254745483398438e+00) (20, -1.54811728000640869141e+00) (21, 6.65401071310043334961e-02) (0, 4.41203460693359375000e+01) (1, -4.80218410491943359375e+00) (2, 4.16339516639709472656e-01) (3, -6.66250288486480712891e-01) (4, -3.79329395294189453125e+00) (5, -4.16180038452148437500e+00) (6, 3.23787093162536621094e-01) (7, 1.49175679683685302734e+00) (8, -2.62516927719116210938e+00) (9, 9.14949059486389160156e-01) (10, -7.82732295989990234375e+00) (11, -5.79678833484649658203e-01) (12, 4.74762856960296630859e-01) (13, -8.40006947517395019531e-01) (14, 4.20485734939575195312e-02) (15, -1.15147323608398437500e+01) (16, -9.04201507568359375000e+01) (17, 2.18097496032714843750e+01) (18, 7.05339279174804687500e+01) (19, 7.98225097656250000000e+01) (20, -3.20177307128906250000e+01) (21, -4.69942207336425781250e+01) (0, -3.24708414077758789062e+00) (1, -2.91158175468444824219e+00) (2, 8.13912570476531982422e-01) (3, -3.93290817737579345703e-01) (4, -1.03608362376689910889e-01) (5, -4.87331092357635498047e-01) (6, 2.78704166412353515625e-02) (7, -4.06143397092819213867e-01) (8, -2.32267439365386962891e-01) (9, -2.63417661190032958984e-01) (10, -4.94964092969894409180e-01) (11, -1.35252952575683593750e-01) (12, 6.40833377838134765625e-02) (13, -3.93485844135284423828e-01) (14, -1.86540484428405761719e-02) (15, -1.35818946361541748047e+00) (16, -2.34910035133361816406e+00) (17, 8.09036016464233398438e-01) (18, -9.83492970466613769531e-01) (19, -3.43110203742980957031e-01) (20, -1.01510226726531982422e+00) (21, -5.26297044754028320312e+00) (0, -7.27479696273803710938e-01) (1, 1.57359609603881835938e+01) (2, 6.11975252628326416016e-01) (3, -5.93350112438201904297e-01) (4, 2.00761213898658752441e-01) (5, -1.67309200763702392578e+00) (6, 9.02938991785049438477e-02) (7, 1.63011837005615234375e+00) (8, 3.67340624332427978516e-01) (9, -3.89227795600891113281e+00) (10, -3.24091768264770507812e+00) (11, -2.15325161814689636230e-01) (12, 4.77613583207130432129e-02) (13, -8.87150645256042480469e-01) (14, -4.46963272988796234131e-02) (15, -2.94388318061828613281e+00) (16, -1.13106040954589843750e+01) (17, 7.27159619331359863281e-01) (18, 5.56101262569427490234e-01) (19, 5.16130828857421875000e+00) (20, -6.86523532867431640625e+00) (21, -1.98611602783203125000e+01) (0, -7.85736846923828125000e+00) (1, -2.01723842620849609375e+01) (2, 9.89849627017974853516e-01) (3, 6.30893528461456298828e-01) (4, -7.19744265079498291016e-01) (5, 9.98549535870552062988e-02) (6, -5.35060949623584747314e-02) (7, 2.14078053832054138184e-01) (8, 6.13553941249847412109e-01) (9, -7.83469140529632568359e-01) (10, -1.03966546058654785156e+00) (11, 6.77378550171852111816e-02) (12, -1.01604009978473186493e-03) (13, 2.73401170969009399414e-01) (14, -6.70350790023803710938e-02) (15, -1.81142032146453857422e+00) (16, 7.52848505973815917969e-01) (17, 1.87431228160858154297e+00) (18, -3.78974723815917968750e+00) (19, -3.06245708465576171875e+00) (20, -1.85051345825195312500e+00) (21, 3.72864723205566406250e-01) (0, -4.66064184904098510742e-01) (1, -4.94447261095046997070e-01) (2, 8.48570728302001953125e+00) (3, -3.10567545890808105469e+00) (4, 3.09231710433959960938e+00) (5, 2.01302218437194824219e+00) (6, 8.06001126766204833984e-01) (7, 1.59263682365417480469e+00) (8, -4.13537073135375976562e+00) (9, -4.60620307922363281250e+00) (10, -1.30708789825439453125e+01) (11, 6.98303985595703125000e+00) (12, 9.07969594001770019531e-01) (13, -1.12215280532836914062e+00) (14, 9.71935465931892395020e-02) (15, 2.78709650039672851562e+00) (16, -1.74869461059570312500e+02) (17, 2.67223310470581054688e+00) (18, -1.36027984619140625000e+01) (19, -5.49714775085449218750e+01) (20, 4.65441894531250000000e+01) (21, -1.77762663364410400391e+00) (0, -1.63789291381835937500e+01) (1, 8.76884818077087402344e-01) (2, 7.51503801345825195312e+00) (3, 2.25639438629150390625e+00) (4, 5.56017208099365234375e+00) (5, 6.08610773086547851562e+00) (6, -2.64446198940277099609e-01) (7, -1.19989144802093505859e+00) (8, 4.27248573303222656250e+00) (9, -5.82789421081542968750e+00) (10, -1.21830320358276367188e+00) (11, 2.76801377534866333008e-01) (12, -1.73221185803413391113e-01) (13, 1.85565686225891113281e+00) (14, -4.45799864828586578369e-02) (15, 9.90079104900360107422e-01) (16, 1.39774692058563232422e+00) (17, 2.41142482757568359375e+01) (18, -4.98454513549804687500e+01) (19, 3.04649581909179687500e+01) (20, -5.52726478576660156250e+01) (21, 4.95131778717041015625e+00) (0, -6.63088750839233398438e+00) (1, -2.02495117187500000000e+01) (2, -3.81687670946121215820e-01) (3, 3.24077427387237548828e-01) (4, -1.29169449210166931152e-01) (5, 5.24700582027435302734e-01) (6, 8.29463228583335876465e-02) (7, 1.77896380424499511719e+00) (8, 4.66385006904602050781e-01) (9, -2.55740761756896972656e+00) (10, -1.11611139774322509766e+00) (11, 5.40539659559726715088e-02) (12, 1.08422882854938507080e-01) (13, -6.51537775993347167969e-02) (14, -4.88620102405548095703e-02) (15, -1.49549198150634765625e+00) (16, 3.14297056198120117188e+00) (17, 4.21766138076782226562e+00) (18, -9.73759114742279052734e-01) (19, -1.54383301734924316406e+00) (20, 5.51245093345642089844e-01) (21, -9.27977085113525390625e-01) (0, -2.85551619529724121094e+00) (1, 2.48547630310058593750e+01) (2, -2.08614885807037353516e-01) (3, -9.38124895095825195312e-01) (4, 2.28030607104301452637e-02) (5, -3.82782769203186035156e+00) (6, 5.74138611555099487305e-02) (7, 1.39000821113586425781e+00) (8, -1.22958412393927574158e-02) (9, -8.87287044525146484375e+00) (10, -7.61831378936767578125e+00) (11, -2.42052078247070312500e-01) (12, 1.18235707283020019531e-01) (13, -8.20655763149261474609e-01) (14, 4.94276396930217742920e-02) (15, -7.28352880477905273438e+00) (16, -3.56743621826171875000e+01) (17, 3.57401704788208007812e+00) (18, 3.14261466264724731445e-02) (19, 1.04919776916503906250e+01) (20, -1.37619447708129882812e+01) (21, -2.68876457214355468750e+01) (0, -1.54082691669464111328e+00) (1, 1.90413818359375000000e+01) (2, -2.74442613124847412109e-01) (3, -5.70548653602600097656e-01) (4, -8.27880620956420898438e-01) (5, -3.63648009300231933594e+00) (6, 3.25992763042449951172e-01) (7, 1.50000238418579101562e+00) (8, -6.88956141471862792969e-01) (9, -9.52198791503906250000e+00) (10, -7.24112844467163085938e+00) (11, -5.98922669887542724609e-01) (12, 2.38601893186569213867e-01) (13, -1.46347701549530029297e+00) (14, -3.96216697990894317627e-02) (15, -8.21773338317871093750e+00) (16, -3.58019905090332031250e+01) (17, -2.34849706292152404785e-01) (18, -2.73185706138610839844e+00) (19, 7.57941865921020507812e+00) (20, -1.37016162872314453125e+01) (21, -2.11465473175048828125e+01) (0, 1.45395731925964355469e+00) (1, -5.05655326843261718750e+01) (2, -9.95924282073974609375e+00) (3, -8.78628343343734741211e-02) (4, -3.29080748558044433594e+00) (5, 2.51381784677505493164e-01) (6, -1.24104693531990051270e-01) (7, -7.03104448318481445312e+00) (8, -5.29835224151611328125e+00) (9, -2.47432231903076171875e+00) (10, -1.38376736640930175781e+00) (11, -3.53350758552551269531e-01) (12, -5.41578412055969238281e-01) (13, -1.44778394699096679688e+00) (14, -8.03911238908767700195e-02) (15, 4.03893887996673583984e-01) (16, 5.70380859375000000000e+01) (17, -1.44461002349853515625e+01) (18, -2.02662334442138671875e+01) (19, -8.19461727142333984375e+00) (20, -1.91900215148925781250e+01) (21, -5.23171722888946533203e-01) (0, -6.89846634864807128906e-01) (1, 1.64202404022216796875e+01) (2, 2.30542540550231933594e+00) (3, -3.51687192916870117188e-01) (4, 2.48424127697944641113e-01) (5, -1.86317193508148193359e+00) (6, 1.30085244774818420410e-01) (7, 1.49803981184959411621e-01) (8, 8.38825583457946777344e-01) (9, -3.18753194808959960938e+00) (10, -1.51139140129089355469e+00) (11, -1.32417947053909301758e-01) (12, 1.48443102836608886719e-01) (13, -5.18034040927886962891e-01) (14, -2.24340078420937061310e-03) (15, -3.90366935729980468750e+00) (16, -1.72402305603027343750e+01) (17, 4.46561431884765625000e+00) (18, 1.49212288856506347656e+00) (19, 5.35327243804931640625e+00) (20, -6.13566827774047851562e+00) (21, -2.07515830993652343750e+01) (0, -3.09561085700988769531e+00) (1, -3.37198090553283691406e+00) (2, 7.49742269515991210938e-01) (3, -3.63747447729110717773e-01) (4, -1.80185586214065551758e-01) (5, -3.91628831624984741211e-01) (6, 2.22770962864160537720e-02) (7, -4.91986751556396484375e-01) (8, -1.24135158956050872803e-01) (9, 5.29186315834522247314e-02) (10, -1.99648484587669372559e-01) (11, -1.06298901140689849854e-01) (12, 6.15019723773002624512e-02) (13, -2.99799531698226928711e-01) (14, 8.81000161170959472656e-02) (15, -9.48754191398620605469e-01) (16, -1.47660326957702636719e+00) (17, 6.20545148849487304688e-01) (18, -7.75251090526580810547e-01) (19, -4.79714304208755493164e-01) (20, -7.30109095573425292969e-01) (21, -5.00509357452392578125e+00) (0, -5.64899158477783203125e+00) (1, -2.77182750701904296875e+01) (2, -5.56234407424926757812e+00) (3, 1.24706184864044189453e+00) (4, -8.89683485031127929688e-01) (5, 1.25005555152893066406e+00) (6, -1.51705546304583549500e-02) (7, -3.35723710060119628906e+00) (8, -2.84482557326555252075e-02) (9, -3.14510965347290039062e+00) (10, -1.00078058242797851562e+00) (11, 5.91979801654815673828e-01) (12, -1.24352194368839263916e-01) (13, -5.71022748947143554688e-01) (14, -1.09594956040382385254e-01) (15, -3.06160521507263183594e+00) (16, 2.24589309692382812500e+01) (17, 2.64976549148559570312e+00) (18, -1.27168452739715576172e+00) (19, 6.66340351104736328125e-01) (20, -2.76837563514709472656e+00) (21, -1.52141869068145751953e+00) (0, -1.94641739130020141602e-01) (1, 1.60209064483642578125e+01) (2, 2.28440499305725097656e+00) (3, -3.81518095731735229492e-01) (4, 1.05382692813873291016e+00) (5, -1.55106127262115478516e+00) (6, 1.34437203407287597656e-01) (7, 7.46737420558929443359e-02) (8, 4.92247819900512695312e-01) (9, -2.76300382614135742188e+00) (10, -1.34438204765319824219e+00) (11, -1.37093156576156616211e-01) (12, 9.59488600492477416992e-02) (13, -3.60795229673385620117e-01) (14, 3.82716730237007141113e-02) (15, -3.60077476501464843750e+00) (16, -1.62218265533447265625e+01) (17, 4.35162544250488281250e+00) (18, 2.20025038719177246094e+00) (19, 4.51471138000488281250e+00) (20, -4.74834966659545898438e+00) (21, -2.08100509643554687500e+01) (0, -4.33776779174804687500e+01) (1, 2.08054757118225097656e+00) (2, -9.34208488464355468750e+00) (3, -7.59993433952331542969e-01) (4, -2.83886861801147460938e+00) (5, 3.04898023605346679688e+00) (6, -1.52782976627349853516e-01) (7, -1.86077384948730468750e+01) (8, -4.47631311416625976562e+00) (9, 7.35965013504028320312e+00) (10, -2.45748114585876464844e+00) (11, -4.60253804922103881836e-01) (12, -4.99158471822738647461e-01) (13, -1.55170941352844238281e+00) (14, -3.19514647126197814941e-02) (15, -1.13379440307617187500e+01) (16, 3.72785797119140625000e+01) (17, -5.20558357238769531250e+01) (18, -9.95318603515625000000e+01) (19, -3.71991424560546875000e+01) (20, -9.68370590209960937500e+01) (21, 3.01219730377197265625e+01) (0, -3.00859379768371582031e+00) (1, 1.89346733093261718750e+01) (2, 1.55973345041275024414e-01) (3, -6.96703195571899414062e-01) (4, 9.05120313167572021484e-01) (5, -2.77424812316894531250e+00) (6, 2.59128004312515258789e-01) (7, 1.39736390113830566406e+00) (8, 1.78386461734771728516e+00) (9, -6.41207647323608398438e+00) (10, -4.50395536422729492188e+00) (11, -4.59391534328460693359e-01) (12, 2.83996134996414184570e-01) (13, -5.81722378730773925781e-01) (14, 1.86438281089067459106e-02) (15, -5.24519491195678710938e+00) (16, -3.25493469238281250000e+01) (17, 5.16993570327758789062e+00) (18, 4.19699549674987792969e-01) (19, 1.10802993774414062500e+01) (20, -1.29051828384399414062e+01) (21, -2.10913448333740234375e+01) (0, -3.46667766571044921875e+00) (1, 1.78340778350830078125e+01) (2, 1.69643402099609375000e+00) (3, -3.93308490514755249023e-01) (4, -1.22180089354515075684e-01) (5, -2.46698832511901855469e+00) (6, 5.46891205012798309326e-02) (7, 1.02965795993804931641e+00) (8, 1.34376549720764160156e+00) (9, -6.05139493942260742188e+00) (10, -3.51547551155090332031e+00) (11, -1.89959362149238586426e-01) (12, 2.22655907273292541504e-01) (13, -8.33913505077362060547e-01) (14, 7.63806328177452087402e-02) (15, -3.99161267280578613281e+00) (16, -2.38714904785156250000e+01) (17, 5.05000543594360351562e+00) (18, -5.20637214183807373047e-01) (19, 9.54317569732666015625e+00) (20, -1.20877561569213867188e+01) (21, -1.96070804595947265625e+01) (0, 2.32814526557922363281e+00) (1, -9.44603145122528076172e-01) (2, 2.13579463958740234375e+00) (3, -5.33511042594909667969e-01) (4, -6.51752376556396484375e+00) (5, 1.79931211471557617188e+00) (6, 6.35897576808929443359e-01) (7, 1.18935488164424896240e-01) (8, -4.87940692901611328125e+00) (9, -1.58570432662963867188e+00) (10, -9.89296436309814453125e+00) (11, -1.53857338428497314453e+00) (12, 8.91472995281219482422e-01) (13, 7.75467693805694580078e-01) (14, 1.43442541360855102539e-01) (15, 1.78393018245697021484e+00) (16, -4.53396026611328125000e+02) (17, 6.94944229125976562500e+01) (18, 1.59718790054321289062e+01) (19, -3.19580268859863281250e+01) (20, 1.17263545989990234375e+01) (21, -1.18384957313537597656e-01) (0, -1.35018112182617187500e+02) (1, -8.07920336723327636719e-01) (2, -2.38904327154159545898e-01) (3, -1.86153066158294677734e+00) (4, 1.40288615226745605469e+00) (5, 8.44445705413818359375e+00) (6, -2.95395463705062866211e-01) (7, -1.05076932907104492188e+01) (8, 1.99365329742431640625e+01) (9, 1.60526790618896484375e+01) (10, 6.64187431335449218750e-01) (11, 6.98561334609985351562e+00) (12, -2.31100305914878845215e-01) (13, -2.38192105293273925781e+00) (14, 5.68089522421360015869e-02) (15, -9.58659648895263671875e+00) (16, 9.24253234863281250000e+01) (17, -1.54727430343627929688e+01) (18, -2.06139507293701171875e+01) (19, 4.58723247051239013672e-01) (20, -1.61147651672363281250e+01) (21, 1.38964595794677734375e+01) (22, 6.25333499908447265625e+00) (23, -2.97815710306167602539e-01) (24, 1.05087280273437500000e+01) (25, -2.42724990844726562500e+01) (26, -1.84028568267822265625e+01) (27, -4.09543085098266601562e+00) (28, 4.17016887664794921875e+00) (29, -1.36791934967041015625e+01) (30, 3.96699762344360351562e+00) (31, 2.89786028861999511719e+00) (32, -1.97096691131591796875e+01) (33, -7.87965393066406250000e+00) (34, 1.61291484832763671875e+01) (35, -1.36458873748779296875e+00) (36, 5.42075061798095703125e+00) (37, -4.68599414825439453125e+00) (38, 1.17758169174194335938e+01) (39, 5.44619655609130859375e+00) (40, -9.92401981353759765625e+00) (41, -1.34427652359008789062e+01) (42, -2.78608465194702148438e+00) (43, -5.60945796966552734375e+00) (44, 1.22050046920776367188e+01) (45, 6.49579477310180664062e+00) (46, 4.87554264068603515625e+00) (47, 5.83024454116821289062e+00) (48, 2.90721869468688964844e+00) (49, -1.89905147552490234375e+01) (50, -2.02814254760742187500e+01) (51, 4.78925275802612304688e+00) (52, -1.60260848999023437500e+01) (53, 6.01050281524658203125e+00) (54, 1.47033298015594482422e+00) (55, 5.45156717300415039062e+00) (56, 4.92143774032592773438e+00) (57, -1.56024551391601562500e+00) (58, 4.47109842300415039062e+00) (59, 5.76316928863525390625e+00) (60, 8.50349998474121093750e+00) (61, 5.01073217391967773438e+00) (62, 1.06051206588745117188e+01) (63, 4.36655521392822265625e+00) (64, 4.79333686828613281250e+00) (65, 2.11210765838623046875e+01) (66, 5.31208992004394531250e-01) (67, -2.39969348907470703125e+01) (68, 3.85996317863464355469e+00) (69, -2.52486572265625000000e+01) (70, -2.90433287620544433594e+00) (71, 3.47911572456359863281e+00) (72, 4.84861373901367187500e+00) (73, -4.52893209457397460938e+00) (74, -1.92230951786041259766e+00) (75, 6.12427282333374023438e+00) (76, -2.21317291259765625000e+01) (77, 2.67386245727539062500e+01) (78, 5.82414484024047851562e+00) (79, 4.36097526550292968750e+00) (80, -2.15402746200561523438e+00) (81, 1.94011628627777099609e+00) (82, 4.11189603805541992188e+00) (83, -1.05205392837524414062e+01) (84, -7.84892845153808593750e+00) (85, 2.30923581123352050781e+00) (86, 7.33278083801269531250e+00) (87, 7.78310012817382812500e+00) (88, 7.11833417415618896484e-01) (89, 9.61817169189453125000e+00) (90, 7.81359100341796875000e+00) (91, 4.37680149078369140625e+00) (92, 4.92850542068481445312e+00) (93, -2.59664154052734375000e+00) (94, -2.67779326438903808594e+00) (95, -2.60768008232116699219e+00) (96, -7.64625072479248046875e+00) (97, 1.35497140884399414062e+01) (98, 5.62861347198486328125e+00) (99, -6.97535467147827148438e+00) (100, -1.57706952095031738281e+00) (101, 3.41566443443298339844e+00) (102, 5.96836662292480468750e+00) (103, -5.83961343765258789062e+00) (104, -1.79355411529541015625e+01) (105, 5.86082744598388671875e+00) (106, 8.35888004302978515625e+00) (107, 6.45871210098266601562e+00) (108, 9.21771907806396484375e+00) (109, 4.14511442184448242188e+00) (110, -1.37821125984191894531e+00) (111, 7.03890085220336914062e+00) (112, 3.40540003776550292969e+00) (113, 1.64604568481445312500e+01) (114, 7.41003274917602539062e+00) (115, 6.15334844589233398438e+00) (116, -1.66291558742523193359e+00) (117, 1.39139270782470703125e+01) (118, -7.16065311431884765625e+00) (22, -4.77184295654296875000e+00) (23, 1.15989613533020019531e+00) (24, -2.27080802917480468750e+01) (25, -7.76989889144897460938e+00) (26, -1.10661134719848632812e+01) (27, -5.95515584945678710938e+00) (28, -3.23282647132873535156e+00) (29, -4.95917463302612304688e+00) (30, -4.27281522750854492188e+00) (31, -4.49582815170288085938e+00) (32, -1.58270645141601562500e+01) (33, -7.30944252014160156250e+00) (34, 6.83277034759521484375e+00) (35, 1.81197059154510498047e+00) (36, 2.48176002502441406250e+00) (37, -4.56660175323486328125e+00) (38, 1.33326947689056396484e+00) (39, -7.53703176975250244141e-01) (40, 4.53590601682662963867e-01) (41, -2.46626892089843750000e+01) (42, 1.12540817260742187500e+01) (43, -8.97177815437316894531e-01) (44, -4.40828657150268554688e+00) (45, -2.33168840408325195312e+00) (46, -3.04224324226379394531e+00) (47, -4.25026702880859375000e+00) (48, -1.23155717849731445312e+01) (49, 4.81224870681762695312e+00) (50, 9.91819095611572265625e+00) (51, -2.56668162345886230469e+00) (52, -6.14279222488403320312e+00) (53, 2.90840315818786621094e+00) (54, 1.63233920931816101074e-01) (55, 1.93578600883483886719e+00) (56, 7.89333164691925048828e-01) (57, 6.70236682891845703125e+00) (58, -4.78254890441894531250e+00) (59, 3.30476021766662597656e+00) (60, -5.87697172164916992188e+00) (61, -2.56125569343566894531e+00) (62, -6.69357824325561523438e+00) (63, -5.27967071533203125000e+00) (64, -4.53132569789886474609e-01) (65, -1.68589572906494140625e+01) (66, -7.85473203659057617188e+00) (67, 5.80782508850097656250e+00) (68, -3.90933990478515625000e+00) (69, 9.68390560150146484375e+00) (70, -6.39104270935058593750e+00) (71, -2.96677923202514648438e+00) (72, 3.97810173034667968750e+00) (73, -1.25271568298339843750e+01) (74, 1.41617608070373535156e+00) (75, -3.12522149085998535156e+00) (76, -8.41468620300292968750e+00) (77, 7.67989683151245117188e+00) (78, -2.59006381034851074219e+00) (79, -3.07236838340759277344e+00) (80, -9.17853164672851562500e+00) (81, -4.17029976844787597656e-01) (82, -4.48954010009765625000e+00) (83, -7.42924070358276367188e+00) (84, -2.60659503936767578125e+00) (85, -5.44468784332275390625e+00) (86, 4.09145164489746093750e+00) (87, -3.89450788497924804688e+00) (88, 1.53936886787414550781e+00) (89, 6.04553508758544921875e+00) (90, -1.40870109200477600098e-01) (91, 2.97227931022644042969e+00) (92, -4.84977293014526367188e+00) (93, -5.19196808338165283203e-01) (94, -4.80735301971435546875e+00) (95, -6.28679323196411132812e+00) (96, -7.22094154357910156250e+00) (97, -2.39586029052734375000e+01) (98, 4.09351968765258789062e+00) (99, -7.00737571716308593750e+00) (100, 1.38468718528747558594e+00) (101, -4.49290752410888671875e+00) (102, 3.13367366790771484375e+00) (103, -9.15238571166992187500e+00) (104, -1.94324340820312500000e+01) (105, 3.49896764755249023438e+00) (106, -5.20014476776123046875e+00) (107, -6.08970785140991210938e+00) (108, -3.01898479461669921875e+00) (109, -4.30194568634033203125e+00) (110, 1.37553489208221435547e+00) (111, -1.83487582206726074219e+00) (112, -4.54947137832641601562e+00) (113, -2.40831661224365234375e+00) (114, -4.15118169784545898438e+00) (115, -2.36563587188720703125e+00) (116, -4.85470104217529296875e+00) (117, 2.31865367889404296875e+01) (118, 1.19005289077758789062e+01) (22, 5.02754926681518554688e+00) (23, 1.84019935131072998047e+00) (24, -1.04133806228637695312e+01) (25, 7.91545343399047851562e+00) (26, 9.63822937011718750000e+00) (27, 7.90523529052734375000e+00) (28, 4.60950326919555664062e+00) (29, 4.35953235626220703125e+00) (30, 4.98071384429931640625e+00) (31, 4.41373682022094726562e+00) (32, 1.62774982452392578125e+01) (33, 6.94344329833984375000e+00) (34, -1.52412986755371093750e+01) (35, 2.62076640129089355469e+00) (36, 4.09026950597763061523e-01) (37, 3.90779781341552734375e+00) (38, 4.09669828414916992188e+00) (39, -5.29558420181274414062e+00) (40, -1.59657931327819824219e+00) (41, 2.61564598083496093750e+01) (42, -8.50609397888183593750e+00) (43, -7.41386842727661132812e+00) (44, -1.74756374359130859375e+01) (45, 6.36464738845825195312e+00) (46, 5.33833169937133789062e+00) (47, 7.32533359527587890625e+00) (48, -8.77672481536865234375e+00) (49, -4.76384878158569335938e+00) (50, -1.06788864135742187500e+01) (51, 4.78750228881835937500e+00) (52, 8.92608928680419921875e+00) (53, 1.41024148464202880859e+00) (54, 5.76434552669525146484e-01) (55, -1.70334839820861816406e+00) (56, -4.04827785491943359375e+00) (57, -7.61765480041503906250e+00) (58, 4.75603437423706054688e+00) (59, 2.10474872589111328125e+00) (60, 5.02205896377563476562e+00) (61, 4.95714426040649414062e+00) (62, -5.88734722137451171875e+00) (63, 4.43135881423950195312e+00) (64, -7.23043584823608398438e+00) (65, -1.10614204406738281250e+01) (66, 7.95122861862182617188e+00) (67, 1.47016897201538085938e+01) (68, 4.97392177581787109375e+00) (69, -1.26124343872070312500e+01) (70, 8.21981620788574218750e+00) (71, 3.04552435874938964844e+00) (72, 1.10649228096008300781e+00) (73, 1.58764095306396484375e+01) (74, 9.27260816097259521484e-01) (75, 6.34428310394287109375e+00) (76, 1.35694656372070312500e+01) (77, -1.83543262481689453125e+01) (78, -1.02470788955688476562e+01) (79, 4.67727661132812500000e+00) (80, 9.43513298034667968750e+00) (81, -1.55147707462310791016e+00) (82, 4.95277357101440429688e+00) (83, 5.88160657882690429688e+00) (84, 1.24710865020751953125e+01) (85, 4.56380176544189453125e+00) (86, 8.55510902404785156250e+00) (87, 3.66432118415832519531e+00) (88, -1.44002854824066162109e+00) (89, -6.07502937316894531250e+00) (90, -1.91078865528106689453e+00) (91, -2.47157931327819824219e+00) (92, 5.07256078720092773438e+00) (93, -1.07638299465179443359e+00) (94, 6.02221393585205078125e+00) (95, 5.94121980667114257812e+00) (96, 1.76617622375488281250e+00) (97, 4.88422632217407226562e+00) (98, 1.28214073181152343750e+00) (99, 7.88400554656982421875e+00) (100, 6.70862495899200439453e-01) (101, 3.62206387519836425781e+00) (102, 1.94859361648559570312e+00) (103, 9.04114341735839843750e+00) (104, 1.70402851104736328125e+01) (105, -7.40132749080657958984e-01) (106, 5.25749111175537109375e+00) (107, 2.28817176818847656250e+00) (108, -5.71380043029785156250e+00) (109, 5.06749296188354492188e+00) (110, 8.10599386692047119141e-01) (111, -8.68881320953369140625e+00) (112, 4.34607744216918945312e+00) (113, -1.17743682861328125000e+01) (114, 6.28347015380859375000e+00) (115, 6.46800327301025390625e+00) (116, 4.60392522811889648438e+00) (117, -2.44579715728759765625e+01) (118, -1.17128410339355468750e+01) 
