FANN_FLO_2.1
num_layers=3
learning_rate=0.700000
connection_rate=1.000000
network_type=0
learning_momentum=0.400000
training_algorithm=0
train_error_function=1
train_stop_function=0
cascade_output_change_fraction=0.010000
quickprop_decay=-0.000100
quickprop_mu=1.750000
rprop_increase_factor=1.200000
rprop_decrease_factor=0.500000
rprop_delta_min=0.000000
rprop_delta_max=50.000000
rprop_delta_zero=0.100000
cascade_output_stagnation_epochs=12
cascade_candidate_change_fraction=0.010000
cascade_candidate_stagnation_epochs=12
cascade_max_out_epochs=150
cascade_min_out_epochs=50
cascade_max_cand_epochs=150
cascade_min_cand_epochs=50
cascade_num_candidate_groups=2
bit_fail_limit=3.49999994039535522461e-01
cascade_candidate_limit=1.00000000000000000000e+03
cascade_weight_multiplier=4.00000005960464477539e-01
cascade_activation_functions_count=10
cascade_activation_functions=3 5 7 8 10 11 14 15 16 17 
cascade_activation_steepnesses_count=4
cascade_activation_steepnesses=2.50000000000000000000e-01 5.00000000000000000000e-01 7.50000000000000000000e-01 1.00000000000000000000e+00 
layer_sizes=22 97 4 
scale_included=0
neurons (num_inputs, activation_function, activation_steepness)=(0, 0, 0.00000000000000000000e+00) (0, 0, 0.00000000000000000000e+00) (0, 0, 0.00000000000000000000e+00) (0, 0, 0.00000000000000000000e+00) (0, 0, 0.00000000000000000000e+00) (0, 0, 0.00000000000000000000e+00) (0, 0, 0.00000000000000000000e+00) (0, 0, 0.00000000000000000000e+00) (0, 0, 0.00000000000000000000e+00) (0, 0, 0.00000000000000000000e+00) (0, 0, 0.00000000000000000000e+00) (0, 0, 0.00000000000000000000e+00) (0, 0, 0.00000000000000000000e+00) (0, 0, 0.00000000000000000000e+00) (0, 0, 0.00000000000000000000e+00) (0, 0, 0.00000000000000000000e+00) (0, 0, 0.00000000000000000000e+00) (0, 0, 0.00000000000000000000e+00) (0, 0, 0.00000000000000000000e+00) (0, 0, 0.00000000000000000000e+00) (0, 0, 0.00000000000000000000e+00) (0, 0, 0.00000000000000000000e+00) (22, 4, 5.00000000000000000000e-01) (22, 4, 5.00000000000000000000e-01) (22, 4, 5.00000000000000000000e-01) (22, 4, 5.00000000000000000000e-01) (22, 4, 5.00000000000000000000e-01) (22, 4, 5.00000000000000000000e-01) (22, 4, 5.00000000000000000000e-01) (22, 4, 5.00000000000000000000e-01) (22, 4, 5.00000000000000000000e-01) (22, 4, 5.00000000000000000000e-01) (22, 4, 5.00000000000000000000e-01) (22, 4, 5.00000000000000000000e-01) (22, 4, 5.00000000000000000000e-01) (22, 4, 5.00000000000000000000e-01) (22, 4, 5.00000000000000000000e-01) (22, 4, 5.00000000000000000000e-01) (22, 4, 5.00000000000000000000e-01) (22, 4, 5.00000000000000000000e-01) (22, 4, 5.00000000000000000000e-01) (22, 4, 5.00000000000000000000e-01) (22, 4, 5.00000000000000000000e-01) (22, 4, 5.00000000000000000000e-01) (22, 4, 5.00000000000000000000e-01) (22, 4, 5.00000000000000000000e-01) (22, 4, 5.00000000000000000000e-01) (22, 4, 5.00000000000000000000e-01) (22, 4, 5.00000000000000000000e-01) (22, 4, 5.00000000000000000000e-01) (22, 4, 5.00000000000000000000e-01) (22, 4, 5.00000000000000000000e-01) (22, 4, 5.00000000000000000000e-01) (22, 4, 5.00000000000000000000e-01) (22, 4, 5.00000000000000000000e-01) (22, 4, 5.00000000000000000000e-01) (22, 4, 5.00000000000000000000e-01) (22, 4, 5.00000000000000000000e-01) (22, 4, 5.00000000000000000000e-01) (22, 4, 5.00000000000000000000e-01) (22, 4, 5.00000000000000000000e-01) (22, 4, 5.00000000000000000000e-01) (22, 4, 5.00000000000000000000e-01) (22, 4, 5.00000000000000000000e-01) (22, 4, 5.00000000000000000000e-01) (22, 4, 5.00000000000000000000e-01) (22, 4, 5.00000000000000000000e-01) (22, 4, 5.00000000000000000000e-01) (22, 4, 5.00000000000000000000e-01) (22, 4, 5.00000000000000000000e-01) (22, 4, 5.00000000000000000000e-01) (22, 4, 5.00000000000000000000e-01) (22, 4, 5.00000000000000000000e-01) (22, 4, 5.00000000000000000000e-01) (22, 4, 5.00000000000000000000e-01) (22, 4, 5.00000000000000000000e-01) (22, 4, 5.00000000000000000000e-01) (22, 4, 5.00000000000000000000e-01) (22, 4, 5.00000000000000000000e-01) (22, 4, 5.00000000000000000000e-01) (22, 4, 5.00000000000000000000e-01) (22, 4, 5.00000000000000000000e-01) (22, 4, 5.00000000000000000000e-01) (22, 4, 5.00000000000000000000e-01) (22, 4, 5.00000000000000000000e-01) (22, 4, 5.00000000000000000000e-01) (22, 4, 5.00000000000000000000e-01) (22, 4, 5.00000000000000000000e-01) (22, 4, 5.00000000000000000000e-01) (22, 4, 5.00000000000000000000e-01) (22, 4, 5.00000000000000000000e-01) (22, 4, 5.00000000000000000000e-01) (22, 4, 5.00000000000000000000e-01) (22, 4, 5.00000000000000000000e-01) (22, 4, 5.00000000000000000000e-01) (22, 4, 5.00000000000000000000e-01) (22, 4, 5.00000000000000000000e-01) (22, 4, 5.00000000000000000000e-01) (22, 4, 5.00000000000000000000e-01) (22, 4, 5.00000000000000000000e-01) (22, 4, 5.00000000000000000000e-01) (22, 4, 5.00000000000000000000e-01) (22, 4, 5.00000000000000000000e-01) (22, 4, 5.00000000000000000000e-01) (22, 4, 5.00000000000000000000e-01) (22, 4, 5.00000000000000000000e-01) (22, 4, 5.00000000000000000000e-01) (22, 4, 5.00000000000000000000e-01) (22, 4, 5.00000000000000000000e-01) (22, 4, 5.00000000000000000000e-01) (22, 4, 5.00000000000000000000e-01) (22, 4, 5.00000000000000000000e-01) (22, 4, 5.00000000000000000000e-01) (22, 4, 5.00000000000000000000e-01) (22, 4, 5.00000000000000000000e-01) (22, 4, 5.00000000000000000000e-01) (22, 4, 5.00000000000000000000e-01) (22, 4, 5.00000000000000000000e-01) (0, 0, 0.00000000000000000000e+00) (97, 4, 5.00000000000000000000e-01) (97, 4, 5.00000000000000000000e-01) (97, 4, 5.00000000000000000000e-01) (0, 0, 0.00000000000000000000e+00) 
connections (connected_to_neuron, weight)=(0, 7.38210525512695312500e+01) (1, 6.31448125839233398438e+00) (2, -4.48103010654449462891e-01) (3, -6.86648607254028320312e-01) (4, -2.27921557426452636719e+00) (5, -6.08669805526733398438e+00) (6, 3.84173780679702758789e-01) (7, 7.11259186267852783203e-01) (8, -1.24353814125061035156e+00) (9, 1.56431162357330322266e+00) (10, -2.01296782493591308594e+00) (11, -8.38803887367248535156e-01) (12, 5.45134186744689941406e-01) (13, -3.01386070251464843750e+00) (14, -3.55730168521404266357e-02) (15, -1.07330322265625000000e+01) (16, -6.55347366333007812500e+01) (17, 1.50496606826782226562e+01) (18, -1.86120948791503906250e+01) (19, 1.10052080154418945312e+01) (20, -3.11630039215087890625e+01) (21, -5.61137619018554687500e+01) (0, 2.74179420471191406250e+01) (1, -1.98900556564331054688e+00) (2, -1.04621005058288574219e+00) (3, -1.63664400577545166016e-01) (4, -3.00777649879455566406e+00) (5, -5.18852186203002929688e+00) (6, 3.87181907892227172852e-01) (7, 2.10212635993957519531e+00) (8, -3.13466310501098632812e+00) (9, -1.89118313789367675781e+00) (10, -1.53839945793151855469e+00) (11, -7.67490267753601074219e-01) (12, 4.57088053226470947266e-01) (13, -6.70313060283660888672e-01) (14, 1.37459218502044677734e-01) (15, -6.66243076324462890625e+00) (16, -6.39830551147460937500e+01) (17, 4.50881099700927734375e+00) (18, -3.33648872375488281250e+01) (19, -1.97497730255126953125e+01) (20, -2.72804412841796875000e+01) (21, -1.51153869628906250000e+01) (0, -5.03135967254638671875e+00) (1, 3.08198976516723632812e+00) (2, -7.87276506423950195312e-01) (3, -1.32116973400115966797e-01) (4, 1.02081537246704101562e+00) (5, -4.90848898887634277344e-01) (6, -1.43170952796936035156e-02) (7, 9.92437243461608886719e-01) (8, -5.14883518218994140625e-01) (9, 6.01592481136322021484e-01) (10, 8.86900573968887329102e-02) (11, -1.09869897365570068359e-01) (12, -4.05368469655513763428e-02) (13, 3.82221311330795288086e-01) (14, 2.87801865488290786743e-03) (15, -2.21483063697814941406e+00) (16, 4.74387258291244506836e-01) (17, 1.01713871955871582031e+00) (18, 2.13627573102712631226e-02) (19, -6.61620140075683593750e-01) (20, 8.35491955280303955078e-01) (21, -4.79329967498779296875e+00) (0, -5.43942022323608398438e+00) (1, 4.43638086318969726562e+00) (2, -1.60804927349090576172e+00) (3, 2.17189326882362365723e-01) (4, -3.68019014596939086914e-01) (5, 7.53737464547157287598e-02) (6, -3.75620089471340179443e-02) (7, -9.97789621353149414062e-01) (8, -5.17154276371002197266e-01) (9, -2.02548122406005859375e+00) (10, 1.74160861968994140625e+00) (11, 3.22157800197601318359e-01) (12, -1.47748287417925894260e-04) (13, 7.47251510620117187500e-02) (14, -1.01073766127228736877e-02) (15, -3.24695014953613281250e+00) (16, 6.24100589752197265625e+00) (17, -1.02056193351745605469e+00) (18, -1.76786434650421142578e+00) (19, -2.96959614753723144531e+00) (20, -1.66044980287551879883e-01) (21, -5.56436920166015625000e+00) (0, -1.45602810382843017578e+00) (1, -1.77421295642852783203e+00) (2, 5.92953145503997802734e-01) (3, -1.07956731319427490234e+00) (4, -1.57362863421440124512e-01) (5, -5.53274965286254882812e+00) (6, 2.96792924404144287109e-01) (7, 2.02907919883728027344e+00) (8, -1.13025927543640136719e+00) (9, -5.98012506961822509766e-01) (10, -1.24715542793273925781e+00) (11, -2.24064618349075317383e-01) (12, 6.22316300868988037109e-01) (13, -1.96511614322662353516e+00) (14, 8.62289145588874816895e-02) (15, -4.39172126352787017822e-02) (16, -1.08079551696777343750e+02) (17, -7.70437908172607421875e+00) (18, -2.78828201293945312500e+01) (19, -4.41479072570800781250e+01) (20, 5.35462331771850585938e+00) (21, 4.55463075637817382812e+00) (0, -3.13577604293823242188e+00) (1, 2.49862819910049438477e-01) (2, -6.36247456073760986328e-01) (3, -3.47489893436431884766e-01) (4, 1.54612815380096435547e+00) (5, 3.01833719015121459961e-01) (6, 3.30765210092067718506e-02) (7, 7.83240139484405517578e-01) (8, 1.09766888618469238281e+00) (9, 1.71555423736572265625e+00) (10, -7.58833527565002441406e-01) (11, 5.11733256280422210693e-02) (12, 4.79991622269153594971e-02) (13, -6.13541714847087860107e-03) (14, 5.82527555525302886963e-02) (15, 2.84820258617401123047e-01) (16, -4.41338157653808593750e+00) (17, 1.02840530872344970703e+00) (18, 2.19877734780311584473e-01) (19, -1.64615437388420104980e-01) (20, 5.08965849876403808594e-01) (21, -4.50258970260620117188e+00) (0, -5.90188360214233398438e+00) (1, 6.94240427017211914062e+00) (2, -3.03914451599121093750e+00) (3, -1.88005030155181884766e+00) (4, -4.80291843414306640625e+00) (5, 3.07656192779541015625e+00) (6, -2.15494140982627868652e-01) (7, -1.06619873046875000000e+01) (8, -4.29314279556274414062e+00) (9, 9.63687515258789062500e+00) (10, -2.86532020568847656250e+00) (11, -1.86879917979240417480e-01) (12, -5.99836707115173339844e-01) (13, 1.03402233123779296875e+00) (14, -1.08199402689933776855e-01) (15, -7.11896038055419921875e+00) (16, 6.21215171813964843750e+01) (17, -4.98802871704101562500e+01) (18, -7.90670166015625000000e+01) (19, -5.93060302734375000000e+01) (20, -7.47692489624023437500e+01) (21, 7.24497365951538085938e+00) (0, 1.71627960205078125000e+01) (1, -3.25481605529785156250e+00) (2, 2.66259407997131347656e+00) (3, -1.54278731346130371094e+00) (4, 1.42045974731445312500e-01) (5, -6.45175600051879882812e+00) (6, 2.45888516306877136230e-01) (7, 4.07553958892822265625e+00) (8, 4.39254903793334960938e+00) (9, 3.68010073900222778320e-01) (10, -5.93853902816772460938e+00) (11, -6.40818551182746887207e-02) (12, 5.63804090023040771484e-01) (13, -3.39576196670532226562e+00) (14, 2.51816175878047943115e-02) (15, -2.23715758323669433594e+00) (16, -2.35816459655761718750e+01) (17, 2.10074663162231445312e+00) (18, 1.28953468799591064453e+00) (19, 1.65115909576416015625e+01) (20, -1.64569168090820312500e+01) (21, -1.50870265960693359375e+01) (0, -5.91678476333618164062e+00) (1, 3.33160668611526489258e-01) (2, -5.48468971252441406250e+00) (3, 1.43355816602706909180e-01) (4, -1.35592591762542724609e+00) (5, -1.47518813610076904297e-01) (6, -8.74040946364402770996e-02) (7, -3.53610324859619140625e+00) (8, -3.71100515127182006836e-01) (9, -1.43768572807312011719e+00) (10, 2.89282345771789550781e+00) (11, 2.55287098884582519531e+00) (12, -1.20007172226905822754e-01) (13, 1.10256969928741455078e+00) (14, 7.06915184855461120605e-02) (15, -2.67820262908935546875e+00) (16, 1.74897613525390625000e+01) (17, 7.55726933479309082031e-01) (18, 1.34630668163299560547e+00) (19, -4.94828367233276367188e+00) (20, 4.67781972885131835938e+00) (21, -2.25890779495239257812e+00) (0, -3.66455841064453125000e+01) (1, 1.97709808349609375000e+01) (2, -1.84709668159484863281e+00) (3, -3.83115202188491821289e-01) (4, 3.76409959793090820312e+00) (5, 7.00150537490844726562e+00) (6, 1.47912919521331787109e-01) (7, -4.39235782623291015625e+00) (8, 2.51495456695556640625e+01) (9, 1.58927555084228515625e+01) (10, 9.13816392421722412109e-01) (11, -1.87932109832763671875e+00) (12, 2.72751331329345703125e-01) (13, 2.39098024368286132812e+00) (14, 2.10155732929706573486e-02) (15, 1.07877836227416992188e+01) (16, 3.54826240539550781250e+01) (17, 1.03067369461059570312e+01) (18, 8.13404083251953125000e+00) (19, -6.27129745483398437500e+00) (20, 1.57894639968872070312e+01) (21, -1.78220291137695312500e+01) (0, 5.18435716629028320312e-01) (1, -1.50333070755004882812e+00) (2, 4.62351512908935546875e+00) (3, 1.32782983779907226562e+00) (4, 1.83559238910675048828e-01) (5, 5.08068382740020751953e-01) (6, 7.48249173164367675781e-01) (7, 4.83251190185546875000e+00) (8, 3.12155675888061523438e+00) (9, -7.54815995693206787109e-01) (10, 2.14419889450073242188e+00) (11, 6.41491711139678955078e-01) (12, 1.05449879169464111328e+00) (13, 3.59525144100189208984e-01) (14, 1.53839603066444396973e-01) (15, -6.19292855262756347656e-01) (16, -4.32427581787109375000e+02) (17, 3.13394908905029296875e+01) (18, -3.33240222930908203125e+00) (19, -1.28883247375488281250e+01) (20, 7.72141599655151367188e+00) (21, 4.74875599145889282227e-01) (0, 5.07307891845703125000e+01) (1, 2.20037879943847656250e+01) (2, -8.71758878231048583984e-01) (3, 2.12900876998901367188e+00) (4, 8.90365028381347656250e+00) (5, -2.08340702056884765625e+01) (6, 1.03595912456512451172e+00) (7, 3.55858135223388671875e+00) (8, -9.75121557712554931641e-01) (9, 1.14981579780578613281e+00) (10, -1.04548330307006835938e+01) (11, -6.96132600307464599609e-01) (12, 9.24889743328094482422e-01) (13, 4.40773820877075195312e+00) (14, -3.10980025678873062134e-02) (15, -2.76711502075195312500e+01) (16, -2.51648788452148437500e+02) (17, 4.40286636352539062500e+01) (18, 1.03442588806152343750e+02) (19, 1.05864173889160156250e+02) (20, -2.57403850555419921875e+00) (21, -5.85040626525878906250e+01) (0, 6.60112533569335937500e+01) (1, -1.70237808227539062500e+01) (2, 1.08307087421417236328e+00) (3, -1.19742739200592041016e+00) (4, 8.44989490509033203125e+00) (5, -6.47529792785644531250e+00) (6, -1.60418525338172912598e-01) (7, -4.80107688903808593750e+00) (8, -5.74106121063232421875e+00) (9, -3.24045133590698242188e+00) (10, 1.92968130111694335938e-01) (11, -6.54238998889923095703e-01) (12, -4.11923736333847045898e-01) (13, 5.94065189361572265625e-01) (14, 5.66495172679424285889e-02) (15, -2.88838920593261718750e+01) (16, 8.99832000732421875000e+01) (17, 1.15282411575317382812e+01) (18, 9.25661697387695312500e+01) (19, 3.70381813049316406250e+01) (20, 4.51941680908203125000e+01) (21, -7.18172683715820312500e+01) (0, -1.63598799705505371094e+00) (1, 1.50190758705139160156e+00) (2, 3.96350264549255371094e-01) (3, -5.20691156387329101562e-01) (4, 1.91060919314622879028e-02) (5, 2.30891048908233642578e-01) (6, 7.90115073323249816895e-02) (7, 3.09377551078796386719e-01) (8, 9.61640417575836181641e-01) (9, 1.59345877170562744141e+00) (10, -5.20440578460693359375e-01) (11, -1.29163116216659545898e-01) (12, 6.00846670567989349365e-03) (13, -5.31983137130737304688e-01) (14, 1.02276019752025604248e-01) (15, 3.92628073692321777344e-01) (16, -8.04619640111923217773e-02) (17, 6.47509749978780746460e-03) (18, -8.90669941902160644531e-01) (19, -1.06465125083923339844e+00) (20, -5.96531689167022705078e-01) (21, -5.97254133224487304688e+00) (0, -6.91954374313354492188e+00) (1, 4.65003919601440429688e+00) (2, 1.04958667755126953125e+01) (3, -1.31967878341674804688e+00) (4, 1.04892981052398681641e+00) (5, -1.22760903835296630859e+00) (6, 2.40545138716697692871e-01) (7, 7.45919942855834960938e-01) (8, 1.69616684317588806152e-01) (9, -2.55563592910766601562e+00) (10, -8.75842475891113281250e+00) (11, -9.72424894571304321289e-02) (12, 2.56477683782577514648e-01) (13, -1.54345166683197021484e+00) (14, 6.20496384799480438232e-02) (15, -4.05985975265502929688e+00) (16, -1.53528785705566406250e+01) (17, -1.96159577369689941406e+00) (18, -1.62669742107391357422e+00) (19, -4.51919734477996826172e-01) (20, -9.68585729598999023438e-01) (21, -6.88281297683715820312e+00) (0, -9.60517978668212890625e+00) (1, 5.74917745590209960938e+00) (2, -4.07123088836669921875e+00) (3, 4.98466968536376953125e-01) (4, 7.84404456615447998047e-01) (5, 2.82925987243652343750e+00) (6, -1.00816942751407623291e-01) (7, -3.80295419692993164062e+00) (8, -2.57284569740295410156e+00) (9, 8.53106498718261718750e+00) (10, 1.32071933746337890625e+01) (11, 8.99587512016296386719e-01) (12, -1.63841083645820617676e-01) (13, 8.44603538513183593750e-01) (14, -6.03766515851020812988e-02) (15, -8.09325993061065673828e-01) (16, 2.27223834991455078125e+01) (17, -2.36769509315490722656e+00) (18, 1.57878518104553222656e+00) (19, -7.91687345504760742188e+00) (20, 9.54979133605957031250e+00) (21, -6.61698865890502929688e+00) (0, -2.44249439239501953125e+00) (1, 7.56285488605499267578e-01) (2, -1.43569064140319824219e+00) (3, 2.11629554629325866699e-01) (4, -1.67672395706176757812e-01) (5, -4.10027533769607543945e-01) (6, -4.49679866433143615723e-02) (7, -8.61460685729980468750e-01) (8, -2.91771262884140014648e-01) (9, 2.42886289954185485840e-01) (10, -1.98142305016517639160e-01) (11, 4.35094922780990600586e-01) (12, -1.44674345850944519043e-01) (13, 8.41039940714836120605e-02) (14, 8.54701921343803405762e-02) (15, -2.37445449829101562500e+00) (16, 4.69309139251708984375e+00) (17, 6.02219104766845703125e-01) (18, 8.43958258628845214844e-01) (19, -7.09870159626007080078e-01) (20, 1.72296166419982910156e+00) (21, -5.16251897811889648438e+00) (0, -1.03622875213623046875e+01) (1, -1.71798362731933593750e+01) (2, 5.99004149436950683594e-01) (3, -6.81644082069396972656e-01) (4, 7.88306713104248046875e+00) (5, -1.01261448860168457031e+00) (6, 2.50991940498352050781e-01) (7, 2.41916465759277343750e+00) (8, 3.96799176931381225586e-01) (9, -1.74558877944946289062e-01) (10, -1.10239267349243164062e+00) (11, 1.80047899484634399414e-02) (12, 3.06625753641128540039e-01) (13, 1.54993876814842224121e-01) (14, -3.30921001732349395752e-02) (15, 1.38160157203674316406e+00) (16, -1.95356559753417968750e+01) (17, 3.21128344535827636719e+00) (18, 1.75770545005798339844e+00) (19, 3.50778889656066894531e+00) (20, 3.25226992368698120117e-01) (21, -2.70586466789245605469e+00) (0, 4.09071350097656250000e+01) (1, -3.29496836662292480469e+00) (2, 7.96553850173950195312e+00) (3, 1.19350016117095947266e+00) (4, -1.57312572002410888672e+00) (5, -3.40285992622375488281e+00) (6, 3.29282879829406738281e-01) (7, 2.07613620758056640625e+01) (8, 4.35326658189296722412e-02) (9, -1.03896510601043701172e+00) (10, -1.22823829650878906250e+01) (11, 5.45487105846405029297e-01) (12, 1.54685884714126586914e-01) (13, -1.76632034778594970703e+00) (14, 3.13262753188610076904e-02) (15, -4.06525802612304687500e+01) (16, 1.14202060699462890625e+01) (17, -2.48125495910644531250e+01) (18, -5.37702522277832031250e+01) (19, -3.86476402282714843750e+01) (20, -3.47006340026855468750e+01) (21, -2.73609104156494140625e+01) (0, -6.47959518432617187500e+00) (1, -1.80288047790527343750e+01) (2, 7.66810238361358642578e-01) (3, -1.73550006002187728882e-03) (4, 2.61728882789611816406e-01) (5, -1.57989907264709472656e+00) (6, 1.02290466427803039551e-01) (7, 8.67809712886810302734e-01) (8, -1.15231417119503021240e-01) (9, -3.56351327896118164062e+00) (10, -9.73672568798065185547e-02) (11, -4.35095420107245445251e-03) (12, -4.47304993867874145508e-02) (13, -1.83431684970855712891e-01) (14, -6.11316114664077758789e-02) (15, 4.14140605926513671875e+00) (16, -5.61466026306152343750e+00) (17, 3.39685976505279541016e-01) (18, 6.26545906066894531250e-01) (19, 1.31566655635833740234e+00) (20, -1.21897757053375244141e+00) (21, -6.11593008041381835938e+00) (0, -3.45507407188415527344e+00) (1, -4.75117492675781250000e+00) (2, 6.35248422622680664062e-03) (3, 7.43469521403312683105e-02) (4, 2.74242907762527465820e-01) (5, -1.38393616676330566406e+00) (6, 9.71548259258270263672e-02) (7, 5.07452189922332763672e-01) (8, -3.77757012844085693359e-01) (9, -3.62142896652221679688e+00) (10, -3.06491434574127197266e-01) (11, 4.09575551748275756836e-02) (12, 8.84796231985092163086e-02) (13, -3.82417857646942138672e-01) (14, -1.52909699827432632446e-02) (15, 2.16464892029762268066e-01) (16, -2.67315793037414550781e+00) (17, 2.06707835197448730469e-01) (18, 6.77294790744781494141e-01) (19, 4.47818785905838012695e-01) (20, -4.96518492698669433594e-01) (21, -4.16517353057861328125e+00) (0, 4.80106687545776367188e+00) (1, -1.48520612716674804688e+00) (2, -3.70214200019836425781e+00) (3, 4.37241137027740478516e-01) (4, -6.75976872444152832031e-01) (5, -5.29941141605377197266e-01) (6, -1.43383368849754333496e-01) (7, -3.85090804100036621094e+00) (8, -1.55107533931732177734e+00) (9, -5.61308956146240234375e+00) (10, -3.24659466743469238281e+00) (11, 9.55802738666534423828e-01) (12, -1.82787090539932250977e-01) (13, 4.94593501091003417969e-01) (14, 5.44684492051601409912e-02) (15, -7.77403891086578369141e-01) (16, 2.31054019927978515625e+01) (17, -3.83382105827331542969e+00) (18, -2.54994511604309082031e+00) (19, 8.12948524951934814453e-01) (20, -1.37731754779815673828e+00) (21, -7.25385332107543945312e+00) (0, -7.93706207275390625000e+01) (1, 2.75871028900146484375e+01) (2, -2.32341480255126953125e+00) (3, -9.41659569740295410156e-01) (4, 6.28816032409667968750e+00) (5, -3.32204055786132812500e+00) (6, 6.79174140095710754395e-02) (7, 3.06885623931884765625e+00) (8, 3.86631655693054199219e+00) (9, -3.97377514839172363281e+00) (10, -5.63558244705200195312e+00) (11, -1.29517245292663574219e+00) (12, 2.91720628738403320312e-01) (13, 1.20913290977478027344e+00) (14, -7.91222825646400451660e-02) (15, -1.75902709960937500000e+01) (16, -2.79011321067810058594e+00) (17, -7.75719881057739257812e+00) (18, 6.37422943115234375000e+01) (19, 3.21286735534667968750e+01) (20, 4.16246719360351562500e+01) (21, -5.15918731689453125000e+00) (0, -1.75842583179473876953e+00) (1, 5.80608177185058593750e+00) (2, -1.27227342128753662109e+00) (3, 4.53251212835311889648e-01) (4, -5.05636110901832580566e-02) (5, 3.36587339639663696289e-01) (6, -1.84977818280458450317e-02) (7, -3.85033369064331054688e-01) (8, -1.27314716577529907227e-01) (9, -1.81388556957244873047e+00) (10, 3.22083950042724609375e-01) (11, 1.04430630803108215332e-01) (12, 6.77048880606889724731e-03) (13, -2.68777042627334594727e-01) (14, -1.11024696379899978638e-02) (15, -2.65700054168701171875e+00) (16, 4.97950553894042968750e+00) (17, -9.21505093574523925781e-01) (18, -1.14000034332275390625e+00) (19, -1.84166979789733886719e+00) (20, -9.15091335773468017578e-01) (21, -9.88919639587402343750e+00) (0, -6.84588849544525146484e-01) (1, -7.21338212490081787109e-01) (2, 2.22720599174499511719e+00) (3, -2.02908539772033691406e+00) (4, 3.78496013581752777100e-02) (5, 1.30472900345921516418e-02) (6, 6.60552084445953369141e-01) (7, 2.44357013702392578125e+00) (8, -2.71630477905273437500e+00) (9, -4.22708272933959960938e-01) (10, -8.87143898010253906250e+00) (11, 7.11613130569458007812e+00) (12, 1.05864155292510986328e+00) (13, -1.27419793605804443359e+00) (14, 4.85652536153793334961e-02) (15, -2.07522344589233398438e+00) (16, -2.15330810546875000000e+02) (17, 1.09107327461242675781e+00) (18, 2.94334936141967773438e+00) (19, -9.25533962249755859375e+00) (20, 6.56826782226562500000e+00) (21, -1.27794027328491210938e+00) (0, -3.76544165611267089844e+00) (1, -5.69907093048095703125e+00) (2, 5.94073891639709472656e-01) (3, -5.05774199962615966797e-01) (4, 6.61181434988975524902e-02) (5, -1.69773101806640625000e+00) (6, 6.97984471917152404785e-02) (7, 5.99457919597625732422e-01) (8, 6.06278479099273681641e-01) (9, -1.32375681400299072266e+00) (10, -6.14339232444763183594e-01) (11, -2.51676797866821289062e-01) (12, 1.17293633520603179932e-02) (13, -8.47916841506958007812e-01) (14, 2.31115985661745071411e-02) (15, 1.25022506713867187500e+00) (16, -4.93486595153808593750e+00) (17, 2.02653065323829650879e-01) (18, -4.44140672683715820312e-01) (19, 7.29875385761260986328e-01) (20, -1.64322066307067871094e+00) (21, -5.05970525741577148438e+00) (0, 3.78752708435058593750e+01) (1, -4.59825611114501953125e+00) (2, -2.61929702758789062500e+00) (3, 6.07281029224395751953e-01) (4, -8.03633689880371093750e-01) (5, -3.26218676567077636719e+00) (6, -7.78093859553337097168e-02) (7, -3.35180401802062988281e+00) (8, -3.86118263006210327148e-01) (9, -8.15628337860107421875e+00) (10, -2.68687891960144042969e+00) (11, 6.98299109935760498047e-01) (12, -5.52847683429718017578e-02) (13, 3.44656080007553100586e-01) (14, -3.51201854646205902100e-02) (15, -1.10520529747009277344e+00) (16, 2.78559608459472656250e+01) (17, -1.08785066604614257812e+01) (18, -7.91113853454589843750e+00) (19, 2.74145565032958984375e+01) (20, -2.96083412170410156250e+01) (21, -2.42325725555419921875e+01) (0, 8.98252844810485839844e-01) (1, -3.40658044815063476562e+00) (2, -4.46393460035324096680e-01) (3, 1.03845953941345214844e+00) (4, 1.19289159774780273438e+01) (5, -6.22200298309326171875e+00) (6, 2.33098939061164855957e-01) (7, -1.26642751693725585938e+00) (8, -5.16803216934204101562e+00) (9, 1.27529945373535156250e+01) (10, -4.48946428298950195312e+00) (11, -1.12214362621307373047e+00) (12, 2.60957092046737670898e-01) (13, -2.70007538795471191406e+00) (14, 6.95733428001403808594e-02) (15, -2.08261489868164062500e+01) (16, 8.76973628997802734375e+00) (17, 4.99873065948486328125e+00) (18, 3.53077697753906250000e+01) (19, 3.66517472267150878906e+00) (20, 3.88640594482421875000e+01) (21, -1.92598342895507812500e+01) (0, -6.86367225646972656250e+00) (1, 5.21708059310913085938e+00) (2, -7.75999426841735839844e-01) (3, -6.64068698883056640625e-01) (4, 1.98740732669830322266e+00) (5, -3.57099264860153198242e-01) (6, -2.17365100979804992676e-02) (7, 9.37936246395111083984e-01) (8, 1.67436432838439941406e+00) (9, -1.43745493888854980469e+00) (10, -2.30656743049621582031e+00) (11, 2.20665797591209411621e-01) (12, 1.37957289814949035645e-01) (13, -2.97104001045227050781e-01) (14, -3.70600819587707519531e-02) (15, -2.10452294349670410156e+00) (16, -7.46514225006103515625e+00) (17, 1.41765749454498291016e+00) (18, -1.23451137542724609375e+00) (19, -2.57728314399719238281e+00) (20, 4.76450681686401367188e-01) (21, -5.05914115905761718750e+00) (0, -5.20601511001586914062e+00) (1, 1.28744208812713623047e+00) (2, -2.01870989799499511719e+00) (3, 5.75090110301971435547e-01) (4, -5.99892437458038330078e-01) (5, 1.29447972774505615234e+00) (6, -9.54160839319229125977e-02) (7, -1.85357105731964111328e+00) (8, -6.54950559139251708984e-01) (9, -8.73067498207092285156e-01) (10, 7.79970705509185791016e-01) (11, 6.89429223537445068359e-01) (12, -1.39296591281890869141e-01) (13, 7.24252462387084960938e-01) (14, 2.97717638313770294189e-02) (15, -4.33854192495346069336e-01) (16, 9.57920265197753906250e+00) (17, -5.28395473957061767578e-02) (18, -8.35165604948997497559e-02) (19, -2.28802275657653808594e+00) (20, 1.27911543846130371094e+00) (21, -2.87777543067932128906e+00) (0, 3.58011364936828613281e-01) (1, 4.47514742612838745117e-01) (2, -6.76604956388473510742e-02) (3, -1.05642387643456459045e-02) (4, 2.10357308387756347656e-02) (5, -2.79869139194488525391e-01) (6, -2.32125520706176757812e-02) (7, 6.04452908039093017578e-01) (8, -1.62774592638015747070e-01) (9, -2.00160536915063858032e-02) (10, 6.64524853229522705078e-01) (11, -1.10903503373265266418e-02) (12, -8.22368357330560684204e-03) (13, -1.48985803127288818359e-01) (14, 8.14840570092201232910e-02) (15, -6.77305793762207031250e+00) (16, 2.56102228164672851562e+00) (17, 8.37628006935119628906e-01) (18, -1.08667564392089843750e+00) (19, -1.02662980556488037109e+00) (20, -5.67118644714355468750e-01) (21, -5.65677690505981445312e+00) (0, -5.19256162643432617188e+00) (1, -1.13710754394531250000e+02) (2, 5.71901798248291015625e+00) (3, 1.59186148643493652344e+00) (4, 2.79112839698791503906e+00) (5, 8.07806682586669921875e+00) (6, 5.11350214481353759766e-01) (7, 5.16062879562377929688e+00) (8, -5.17048120498657226562e+00) (9, -2.10592103004455566406e+00) (10, 1.90871858596801757812e+00) (11, -9.54188048839569091797e-01) (12, 8.98658633232116699219e-01) (13, 8.61756515502929687500e+00) (14, -3.32995057106018066406e-02) (15, -3.66048884391784667969e+00) (16, -7.52604007720947265625e+00) (17, -3.18696556091308593750e+01) (18, 1.77505706787109375000e+02) (19, 1.29476928710937500000e+02) (20, 4.51709518432617187500e+01) (21, -4.55097846984863281250e+01) (0, -5.83455181121826171875e+00) (1, -1.09887218475341796875e+01) (2, -6.18651397526264190674e-02) (3, 3.35192412137985229492e-01) (4, 2.75118220597505569458e-02) (5, -1.66825675964355468750e+00) (6, -1.24920807778835296631e-01) (7, -1.81851275265216827393e-02) (8, -2.35089883208274841309e-01) (9, -3.38975596427917480469e+00) (10, -4.80613023042678833008e-01) (11, 3.10672909021377563477e-01) (12, -7.50330761075019836426e-02) (13, -2.20979563891887664795e-02) (14, 4.12551909685134887695e-02) (15, 2.62984085083007812500e+00) (16, -1.60329210758209228516e+00) (17, 1.60921171307563781738e-01) (18, 7.92776286602020263672e-01) (19, 1.04988026618957519531e+00) (20, -7.07417666912078857422e-01) (21, -5.34367799758911132812e+00) (0, 1.35219879150390625000e+01) (1, -3.35195636749267578125e+00) (2, -3.39309978485107421875e+00) (3, 3.84068578481674194336e-01) (4, 1.84900963306427001953e+00) (5, -8.08997333049774169922e-01) (6, -1.03759273886680603027e-01) (7, -3.52514672279357910156e+00) (8, -2.20242571830749511719e+00) (9, -5.33676290512084960938e+00) (10, 4.82092666625976562500e+00) (11, 3.67205560207366943359e-01) (12, -2.68254846334457397461e-01) (13, 5.69065713882446289062e+00) (14, -1.05283468961715698242e-01) (15, -7.11607360839843750000e+00) (16, 2.54726886749267578125e+01) (17, -2.09941844940185546875e+01) (18, -3.79739494323730468750e+01) (19, -7.42233133316040039062e+00) (20, -4.19831848144531250000e+01) (21, -6.28220129013061523438e+00) (0, -5.24919462203979492188e+00) (1, -1.56113207340240478516e-01) (2, -6.00118255615234375000e+00) (3, 4.84045185148715972900e-02) (4, -1.06281614303588867188e+00) (5, 4.93472397327423095703e-01) (6, -1.66499793529510498047e-01) (7, -3.31941461563110351562e+00) (8, -1.31436109542846679688e-01) (9, -6.36092126369476318359e-01) (10, 1.18752002716064453125e+00) (11, 1.81578850746154785156e+00) (12, -1.93365409970283508301e-01) (13, 9.06797647476196289062e-01) (14, -6.60598557442426681519e-03) (15, -1.87718486785888671875e+00) (16, 1.77880153656005859375e+01) (17, 1.09349894523620605469e+00) (18, 2.52618932723999023438e+00) (19, -3.61531114578247070312e+00) (20, 5.55299711227416992188e+00) (21, -2.77038908004760742188e+00) (0, 4.47312116622924804688e+00) (1, -3.07799196243286132812e+00) (2, 1.43364048004150390625e+01) (3, -1.18695235252380371094e+00) (4, -4.59736013412475585938e+00) (5, 5.73838472366333007812e+00) (6, 9.38062369823455810547e-01) (7, 2.29086780548095703125e+00) (8, -8.03211593627929687500e+00) (9, 5.52092432975769042969e-01) (10, 1.82741653919219970703e+00) (11, 4.02513217926025390625e+00) (12, 1.66388940811157226562e+00) (13, 9.02203246951103210449e-02) (14, 5.84286451339721679688e-02) (15, -1.66001582145690917969e+00) (16, -5.98212402343750000000e+02) (17, -1.76560401916503906250e+01) (18, 3.96604537963867187500e+01) (19, 1.02673881530761718750e+02) (20, -4.90264244079589843750e+01) (21, -7.07944440841674804688e+00) (0, -1.01511707305908203125e+01) (1, -3.00799870491027832031e+00) (2, -2.84391403198242187500e+00) (3, 1.07414507865905761719e+00) (4, -1.31850194931030273438e+00) (5, 7.28179264068603515625e+00) (6, -8.41007754206657409668e-02) (7, -2.15527606010437011719e+00) (8, 1.75136697292327880859e+00) (9, -4.69719600677490234375e+00) (10, 4.80938053131103515625e+00) (11, 1.02585113048553466797e+00) (12, -4.82215173542499542236e-02) (13, 4.88746464252471923828e-01) (14, -6.24699853360652923584e-02) (15, 3.07127881050109863281e+00) (16, 8.74069786071777343750e+00) (17, 3.91559648513793945312e+00) (18, -5.26360273361206054688e+00) (19, -1.15838413238525390625e+01) (20, 2.83853244781494140625e+00) (21, 9.95884895324707031250e-01) (0, -2.55892825126647949219e+00) (1, -1.19566764831542968750e+01) (2, 5.75180292129516601562e-01) (3, 2.23311379551887512207e-01) (4, -4.97671142220497131348e-02) (5, -1.53128534555435180664e-01) (6, -9.16766375303268432617e-02) (7, 8.32436144351959228516e-01) (8, -1.74228534102439880371e-01) (9, 4.88108366727828979492e-01) (10, 9.06500935554504394531e-01) (11, -7.83392041921615600586e-03) (12, -3.01872361451387405396e-02) (13, -2.40238323807716369629e-01) (14, 5.37252649664878845215e-02) (15, 1.47348165512084960938e+00) (16, 2.74164229631423950195e-02) (17, 6.25417053699493408203e-01) (18, -7.00495541095733642578e-01) (19, -2.73226350545883178711e-01) (20, -1.00138509273529052734e+00) (21, -5.04360294342041015625e+00) (0, -4.96630096435546875000e+01) (1, -7.32839813232421875000e+01) (2, 1.21518430709838867188e+01) (3, 5.32570314407348632812e+00) (4, 1.03990850448608398438e+01) (5, 2.50500278472900390625e+01) (6, 5.64919352531433105469e-01) (7, 2.82665491104125976562e+00) (8, 5.50576210021972656250e-01) (9, 7.00865983963012695312e+00) (10, -4.98187810182571411133e-01) (11, -3.89820098876953125000e+00) (12, 5.43103158473968505859e-01) (13, -5.74173450469970703125e+00) (14, -5.32059639226645231247e-04) (15, 1.60900764465332031250e+01) (16, -5.43051567077636718750e+01) (17, 1.31825027465820312500e+01) (18, 2.54599761962890625000e+01) (19, 1.08153181076049804688e+01) (20, 1.14895191192626953125e+01) (21, -1.75005893707275390625e+01) (0, -5.44773626327514648438e+00) (1, -6.57957935333251953125e+00) (2, 1.59702196717262268066e-01) (3, -6.67586743831634521484e-01) (4, 2.42765808105468750000e+00) (5, -1.73614358901977539062e+00) (6, 1.25287353992462158203e-01) (7, 7.30709135532379150391e-01) (8, 4.24822092056274414062e+00) (9, -7.38480997085571289062e+00) (10, -2.32915520668029785156e+00) (11, -1.38379365205764770508e-01) (12, 1.21558666229248046875e-01) (13, -6.51922225952148437500e-01) (14, 9.64474156498908996582e-02) (15, 3.38602185249328613281e+00) (16, -1.83334980010986328125e+01) (17, -7.31107711791992187500e-01) (18, -1.05718231201171875000e+00) (19, 5.22578895092010498047e-01) (20, -2.92408275604248046875e+00) (21, -6.52946710586547851562e+00) (0, 5.47487592697143554688e+00) (1, 2.08051433563232421875e+01) (2, -3.29242849349975585938e+00) (3, -2.83887535333633422852e-01) (4, -1.70722615718841552734e+00) (5, -1.57951757311820983887e-01) (6, -6.15267157554626464844e-02) (7, -4.17424297332763671875e+00) (8, -2.74308347702026367188e+00) (9, 5.65607659518718719482e-02) (10, -4.58468246459960937500e+00) (11, 1.02273201942443847656e+00) (12, -1.73152700066566467285e-01) (13, 3.42036819458007812500e+00) (14, -6.47909566760063171387e-02) (15, -1.55199890136718750000e+01) (16, 5.26745643615722656250e+01) (17, -2.40311298370361328125e+01) (18, 2.08332824707031250000e+01) (19, -2.13803291320800781250e+01) (20, 5.12824668884277343750e+01) (21, -3.53942642211914062500e+01) (0, -1.48468078613281250000e+02) (1, -4.63555526733398437500e+00) (2, -2.96563887596130371094e+00) (3, 5.14036297798156738281e-01) (4, 2.02570610046386718750e+01) (5, 1.34642448425292968750e+01) (6, 2.61297047138214111328e-01) (7, 5.83951950073242187500e+00) (8, -1.24050464630126953125e+01) (9, 6.16892004013061523438e+00) (10, -5.03602075576782226562e+00) (11, -5.20270109176635742188e+00) (12, 4.02851790189743041992e-01) (13, -1.01656236648559570312e+01) (14, -7.03795477747917175293e-02) (15, 3.11766242980957031250e+00) (16, -4.80194282531738281250e+01) (17, -5.91471862792968750000e+01) (18, -3.49870147705078125000e+01) (19, -3.89784965515136718750e+01) (20, -5.02978801727294921875e+00) (21, 5.50933914184570312500e+01) (0, 2.64166235923767089844e-01) (1, 2.50558829307556152344e+00) (2, -2.55723688751459121704e-02) (3, -7.77113854885101318359e-01) (4, -1.55247956514358520508e-01) (5, -8.35902571678161621094e-01) (6, 1.69152125716209411621e-01) (7, -3.98455709218978881836e-02) (8, 1.16701197624206542969e+00) (9, -5.69193124771118164062e+00) (10, -3.01897644996643066406e+00) (11, -7.27041959762573242188e-02) (12, 7.28237926959991455078e-02) (13, -6.51189088821411132812e-01) (14, 8.56873299926519393921e-03) (15, 6.02329075336456298828e-01) (16, -2.98466825485229492188e+00) (17, -1.92499017715454101562e+00) (18, -9.22360181808471679688e-01) (19, 1.65622687339782714844e+00) (20, -3.39119696617126464844e+00) (21, -8.52214908599853515625e+00) (0, -7.88371467590332031250e+00) (1, -8.79467296600341796875e+00) (2, -2.78928846120834350586e-01) (3, -3.45910549163818359375e-01) (4, 6.19083547592163085938e+00) (5, 1.07764828205108642578e+00) (6, 1.57454863190650939941e-01) (7, 6.85508203506469726562e+00) (8, -1.74989495426416397095e-02) (9, 1.30216670036315917969e+00) (10, 2.54652183502912521362e-02) (11, -1.22205674648284912109e-01) (12, 6.62999376654624938965e-02) (13, -1.62315294146537780762e-01) (14, 6.68022185564041137695e-02) (15, 1.28605675697326660156e+00) (16, -8.99951076507568359375e+00) (17, 2.65025353431701660156e+00) (18, -2.26942801475524902344e+00) (19, 4.34881782531738281250e+00) (20, -3.76909089088439941406e+00) (21, -2.20827341079711914062e+00) (0, -1.23341732025146484375e+01) (1, 2.40811514854431152344e+00) (2, -7.69942903518676757812e+00) (3, 1.04558563232421875000e+01) (4, -6.81928098201751708984e-01) (5, 4.45198202133178710938e+00) (6, -2.47243493795394897461e-01) (7, -3.99784898757934570312e+00) (8, -1.23326003551483154297e+00) (9, -9.76898491382598876953e-01) (10, -3.51851820945739746094e+00) (11, -1.57140600681304931641e+00) (12, -1.73364043235778808594e-01) (13, 1.34091021027415990829e-03) (14, 6.04348704218864440918e-02) (15, 1.25988931655883789062e+01) (16, 2.34266891479492187500e+01) (17, 6.37680959701538085938e+00) (18, -8.48966598510742187500e+00) (19, 5.29651594161987304688e+00) (20, -1.55762557983398437500e+01) (21, -6.40314340591430664062e+00) (0, 6.00721597671508789062e+00) (1, -5.29458580017089843750e+01) (2, 1.17194452285766601562e+01) (3, 5.71732282638549804688e+00) (4, -1.70973420143127441406e+00) (5, -5.94253635406494140625e+00) (6, 4.16726201772689819336e-01) (7, 1.47703802585601806641e+00) (8, 8.92570590972900390625e+00) (9, 1.41052198410034179688e+01) (10, 8.28954410552978515625e+00) (11, -3.47844600677490234375e+00) (12, 4.26161259412765502930e-01) (13, -5.52375316619873046875e+00) (14, 3.90912815928459167480e-02) (15, 8.02653551101684570312e-01) (16, -6.01695785522460937500e+01) (17, 1.23898048400878906250e+01) (18, 8.40231704711914062500e+00) (19, 1.77291336059570312500e+01) (20, -1.36700677871704101562e+01) (21, -2.27331562042236328125e+01) (0, -3.79330658912658691406e+00) (1, -2.76106506586074829102e-01) (2, 8.26599884033203125000e+00) (3, -3.68213605880737304688e+00) (4, -8.56798231601715087891e-01) (5, -6.00003528594970703125e+00) (6, 7.13840782642364501953e-01) (7, 5.68888473510742187500e+00) (8, 6.45304620265960693359e-01) (9, -4.75120581686496734619e-02) (10, -8.00659751892089843750e+00) (11, 6.65293407440185546875e+00) (12, 9.40091669559478759766e-01) (13, -9.06902551651000976562e-01) (14, -1.52771109715104103088e-02) (15, -1.64934647083282470703e+00) (16, -2.43326126098632812500e+02) (17, -1.47531661987304687500e+01) (18, -5.81637442111968994141e-01) (19, -5.42819118499755859375e+00) (20, 2.51563777923583984375e+01) (21, -1.13593399524688720703e+00) (0, -2.91005682945251464844e+00) (1, -2.11819100379943847656e+00) (2, 6.15971982479095458984e-01) (3, -5.03550827503204345703e-01) (4, 1.91366598010063171387e-01) (5, -1.22229790687561035156e+00) (6, 1.41465097665786743164e-01) (7, 5.40204763412475585938e-01) (8, 7.03644871711730957031e-01) (9, -2.10426658391952514648e-01) (10, -7.76245713233947753906e-01) (11, -2.17650875449180603027e-01) (12, -8.04546009749174118042e-03) (13, -6.90585374832153320312e-01) (14, 2.34591867774724960327e-02) (15, 9.24509286880493164062e-01) (16, -3.89752697944641113281e+00) (17, 4.69666153192520141602e-01) (18, -5.37335395812988281250e-01) (19, 6.05933815240859985352e-02) (20, -6.83641493320465087891e-01) (21, -4.81381464004516601562e+00) (0, -5.65742568969726562500e+01) (1, 1.07259044647216796875e+01) (2, -3.99371409416198730469e+00) (3, -1.29387807846069335938e+00) (4, -2.91722464561462402344e+00) (5, 5.83080291748046875000e+00) (6, -2.31065154075622558594e-01) (7, -1.19490022659301757812e+01) (8, -4.19554424285888671875e+00) (9, 1.54127764701843261719e+00) (10, 4.77900171279907226562e+00) (11, 7.32328748703002929688e+00) (12, -6.84792220592498779297e-01) (13, -5.60925364494323730469e-01) (14, -6.30726143717765808105e-02) (15, -4.10770454406738281250e+01) (16, 7.60806427001953125000e+01) (17, -1.30892438888549804688e+01) (18, -3.19244308471679687500e+01) (19, -1.18581428527832031250e+01) (20, -2.37071304321289062500e+01) (21, 8.80832195281982421875e+00) (0, -5.41361761093139648438e+00) (1, -1.11404552459716796875e+01) (2, -1.43861278891563415527e-01) (3, -8.07013809680938720703e-01) (4, 6.21622180938720703125e+00) (5, -1.57968878746032714844e+00) (6, 5.82019686698913574219e-02) (7, 1.51303160190582275391e+00) (8, 1.79884707927703857422e+00) (9, -6.45256948471069335938e+00) (10, -3.28952789306640625000e+00) (11, 1.65280476212501525879e-01) (12, 1.76616027951240539551e-01) (13, -4.99104678630828857422e-01) (14, -4.67942170798778533936e-02) (15, 3.57087564468383789062e+00) (16, -1.78983840942382812500e+01) (17, 3.12349110841751098633e-01) (18, 1.58278131484985351562e+00) (19, 6.51856184005737304688e-01) (20, 3.22759062051773071289e-01) (21, -6.02763462066650390625e+00) (0, -8.74904572963714599609e-01) (1, 3.96525216102600097656e+00) (2, -5.83473980426788330078e-01) (3, -9.64605629444122314453e-01) (4, -1.24843978881835937500e+00) (5, -5.37153196334838867188e+00) (6, 3.31175863742828369141e-01) (7, 3.53649616241455078125e+00) (8, -1.55607640743255615234e-01) (9, 9.98658275604248046875e+00) (10, 4.58320665359497070312e+00) (11, -5.42072355747222900391e-02) (12, 3.96280705928802490234e-01) (13, -4.26622438430786132812e+00) (14, 3.39760258793830871582e-02) (15, -5.15664625167846679688e+00) (16, -6.02771720886230468750e+01) (17, 6.88630580902099609375e+00) (18, -2.65328102111816406250e+01) (19, -6.09617519378662109375e+00) (20, -3.04403209686279296875e+01) (21, -5.40813159942626953125e+00) (0, 4.09636077880859375000e+01) (1, 3.24588537216186523438e+00) (2, 2.02008032798767089844e+00) (3, -2.98447728157043457031e+00) (4, -3.01297879219055175781e+00) (5, -4.19954967498779296875e+00) (6, 3.82623746991157531738e-02) (7, -5.10406970977783203125e+00) (8, -5.03929615020751953125e+00) (9, -1.16854600906372070312e+01) (10, -1.69410018920898437500e+01) (11, 2.67137080430984497070e-01) (12, -4.13725256919860839844e-01) (13, -3.93671107292175292969e+00) (14, 3.40700075030326843262e-02) (15, -1.49097990989685058594e+00) (16, 3.24625511169433593750e+01) (17, -2.64146518707275390625e+01) (18, -3.72777175903320312500e+01) (19, 5.32903480529785156250e+01) (20, -8.60846633911132812500e+01) (21, -2.88902359008789062500e+01) (0, -3.25364923477172851562e+00) (1, 7.42976903915405273438e-01) (2, 1.42780113220214843750e+01) (3, -4.72071933746337890625e+00) (4, -3.28862237930297851562e+00) (5, 7.40012216567993164062e+00) (6, -1.10667273402214050293e-01) (7, 3.93126201629638671875e+00) (8, 4.19771337509155273438e+00) (9, -2.90841054916381835938e+00) (10, 3.07445073127746582031e+00) (11, -3.51676195859909057617e-01) (12, -6.94315075874328613281e-01) (13, -3.23150420188903808594e+00) (14, 2.23962236195802688599e-02) (15, -3.93194437026977539062e+00) (16, 9.37703933715820312500e+01) (17, -1.34600570678710937500e+02) (18, -2.01598541259765625000e+02) (19, 1.01835639953613281250e+02) (20, -2.73809387207031250000e+02) (21, 2.10509319305419921875e+01) (0, -9.53493804931640625000e+01) (1, 2.58665924072265625000e+01) (2, -4.54332828521728515625e+00) (3, -2.55369842052459716797e-02) (4, 1.62834739685058593750e+01) (5, 1.39061822891235351562e+01) (6, 2.43338003754615783691e-01) (7, 2.86536359786987304688e+00) (8, -7.55602502822875976562e+00) (9, 1.93593251705169677734e+00) (10, 1.24943721294403076172e+00) (11, -2.46725916862487792969e+00) (12, 2.10598886013031005859e-01) (13, 6.54122352600097656250e-01) (14, 7.11674541234970092773e-02) (15, -1.91643810272216796875e+01) (16, -1.67109527587890625000e+01) (17, 7.26306819915771484375e+00) (18, 1.93395214080810546875e+01) (19, 3.99041213989257812500e+01) (20, 1.33822214603424072266e+00) (21, 1.45545349121093750000e+01) (0, -1.71978950500488281250e+00) (1, -2.55036640167236328125e+00) (2, 8.43510180711746215820e-02) (3, 1.26031935214996337891e-01) (4, 1.05828642845153808594e-01) (5, -8.77449512481689453125e-01) (6, 6.40767887234687805176e-02) (7, 4.90159749984741210938e-01) (8, 8.81325826048851013184e-02) (9, -1.87503504753112792969e+00) (10, 5.66474869847297668457e-02) (11, 8.21042507886886596680e-02) (12, -4.97754588723182678223e-02) (13, -2.58750200271606445312e-01) (14, 4.39602648839354515076e-03) (15, -5.71812152862548828125e-01) (16, 5.04786849021911621094e-01) (17, 3.78243654966354370117e-01) (18, 1.63561835885047912598e-01) (19, 2.65250187367200851440e-02) (20, -5.28028309345245361328e-01) (21, -4.71394252777099609375e+00) (0, -1.40413427352905273438e+01) (1, -2.37947902679443359375e+01) (2, -1.35752058029174804688e+00) (3, 4.76483739912509918213e-02) (4, 8.52667427062988281250e+00) (5, -1.75713920593261718750e+00) (6, 1.01769857108592987061e-01) (7, 4.43882274627685546875e+00) (8, -2.61105132102966308594e+00) (9, 2.08918595314025878906e+00) (10, -4.14265096187591552734e-01) (11, -2.62871682643890380859e-02) (12, 4.10115569829940795898e-02) (13, 1.54718577861785888672e+00) (14, -5.72116561233997344971e-02) (15, -1.72477865219116210938e+00) (16, -8.14801120758056640625e+00) (17, 3.82251787185668945312e+00) (18, 1.17658195495605468750e+01) (19, 1.42786350250244140625e+01) (20, 3.86301541328430175781e+00) (21, -2.49165701866149902344e+00) (0, 7.63718509674072265625e+00) (1, -6.36150503158569335938e+00) (2, -1.53137302398681640625e+01) (3, -1.12976932525634765625e+00) (4, -3.89487600326538085938e+00) (5, -2.81823873519897460938e+00) (6, -3.20763796567916870117e-01) (7, -1.11775293350219726562e+01) (8, -6.88309097290039062500e+00) (9, -2.71314334869384765625e+00) (10, 1.53412616252899169922e+00) (11, -1.81319549679756164551e-01) (12, -5.29905080795288085938e-01) (13, -2.87721335887908935547e-01) (14, -1.27614103257656097412e-02) (15, -9.61487114429473876953e-01) (16, 9.70266113281250000000e+01) (17, -4.35916328430175781250e+00) (18, -1.05612955093383789062e+01) (19, -1.59134378433227539062e+01) (20, -4.33614301681518554688e+00) (21, -6.25938749313354492188e+00) (0, 5.61175197362899780273e-02) (1, -1.69245064258575439453e+00) (2, 1.33561449050903320312e+01) (3, 1.25065577030181884766e+00) (4, -5.73825311660766601562e+00) (5, 4.78777313232421875000e+00) (6, 9.60223376750946044922e-01) (7, 5.00237512588500976562e+00) (8, 2.96273374557495117188e+00) (9, -6.73739731311798095703e-01) (10, 1.48258531093597412109e+00) (11, -1.00244569778442382812e+00) (12, 1.17044198513031005859e+00) (13, 3.30763161182403564453e-01) (14, 2.18516513705253601074e-01) (15, -9.69744622707366943359e-01) (16, -4.92423919677734375000e+02) (17, 1.93544998168945312500e+01) (18, -3.91927075386047363281e+00) (19, -7.26025438308715820312e+00) (20, 8.52506446838378906250e+00) (21, 8.76243114471435546875e-01) (0, -6.21153354644775390625e+00) (1, 1.01541066169738769531e+00) (2, -3.47303819656372070312e+00) (3, 4.44287031888961791992e-01) (4, -1.03379309177398681641e+00) (5, -2.15078800916671752930e-01) (6, -1.64356321096420288086e-01) (7, -2.70962882041931152344e+00) (8, -8.02777826786041259766e-01) (9, -1.37637805938720703125e+00) (10, 2.00726222991943359375e+00) (11, 1.53019273281097412109e+00) (12, -8.43176245689392089844e-02) (13, 9.48208630084991455078e-01) (14, 5.59167377650737762451e-02) (15, -1.75068950653076171875e+00) (16, 1.34441585540771484375e+01) (17, 4.45692062377929687500e-01) (18, -1.93453013896942138672e-01) (19, -3.98815894126892089844e+00) (20, 2.91864728927612304688e+00) (21, -1.87339496612548828125e+00) (0, 2.76162452697753906250e+01) (1, 1.35957994461059570312e+01) (2, -1.07982122898101806641e+00) (3, 1.47269546985626220703e-01) (4, 1.54334611892700195312e+01) (5, -8.30717277526855468750e+00) (6, 1.86393260955810546875e-01) (7, 3.61347699165344238281e+00) (8, 1.38537750244140625000e+01) (9, -1.11139118671417236328e+00) (10, -9.43843364715576171875e+00) (11, 1.92247807979583740234e-01) (12, 4.32671844959259033203e-01) (13, -3.62455344200134277344e+00) (14, 1.63440667092800140381e-02) (15, -2.52045321464538574219e+00) (16, -7.72534179687500000000e+01) (17, -8.53271579742431640625e+00) (18, -1.23020027160644531250e+02) (19, -9.41986770629882812500e+01) (20, -5.66983108520507812500e+01) (21, -1.26571273803710937500e+01) (0, 1.51143522262573242188e+01) (1, 6.34866094589233398438e+00) (2, -1.24156017303466796875e+01) (3, -2.00155091285705566406e+00) (4, 3.41030240058898925781e+00) (5, -2.06064558029174804688e+00) (6, -1.84634283185005187988e-01) (7, -6.71510410308837890625e+00) (8, -5.82437849044799804688e+00) (9, -6.04468250274658203125e+00) (10, 1.70780487060546875000e+01) (11, 2.09114834666252136230e-01) (12, -4.27718758583068847656e-01) (13, -3.40970665216445922852e-01) (14, -6.46252781152725219727e-02) (15, -2.16433219909667968750e+01) (16, 1.01449111938476562500e+02) (17, -2.74010448455810546875e+01) (18, 2.85591831207275390625e+01) (19, -3.81832199096679687500e+01) (20, 7.87521514892578125000e+01) (21, -3.04228439331054687500e+01) (0, -1.63025779724121093750e+01) (1, 1.14602975845336914062e+01) (2, 2.00489292144775390625e+01) (3, -2.04881167411804199219e+00) (4, 4.31188166141510009766e-01) (5, 6.45273804664611816406e-01) (6, 3.43941301107406616211e-01) (7, 1.82373313903808593750e+01) (8, 5.97718811035156250000e+00) (9, 3.37179660797119140625e+00) (10, -1.48331909179687500000e+01) (11, -4.18194389343261718750e+00) (12, 3.03608298301696777344e-01) (13, -5.52815914154052734375e+00) (14, 7.61848241090774536133e-02) (15, -1.20026359558105468750e+01) (16, -2.01971607208251953125e+01) (17, -1.02472972869873046875e+01) (18, -1.16623229980468750000e+01) (19, 6.93934917449951171875e+00) (20, -1.72270030975341796875e+01) (21, -1.12565860748291015625e+01) (0, -1.62408268451690673828e+00) (1, -2.22785425186157226562e+00) (2, 1.45335378646850585938e+01) (3, 3.25323939323425292969e-01) (4, -2.40691280364990234375e+00) (5, 3.87110084295272827148e-01) (6, 9.86040234565734863281e-01) (7, 3.29718136787414550781e+00) (8, 1.17474806308746337891e+00) (9, 2.37447881698608398438e+00) (10, 1.04881322383880615234e+00) (11, -3.48599052429199218750e+00) (12, 1.09578990936279296875e+00) (13, 4.16336864233016967773e-01) (14, 6.30213692784309387207e-02) (15, 5.02805185317993164062e+00) (16, -5.99566406250000000000e+02) (17, -1.99493503570556640625e+01) (18, -2.26745529174804687500e+01) (19, 7.20646476745605468750e+00) (20, 2.77827568054199218750e+01) (21, 2.10730624198913574219e+00) (0, 7.07834243774414062500e+00) (1, 8.01126861572265625000e+00) (2, -1.13353233337402343750e+01) (3, -2.60303878784179687500e+00) (4, -3.82133984565734863281e+00) (5, -3.56949496269226074219e+00) (6, -2.24397942423820495605e-01) (7, -9.73003864288330078125e+00) (8, -6.03474903106689453125e+00) (9, -3.34850573539733886719e+00) (10, 3.44080805778503417969e+00) (11, -3.76301914453506469727e-01) (12, -4.28927987813949584961e-01) (13, 5.41847050189971923828e-01) (14, -5.94056434929370880127e-02) (15, 1.52478754520416259766e+00) (16, 7.61386795043945312500e+01) (17, -2.69529800415039062500e+01) (18, -4.70741348266601562500e+01) (19, 7.73131752014160156250e+00) (20, -6.26367912292480468750e+01) (21, -5.49544000625610351562e+00) (0, -6.94234924316406250000e+01) (1, -1.89238784790039062500e+02) (2, 5.19533729553222656250e+01) (3, 8.67901325225830078125e+00) (4, 1.56074342727661132812e+01) (5, -2.11666631698608398438e+00) (6, 4.68398571014404296875e-01) (7, 2.89275875091552734375e+01) (8, -2.74747538566589355469e+00) (9, 1.98521614074707031250e+01) (10, 1.06541271209716796875e+01) (11, -4.90041112899780273438e+00) (12, 6.59297227859497070312e-01) (13, -6.84242916107177734375e+00) (14, 2.16686502099037170410e-02) (15, 9.58454895019531250000e+00) (16, -4.50534934997558593750e+01) (17, 2.13678226470947265625e+01) (18, 5.31609878540039062500e+01) (19, 3.32588996887207031250e+01) (20, 1.98579463958740234375e+01) (21, -1.60109786987304687500e+01) (0, -8.75961589813232421875e+00) (1, -7.99595308303833007812e+00) (2, 1.92789077758789062500e-01) (3, -6.50487184524536132812e-01) (4, 6.31649351119995117188e+00) (5, -4.10096585750579833984e-01) (6, 1.74447804689407348633e-01) (7, 1.41284775733947753906e+00) (8, 7.26427972316741943359e-01) (9, 1.66008189320564270020e-01) (10, -1.84884655475616455078e+00) (11, -1.29868686199188232422e-01) (12, 4.99574467539787292480e-02) (13, -2.78432339429855346680e-01) (14, 9.97612029314041137695e-02) (15, 3.64683151245117187500e-01) (16, -1.47320289611816406250e+01) (17, 2.44288897514343261719e+00) (18, 9.90351319313049316406e-01) (19, 2.47461390495300292969e+00) (20, 1.75229325890541076660e-01) (21, -2.94410181045532226562e+00) (0, -2.49542784690856933594e+00) (1, 3.22758150100708007812e+00) (2, -4.20668751001358032227e-01) (3, 1.44515082240104675293e-01) (4, -4.23562433570623397827e-03) (5, -2.37070158123970031738e-01) (6, -1.95858106017112731934e-02) (7, 1.82124450802803039551e-01) (8, -1.32124880328774452209e-02) (9, 2.86308050155639648438e-01) (10, 1.91583991050720214844e-01) (11, 4.67416550964117050171e-03) (12, -9.07294824719429016113e-02) (13, -1.69666320085525512695e-01) (14, 7.78404325246810913086e-02) (15, -3.50254273414611816406e+00) (16, 3.37233972549438476562e+00) (17, 2.77602851390838623047e-01) (18, -5.33521890640258789062e-01) (19, -1.66365039348602294922e+00) (20, 3.85491102933883666992e-01) (21, -6.44765949249267578125e+00) (0, -1.29333763122558593750e+01) (1, -9.41760349273681640625e+00) (2, -6.70780479907989501953e-01) (3, -1.02672398090362548828e-01) (4, 7.42528772354125976562e+00) (5, 1.38530945777893066406e+00) (6, -8.37795902043581008911e-03) (7, 6.58782148361206054688e+00) (8, -1.39571809768676757812e+00) (9, 1.10703539848327636719e+00) (10, 1.08052694797515869141e+00) (11, -5.86468696594238281250e-01) (12, 1.10709674656391143799e-01) (13, 1.26317942142486572266e+00) (14, 1.07115022838115692139e-01) (15, 1.50980007648468017578e+00) (16, -7.51321887969970703125e+00) (17, 3.32622957229614257812e+00) (18, -3.75633502006530761719e+00) (19, 5.78722763061523437500e+00) (20, -5.35769653320312500000e+00) (21, -1.38116493821144104004e-01) (0, 5.46091127395629882812e+00) (1, -3.02751207351684570312e+00) (2, 1.47684125900268554688e+01) (3, 5.47712802886962890625e-01) (4, -1.09377467632293701172e+00) (5, 6.60755455493927001953e-01) (6, 6.81463897228240966797e-01) (7, 3.06715321540832519531e+00) (8, 1.24730862677097320557e-01) (9, -5.52691650390625000000e+00) (10, -6.88970685005187988281e-01) (11, -1.51884698867797851562e+00) (12, 1.07419860363006591797e+00) (13, 5.86756393313407897949e-02) (14, 1.55177250504493713379e-01) (15, 3.67259591817855834961e-01) (16, -4.96131317138671875000e+02) (17, 9.13875732421875000000e+01) (18, -1.24225292205810546875e+01) (19, -6.63499832153320312500e+01) (20, 2.74161109924316406250e+01) (21, 2.02342319488525390625e+00) (0, 4.88986921310424804688e+00) (1, 8.88945198059082031250e+00) (2, -8.38159084320068359375e+00) (3, 3.85726779699325561523e-01) (4, -1.38539850711822509766e+00) (5, -1.46225762367248535156e+00) (6, -1.34605273604393005371e-01) (7, -5.76928329467773437500e+00) (8, -2.42775177955627441406e+00) (9, -4.02061128616333007812e+00) (10, 8.37940752506256103516e-01) (11, 3.53285193443298339844e-01) (12, -2.96536922454833984375e-01) (13, 8.17497539520263671875e+00) (14, 4.03927415609359741211e-02) (15, -9.33937644958496093750e+00) (16, 4.61124420166015625000e+01) (17, -1.29283475875854492188e+01) (18, -3.67769169807434082031e+00) (19, -6.32903814315795898438e+00) (20, 3.12928462028503417969e+00) (21, -1.57285642623901367188e+01) (0, -1.45173323154449462891e+00) (1, 5.30471682548522949219e-01) (2, -4.40500974655151367188e-01) (3, 2.10438176989555358887e-01) (4, 4.30866628885269165039e-01) (5, 1.34683024883270263672e+00) (6, -4.32628281414508819580e-02) (7, 4.45244818925857543945e-01) (8, -2.36762255430221557617e-01) (9, -9.07938361167907714844e-01) (10, 9.00710225105285644531e-01) (11, 1.51194125413894653320e-01) (12, -5.50104910507798194885e-03) (13, 1.31808444857597351074e-01) (14, 4.65331599116325378418e-02) (15, -1.72262680530548095703e+00) (16, 3.44925665855407714844e+00) (17, 1.15648913383483886719e+00) (18, -8.34469139575958251953e-01) (19, -1.35274481773376464844e+00) (20, 2.57974117994308471680e-01) (21, -5.06100082397460937500e+00) (0, -2.77353310585021972656e+00) (1, -4.76350498199462890625e+00) (2, -7.70911499857902526855e-02) (3, -4.15984421968460083008e-01) (4, 7.01291859149932861328e-01) (5, -2.13644474744796752930e-01) (6, -5.15630654990673065186e-03) (7, 5.88168919086456298828e-01) (8, 5.06135225296020507812e-01) (9, 1.05856907367706298828e+00) (10, -8.53010237216949462891e-01) (11, -1.32668212056159973145e-01) (12, 6.38753399252891540527e-02) (13, -1.93175464868545532227e-01) (14, -2.83500608056783676147e-02) (15, 4.00642096996307373047e-01) (16, -3.19084525108337402344e+00) (17, 9.27014470100402832031e-01) (18, -1.16186074912548065186e-01) (19, -2.83115088939666748047e-01) (20, 2.28710964322090148926e-01) (21, -4.42317867279052734375e+00) (0, -5.53402595520019531250e+01) (1, 1.41972274780273437500e+01) (2, 5.24716281890869140625e+00) (3, -9.45588015019893646240e-03) (4, -3.45667779445648193359e-01) (5, 2.03969039916992187500e+01) (6, 2.05859109759330749512e-01) (7, 5.82436656951904296875e+00) (8, 2.32148718833923339844e+00) (9, -9.74015522003173828125e+00) (10, -1.09361133575439453125e+01) (11, 3.08199477195739746094e+00) (12, 2.47445642948150634766e-01) (13, 6.20180940628051757812e+00) (14, 6.44076466560363769531e-02) (15, 2.37778320312500000000e+01) (16, -4.19395637512207031250e+01) (17, 4.43541526794433593750e+00) (18, 6.66650533676147460938e+00) (19, 3.40116477012634277344e+00) (20, 3.81538319587707519531e+00) (21, -9.32576954364776611328e-02) (0, -3.70534801483154296875e+00) (1, -8.43565559387207031250e+00) (2, 7.48310625553131103516e-01) (3, -4.13653075695037841797e-01) (4, 1.26476451754570007324e-01) (5, -1.30457162857055664062e+00) (6, 3.31869311630725860596e-02) (7, 7.97689974308013916016e-01) (8, 7.06293284893035888672e-01) (9, -7.74194896221160888672e-01) (10, -4.00487184524536132812e-01) (11, -1.58868014812469482422e-01) (12, -3.08704525232315063477e-02) (13, -8.11968982219696044922e-01) (14, -6.57988637685775756836e-02) (15, 2.24425101280212402344e+00) (16, -4.32802152633666992188e+00) (17, 2.20697626471519470215e-01) (18, 1.42979979515075683594e-01) (19, 7.34179079532623291016e-01) (20, -1.13569414615631103516e+00) (21, -5.33150482177734375000e+00) (0, -7.61820936203002929688e+00) (1, 8.20311069488525390625e+00) (2, 2.04093790054321289062e+00) (3, -6.27048075199127197266e-01) (4, -5.42083203792572021484e-01) (5, -1.13334882259368896484e+00) (6, 5.44462911784648895264e-02) (7, 4.84866201877593994141e-01) (8, 1.33905477523803710938e+01) (9, -3.57640480995178222656e+00) (10, -1.64712429046630859375e+00) (11, -2.84069627523422241211e-01) (12, 2.00247958302497863770e-01) (13, -1.65349185466766357422e+00) (14, -7.84851536154747009277e-02) (15, -6.37775135040283203125e+00) (16, -5.69451045989990234375e+00) (17, -1.49617779254913330078e+00) (18, -3.25552988052368164062e+00) (19, -6.65655255317687988281e-01) (20, -3.82237672805786132812e+00) (21, -9.18455410003662109375e+00) (0, -7.98895883560180664062e+00) (1, -7.44906139373779296875e+00) (2, -4.69308495521545410156e-01) (3, -4.36796724796295166016e-01) (4, 5.53186702728271484375e+00) (5, 5.67744433879852294922e-01) (6, 2.42587938904762268066e-01) (7, 6.90293788909912109375e+00) (8, -2.83355712890625000000e-01) (9, 3.73631685972213745117e-01) (10, 4.21991258859634399414e-01) (11, -4.80039834976196289062e-01) (12, 1.15520767867565155029e-01) (13, 4.43687617778778076172e-01) (14, -8.32889229059219360352e-02) (15, -1.45738828182220458984e+00) (16, -9.86523818969726562500e+00) (17, 2.55399250984191894531e+00) (18, -4.86470842361450195312e+00) (19, 1.87081587314605712891e+00) (20, -4.50304603576660156250e+00) (21, -2.06842589378356933594e+00) (0, -6.94270324707031250000e+01) (1, -2.37461166381835937500e+01) (2, -5.07785415649414062500e+00) (3, 3.21765494346618652344e+00) (4, -1.39514565467834472656e+00) (5, 6.33095121383666992188e+00) (6, -1.64319559931755065918e-01) (7, -4.33329010009765625000e+00) (8, 6.57927334308624267578e-01) (9, -3.39388340711593627930e-01) (10, 6.47621583938598632812e+00) (11, -3.22110533714294433594e-01) (12, -2.06889763474464416504e-01) (13, 4.10977029800415039062e+00) (14, -4.88531701266765594482e-02) (15, -2.72660779953002929688e+00) (16, 3.26144561767578125000e+01) (17, 2.46892700195312500000e+01) (18, 1.85618896484375000000e+01) (19, 1.52930867671966552734e+00) (20, 2.14289455413818359375e+01) (21, 1.50276546478271484375e+01) (0, -1.06034135818481445312e+01) (1, -2.63799548149108886719e+00) (2, -1.79429852962493896484e+00) (3, 1.08735334873199462891e+00) (4, -8.61558735370635986328e-01) (5, 7.09632444381713867188e+00) (6, -2.71149408072233200073e-02) (7, -1.71875095367431640625e+00) (8, 9.54868555068969726562e-01) (9, -4.65517520904541015625e+00) (10, 2.96916151046752929688e+00) (11, 9.57915604114532470703e-01) (12, -1.06149613857269287109e-01) (13, 1.76875114440917968750e-01) (14, 3.62424440681934356689e-02) (15, 3.11010074615478515625e+00) (16, 7.02300024032592773438e+00) (17, 3.83616662025451660156e+00) (18, -5.07260084152221679688e+00) (19, -1.10240354537963867188e+01) (20, 2.56450629234313964844e+00) (21, 1.12645876407623291016e+00) (0, 7.94084787368774414062e-01) (1, -1.65284657478332519531e+00) (2, 4.35631608963012695312e+00) (3, 5.96792101860046386719e-01) (4, -4.61176156997680664062e-01) (5, 4.51112598180770874023e-01) (6, 4.94220525026321411133e-01) (7, 2.48038482666015625000e+00) (8, 2.18048954010009765625e+00) (9, -1.30404531955718994141e+00) (10, 1.37425208091735839844e+00) (11, -2.50367665290832519531e+00) (12, 9.87205445766448974609e-01) (13, -1.52825862169265747070e-01) (14, 1.32626771926879882812e-01) (15, -1.54721245169639587402e-01) (16, -4.14262268066406250000e+02) (17, 5.20822601318359375000e+01) (18, -3.33685946464538574219e+00) (19, -2.99237766265869140625e+01) (20, 1.16434698104858398438e+01) (21, 1.31643652915954589844e+00) (0, 8.08577499389648437500e+01) (1, 1.47131156921386718750e+00) (2, 8.56505990028381347656e-01) (3, 2.59280261993408203125e+01) (4, -2.63923096656799316406e+00) (5, 1.39840354919433593750e+01) (6, 6.58885657787322998047e-01) (7, 2.83897376060485839844e+00) (8, 2.25971984863281250000e+01) (9, 1.79514467716217041016e+00) (10, 4.01906538009643554688e+00) (11, 4.50544834136962890625e+00) (12, 1.29777383804321289062e+00) (13, 3.77583312988281250000e+01) (14, 1.50343924760818481445e-01) (15, 1.14808769226074218750e+01) (16, -8.22525177001953125000e+01) (17, 1.38151597976684570312e+01) (18, -3.30374221801757812500e+01) (19, -2.09220962524414062500e+01) (20, -2.14408168792724609375e+01) (21, -6.54517669677734375000e+01) (0, -6.53652954101562500000e+00) (1, 4.71461725234985351562e+00) (2, 1.89250066876411437988e-01) (3, -6.09859883785247802734e-01) (4, 3.83432090282440185547e-01) (5, -8.28356385231018066406e-01) (6, 1.24320872128009796143e-01) (7, 1.28419244289398193359e+00) (8, 1.40113568305969238281e+00) (9, -2.60000562667846679688e+00) (10, -1.61366462707519531250e+00) (11, -2.40222439169883728027e-02) (12, 1.29998624324798583984e-01) (13, -5.41337728500366210938e-01) (14, 4.03888756409287452698e-03) (15, -1.84601473808288574219e+00) (16, -9.90031814575195312500e+00) (17, 4.11017775535583496094e-01) (18, -3.47584033012390136719e+00) (19, -2.45706176757812500000e+00) (20, -2.54611730575561523438e+00) (21, -4.21892166137695312500e+00) (0, -7.65178728103637695312e+00) (1, -1.51242828369140625000e+00) (2, 1.00605716705322265625e+01) (3, -2.64409327507019042969e+00) (4, 8.99878025054931640625e-01) (5, 5.22614061832427978516e-01) (6, 7.90540277957916259766e-01) (7, 5.62000656127929687500e+00) (8, -4.81909990310668945312e+00) (9, -8.27878713607788085938e-01) (10, 1.83899211883544921875e+00) (11, -3.61069798469543457031e+00) (12, 1.03670883178710937500e+00) (13, 1.68517825659364461899e-03) (14, -2.33719833195209503174e-02) (15, -9.38002347946166992188e-01) (16, -3.58508422851562500000e+02) (17, -5.16055908203125000000e+01) (18, -2.29253654479980468750e+01) (19, -1.10259666442871093750e+01) (20, 3.28789596557617187500e+01) (21, 5.56263208389282226562e+00) (0, 7.91997849941253662109e-01) (1, -1.13583362102508544922e+00) (2, 3.31727433204650878906e+00) (3, 1.22554421424865722656e+00) (4, 2.46574103832244873047e-01) (5, 4.85698580741882324219e-01) (6, 5.63346266746520996094e-01) (7, 2.37055397033691406250e+00) (8, -1.83915507793426513672e+00) (9, -9.04268383979797363281e-01) (10, 2.92196273803710937500e+00) (11, -2.92863416671752929688e+00) (12, 7.83414900302886962891e-01) (13, -1.81986436247825622559e-01) (14, 2.60804966092109680176e-02) (15, 2.20601379871368408203e-01) (16, -3.39006011962890625000e+02) (17, 4.25369911193847656250e+01) (18, 5.64988279342651367188e+00) (19, -1.93706588745117187500e+01) (20, 8.09553050994873046875e+00) (21, -1.08538711071014404297e+00) (0, -3.47386627197265625000e+01) (1, -3.50036406517028808594e+00) (2, -6.59921550750732421875e+00) (3, 3.05369782447814941406e+00) (4, -1.38247919082641601562e+00) (5, -1.11723339557647705078e+00) (6, -1.68751284480094909668e-01) (7, -6.67521286010742187500e+00) (8, -1.89640466123819351196e-02) (9, 8.86745333671569824219e-01) (10, 8.54703545570373535156e-01) (11, 1.54679787158966064453e+00) (12, -2.91687697172164916992e-01) (13, 2.86979842185974121094e+00) (14, 5.45866694301366806030e-03) (15, 1.84908509254455566406e+00) (16, 2.50191383361816406250e+01) (17, -1.49306554794311523438e+01) (18, -2.60266017913818359375e+01) (19, -4.92900619506835937500e+01) (20, 6.93755865097045898438e+00) (21, 1.47887449264526367188e+01) (0, -1.00092153549194335938e+01) (1, -1.74512672424316406250e+01) (2, 8.41389238834381103516e-01) (3, -7.66665816307067871094e-01) (4, 7.49759292602539062500e+00) (5, -1.18333911895751953125e+00) (6, 2.83249467611312866211e-01) (7, 2.81245136260986328125e+00) (8, 4.16655421257019042969e-01) (9, -6.62771165370941162109e-01) (10, -1.17348897457122802734e+00) (11, -4.31321263313293457031e-01) (12, 2.35170140862464904785e-01) (13, -1.10682798549532890320e-02) (14, 2.41986792534589767456e-02) (15, 1.80474257469177246094e+00) (16, -2.12537860870361328125e+01) (17, 2.62860155105590820312e+00) (18, 1.18957757949829101562e+00) (19, 2.75980734825134277344e+00) (20, -5.01155517995357513428e-02) (21, -2.59774136543273925781e+00) (0, -2.84148454666137695312e+00) (1, 9.56920325756072998047e-01) (2, 2.24058341979980468750e+00) (3, 3.06003391742706298828e-01) (4, -2.85995334386825561523e-01) (5, 9.14443254470825195312e-01) (6, 2.26411093026399612427e-02) (7, -5.70390641689300537109e-01) (8, -8.93025636672973632812e-01) (9, -4.20295566320419311523e-01) (10, 5.42586278915405273438e+00) (11, 5.08036911487579345703e-01) (12, -1.78470406681299209595e-02) (13, -4.81200277805328369141e-01) (14, 8.46066623926162719727e-02) (15, -1.98958301544189453125e+00) (16, 5.72719573974609375000e+00) (17, -1.05659477412700653076e-01) (18, -3.04823756217956542969e+00) (19, -2.70534491539001464844e+00) (20, -1.27433466911315917969e+00) (21, -5.87360954284667968750e+00) (0, -6.82130813598632812500e+00) (1, 7.04422426223754882812e+00) (2, -8.43415111303329467773e-02) (3, -7.03960895538330078125e-01) (4, 2.17807516455650329590e-01) (5, -1.19822013378143310547e+00) (6, 1.47463262081146240234e-01) (7, 7.03321874141693115234e-01) (8, 1.92010641098022460938e+00) (9, -4.29432058334350585938e+00) (10, -1.87831044197082519531e+00) (11, -8.92829895019531250000e-02) (12, 3.56273800134658813477e-02) (13, -5.17127096652984619141e-01) (14, 7.48535320162773132324e-02) (15, -2.66328763961791992188e+00) (16, -8.43891620635986328125e+00) (17, -1.07195997238159179688e+00) (18, -5.10184764862060546875e+00) (19, -4.56426286697387695312e+00) (20, -3.55730056762695312500e+00) (21, -6.28960084915161132812e+00) (0, -6.10012388229370117188e+00) (1, 1.55326664447784423828e+00) (2, -1.75097668170928955078e+00) (3, 4.49656397104263305664e-01) (4, -6.18262767791748046875e-01) (5, -1.06321282684803009033e-01) (6, 9.08567383885383605957e-03) (7, -1.99163734912872314453e+00) (8, -4.36873704195022583008e-01) (9, -1.76492822170257568359e+00) (10, 7.37602770328521728516e-01) (11, 8.73923420906066894531e-01) (12, -4.37391847372055053711e-02) (13, 4.39520835876464843750e-01) (14, 5.66617809236049652100e-02) (15, -1.12583923339843750000e+00) (16, 9.82579612731933593750e+00) (17, -6.85789883136749267578e-01) (18, -9.51434075832366943359e-01) (19, -3.44496297836303710938e+00) (20, 1.14977526664733886719e+00) (21, -2.38416719436645507812e+00) (0, -3.11205387115478515625e+00) (1, 7.60039758682250976562e+00) (2, -4.42352676391601562500e+00) (3, 1.01421034336090087891e+00) (4, -5.77816128730773925781e-01) (5, 1.67959308624267578125e+01) (6, -9.33578163385391235352e-02) (7, -2.23098635673522949219e+00) (8, -1.83784687519073486328e+00) (9, -1.29414510726928710938e+01) (10, 6.03346967697143554688e+00) (11, -6.37400243431329727173e-03) (12, -1.01664714515209197998e-01) (13, 1.10886287689208984375e+00) (14, -1.01074442267417907715e-01) (15, -1.82943973541259765625e+01) (16, 1.40531072616577148438e+01) (17, -1.37443661689758300781e+00) (18, -2.91318440437316894531e+00) (19, -3.14252853393554687500e+00) (20, -2.15471601486206054688e+00) (21, -1.09369316101074218750e+01) (0, -6.16299819946289062500e+01) (1, 1.58899564743041992188e+01) (2, 1.21520271301269531250e+01) (3, 1.71896791458129882812e+00) (4, -3.16612529754638671875e+00) (5, -2.06556057929992675781e+00) (6, 2.71236509084701538086e-01) (7, 3.75464558601379394531e+00) (8, 2.74467563629150390625e+01) (9, -8.17846107482910156250e+00) (10, 1.47114715576171875000e+01) (11, 4.25738477706909179688e+00) (12, 4.25177246332168579102e-01) (13, -2.50947260856628417969e+00) (14, 1.42539426684379577637e-01) (15, -4.29394769668579101562e+00) (16, -5.40594558715820312500e+01) (17, 6.17195892333984375000e+00) (18, 1.36012611389160156250e+01) (19, 1.69581794738769531250e+01) (20, -4.19990062713623046875e+00) (21, -1.62916564941406250000e+00) (0, -1.15513134002685546875e+00) (1, 4.65039157867431640625e+00) (2, -5.76314516365528106689e-02) (3, -6.49990320205688476562e-01) (4, 3.48413623869419097900e-02) (5, -1.21864807605743408203e+00) (6, 4.60054725408554077148e-02) (7, 1.85741394758224487305e-01) (8, 1.15778410434722900391e+00) (9, -8.58736097812652587891e-01) (10, -1.36536991596221923828e+00) (11, -7.88306593894958496094e-02) (12, 4.09676246345043182373e-02) (13, -9.13929641246795654297e-01) (14, 6.26656115055084228516e-02) (15, -3.40751719474792480469e+00) (16, -1.09969592094421386719e+00) (17, -3.72672170400619506836e-01) (18, -1.41201090812683105469e+00) (19, -1.13402652740478515625e+00) (20, -1.53067731857299804688e+00) (21, -8.86017513275146484375e+00) (0, -4.35144996643066406250e+00) (1, -1.36898434162139892578e+00) (2, 2.83186048269271850586e-01) (3, -7.50249803066253662109e-01) (4, 5.16646051406860351562e+00) (5, -1.19935894012451171875e+00) (6, 5.77205829322338104248e-02) (7, 8.02170395851135253906e-01) (8, 1.19109773635864257812e+00) (9, -3.29562735557556152344e+00) (10, -1.88811612129211425781e+00) (11, -3.23102972470223903656e-03) (12, 1.54407188296318054199e-01) (13, -4.41377431154251098633e-01) (14, -1.33108925074338912964e-02) (15, -5.81897139549255371094e-01) (16, -1.57968368530273437500e+01) (17, 1.08083140850067138672e+00) (18, 3.14742885529994964600e-02) (19, 5.42404472827911376953e-01) (20, 2.63618379831314086914e-01) (21, -3.58342409133911132812e+00) (0, 1.46297729015350341797e+00) (1, 1.69934425354003906250e+01) (2, -4.06473255157470703125e+00) (3, 7.28886842727661132812e-01) (4, -1.21970343589782714844e+00) (5, -9.73815768957138061523e-02) (6, -1.34764298796653747559e-01) (7, -3.79438877105712890625e+00) (8, -1.51865172386169433594e+00) (9, -6.72582244873046875000e+00) (10, -2.61517596244812011719e+00) (11, 3.62782597541809082031e-01) (12, -1.99530541896820068359e-01) (13, 2.43952226638793945312e+00) (14, 8.55259876698255538940e-03) (15, -1.36168260574340820312e+01) (16, 2.75174808502197265625e+01) (17, -5.27619838714599609375e+00) (18, -5.15037155151367187500e+00) (19, -2.49943113327026367188e+00) (20, -3.94656872749328613281e+00) (21, -2.23425731658935546875e+01) (0, 1.43047370910644531250e+01) (1, -9.93399322032928466797e-01) (2, -4.09213924407958984375e+00) (3, 1.82078754901885986328e+00) (4, -2.66200256347656250000e+00) (5, -1.54541552066802978516e+00) (6, -1.66278928518295288086e-01) (7, -6.26114892959594726562e+00) (8, -3.51244807243347167969e+00) (9, 1.44763982295989990234e+00) (10, 3.23168659210205078125e+00) (11, -1.93510994315147399902e-01) (12, -3.29094290733337402344e-01) (13, 2.28612399101257324219e+00) (14, -5.67998699843883514404e-02) (15, -1.49829854965209960938e+01) (16, 5.81613769531250000000e+01) (17, -2.18613338470458984375e+01) (18, -1.84094085693359375000e+01) (19, -2.33269214630126953125e+01) (20, 3.59048795700073242188e+00) (21, -1.18201971054077148438e+01) (0, -6.17212905883789062500e+01) (1, 3.05913105010986328125e+01) (2, 6.99154198169708251953e-01) (3, -3.70326846837997436523e-01) (4, 4.11327314376831054688e+00) (5, -1.10693180561065673828e+00) (6, 2.44440793991088867188e-01) (7, 1.54820048809051513672e+00) (8, 3.36088347434997558594e+00) (9, -6.95978069305419921875e+00) (10, -2.83990311622619628906e+00) (11, 8.39163839817047119141e-01) (12, 2.87105351686477661133e-01) (13, -1.52964556217193603516e+00) (14, 1.50164559483528137207e-01) (15, 1.24282894134521484375e+01) (16, -3.37818946838378906250e+01) (17, 6.53932142257690429688e+00) (18, -7.35837020874023437500e+01) (19, -3.14890289306640625000e+01) (20, -4.98230667114257812500e+01) (21, 1.16266565322875976562e+01) (0, -3.15078616142272949219e+00) (1, -4.07152938842773437500e+00) (2, 9.36245083808898925781e-01) (3, -6.76002621650695800781e-01) (4, -2.38767508417367935181e-02) (5, -1.07432746887207031250e+00) (6, 1.69227808713912963867e-01) (7, 5.88491857051849365234e-01) (8, 1.04112040996551513672e+00) (9, -1.09027826786041259766e+00) (10, -1.97173011302947998047e+00) (11, -1.21739178895950317383e-01) (12, 1.87200307846069335938e-01) (13, -3.02189111709594726562e-01) (14, -4.00022342801094055176e-02) (15, 3.25308507308363914490e-03) (16, -4.99325990676879882812e+00) (17, 7.48510420322418212891e-01) (18, -9.34415519237518310547e-01) (19, -1.05099163949489593506e-01) (20, -9.39646005630493164062e-01) (21, -4.59704113006591796875e+00) (22, 7.89120340347290039062e+00) (23, -1.05122766494750976562e+01) (24, 3.58401060104370117188e+00) (25, 4.23462343215942382812e+00) (26, 9.82773685455322265625e+00) (27, 8.84234189987182617188e-01) (28, 1.43626737594604492188e+01) (29, -5.66698074340820312500e+00) (30, 9.96101975440979003906e-01) (31, -1.29942665100097656250e+01) (32, -1.05198488235473632812e+01) (33, -4.70359754562377929688e+00) (34, -1.89935283660888671875e+01) (35, 4.84667330980300903320e-01) (36, 6.69463992118835449219e-01) (37, -3.69334316253662109375e+00) (38, -8.13452005386352539062e-01) (39, -3.94399929046630859375e+00) (40, 2.58244056701660156250e+01) (41, -1.25216364860534667969e+00) (42, 1.74185526371002197266e+00) (43, -1.93431675434112548828e+00) (44, -1.14050998687744140625e+01) (45, 4.88563060760498046875e+00) (46, -2.73460578918457031250e+00) (47, -6.68217003345489501953e-01) (48, 1.70452070236206054688e+00) (49, -5.56576490402221679688e+00) (50, 4.36653995513916015625e+00) (51, 2.65605545043945312500e+00) (52, -7.37680733203887939453e-01) (53, -8.46134757995605468750e+00) (54, -1.15658235549926757812e+00) (55, 8.63289546966552734375e+00) (56, -7.80527353286743164062e-01) (57, -5.47863578796386718750e+00) (58, 1.98848283290863037109e+00) (59, -1.17069041728973388672e+00) (60, -6.71886634826660156250e+00) (61, 3.19878745079040527344e+00) (62, -9.16521739959716796875e+00) (63, 1.14001741409301757812e+01) (64, 1.85012960433959960938e+00) (65, -1.08799397945404052734e+00) (66, -2.41500878334045410156e+00) (67, -1.22574110031127929688e+01) (68, -1.43334865570068359375e+00) (69, -8.16347002983093261719e-01) (70, 2.07803173065185546875e+01) (71, 7.22029387950897216797e-01) (72, -1.68497562408447265625e-01) (73, 1.22974944114685058594e+00) (74, 1.38851547241210937500e+01) (75, -2.55366020202636718750e+01) (76, 8.71771514415740966797e-01) (77, -4.49698495864868164062e+00) (78, -7.21713685989379882812e+00) (79, -1.38683767318725585938e+01) (80, 2.71030902862548828125e+00) (81, -2.40688381195068359375e+01) (82, -1.81950244903564453125e+01) (83, 1.63801345825195312500e+01) (84, -1.47150287628173828125e+01) (85, 4.82531738281250000000e+00) (86, -1.54170379638671875000e+01) (87, -3.93270939588546752930e-01) (88, 2.24743604660034179688e+00) (89, 5.31562924385070800781e-01) (90, -3.38370752334594726562e+00) (91, 5.06718695163726806641e-01) (92, -7.24099516868591308594e-01) (93, -8.39352667331695556641e-01) (94, -1.02089509963989257812e+01) (95, -6.41687631607055664062e-01) (96, 3.23557829856872558594e+00) (97, -7.84685909748077392578e-01) (98, -2.74351158142089843750e+01) (99, 2.57849955558776855469e+00) (100, -3.09524583816528320312e+00) (101, -4.26492643356323242188e+00) (102, 4.84325504302978515625e+00) (103, -3.48968625068664550781e-01) (104, -5.12382316589355468750e+00) (105, 9.89792346954345703125e+00) (106, -3.26897978782653808594e+00) (107, -3.18051457405090332031e-01) (108, 6.26723814010620117188e+00) (109, 3.79152560234069824219e+00) (110, 4.38855791091918945312e+00) (111, -1.27776899337768554688e+01) (112, 3.10239052772521972656e+00) (113, -6.11756443977355957031e-01) (114, 2.09308505058288574219e+00) (115, 6.04757690429687500000e+00) (116, 1.48341693878173828125e+01) (117, -2.09616494178771972656e+00) (118, -4.61581611633300781250e+00) (22, -3.20853495597839355469e+00) (23, 9.96580779552459716797e-01) (24, -1.82375639677047729492e-01) (25, 5.26869654655456542969e-01) (26, -7.21469259262084960938e+00) (27, -1.14394235610961914062e+00) (28, -2.55304927825927734375e+01) (29, -2.03601288795471191406e+00) (30, -2.67602539062500000000e+00) (31, 8.99410247802734375000e+00) (32, -5.08883571624755859375e+00) (33, -8.18170738220214843750e+00) (34, 1.17267141342163085938e+01) (35, -6.01077556610107421875e-01) (36, -5.41420745849609375000e+00) (37, -1.11964893341064453125e+00) (38, 1.78913640975952148438e+00) (39, -2.90969419479370117188e+00) (40, -9.68448162078857421875e-01) (41, -1.27712285518646240234e+00) (42, -1.07747256755828857422e+00) (43, -6.39669036865234375000e+00) (44, 8.13891124725341796875e+00) (45, 1.54252386093139648438e+00) (46, -6.00218057632446289062e+00) (47, -3.35595399141311645508e-01) (48, 2.37682890892028808594e+00) (49, 3.03199124336242675781e+00) (50, -2.77241301536560058594e+00) (51, 8.50505411624908447266e-01) (52, 2.02760124206542968750e+00) (53, -2.53592071533203125000e+01) (54, -1.17797064781188964844e+00) (55, 7.80305528640747070312e+00) (56, -5.02452039718627929688e+00) (57, -6.96417617797851562500e+00) (58, 2.82887673377990722656e+00) (59, 1.08148503303527832031e+00) (60, -9.46597194671630859375e+00) (61, -2.49028897285461425781e+00) (62, 8.69005393981933593750e+00) (63, -9.59425163269042968750e+00) (64, -2.83875608444213867188e+00) (65, 2.31799811124801635742e-01) (66, 4.44635963439941406250e+00) (67, -1.03092823028564453125e+01) (68, -5.11054944992065429688e+00) (69, 1.44600316882133483887e-01) (70, 1.65207061767578125000e+01) (71, -4.45506477355957031250e+00) (72, -7.13123798370361328125e+00) (73, 6.04909801483154296875e+00) (74, -3.09436397552490234375e+01) (75, -4.08221292495727539062e+00) (76, 4.64329779148101806641e-01) (77, -4.80442190170288085938e+00) (78, -6.03940343856811523438e+00) (79, -6.50674247741699218750e+00) (80, -7.89405405521392822266e-01) (81, -1.18071355819702148438e+01) (82, 4.99892377853393554688e+00) (83, -4.37274885177612304688e+00) (84, -7.24306488037109375000e+00) (85, 2.78145074844360351562e+00) (86, -1.68023891448974609375e+01) (87, -6.18406391143798828125e+00) (88, 5.03775060176849365234e-01) (89, 3.50364851951599121094e+00) (90, -5.03427600860595703125e+00) (91, -1.30684900283813476562e+00) (92, 4.34832954406738281250e+00) (93, -1.44947901368141174316e-01) (94, -1.05254373550415039062e+01) (95, -7.79095232486724853516e-01) (96, -7.68043160438537597656e-01) (97, 2.51789736747741699219e+00) (98, 7.18698167800903320312e+00) (99, 3.02381420135498046875e+00) (100, -3.66507101058959960938e+00) (101, -8.45736122131347656250e+00) (102, -1.30356609821319580078e+00) (103, -4.72475671768188476562e+00) (104, -5.92596626281738281250e+00) (105, 4.85209035873413085938e+00) (106, -2.71966814994812011719e+00) (107, 2.76003003120422363281e+00) (108, -1.29215276241302490234e+00) (109, 7.57129967212677001953e-01) (110, 6.26429557800292968750e+00) (111, -1.16856775283813476562e+01) (112, -9.78807568550109863281e-01) (113, -2.95489668846130371094e+00) (114, 4.63828372955322265625e+00) (115, -8.84732484817504882812e-01) (116, -6.24217462539672851562e+00) (117, -1.75137147307395935059e-01) (118, 1.51334896087646484375e+01) (22, 2.72151613235473632812e+00) (23, 4.49416542053222656250e+00) (24, -7.62498378753662109375e-01) (25, -2.36133050918579101562e+00) (26, 5.43175268173217773438e+00) (27, -8.31428229808807373047e-01) (28, -7.63763284683227539062e+00) (29, 2.47423744201660156250e+00) (30, -6.02144432067871093750e+00) (31, -9.25741004943847656250e+00) (32, 6.46254062652587890625e+00) (33, 8.54571056365966796875e+00) (34, -1.16038980484008789062e+01) (35, 1.86432212591171264648e-01) (36, -7.73362302780151367188e+00) (37, 3.17083668708801269531e+00) (38, -2.76893687248229980469e+00) (39, 3.64139652252197265625e+00) (40, -2.06651954650878906250e+01) (41, 2.07010722160339355469e+00) (42, -1.80972719192504882812e+00) (43, -9.80033302307128906250e+00) (44, -9.48332595825195312500e+00) (45, -4.49048280715942382812e+00) (46, 5.99927711486816406250e+00) (47, 6.97569668292999267578e-01) (48, -2.56914186477661132812e+00) (49, -2.93844175338745117188e+00) (50, -5.43491601943969726562e-01) (51, -2.04874825477600097656e+00) (52, -2.25458443164825439453e-01) (53, 2.83436470031738281250e+01) (54, 9.39656317234039306641e-01) (55, 4.53920900821685791016e-01) (56, -6.74688148498535156250e+00) (57, 7.57312250137329101562e+00) (58, -3.31541538238525390625e+00) (59, 1.51836645603179931641e+00) (60, 8.61041736602783203125e+00) (61, 2.59248793125152587891e-01) (62, -2.68298840522766113281e+00) (63, 8.74272155761718750000e+00) (64, -2.92672395706176757812e+00) (65, -4.38985198736190795898e-01) (66, -4.62513875961303710938e+00) (67, 8.97617721557617187500e+00) (68, 5.91344356536865234375e+00) (69, 2.32822582125663757324e-01) (70, -7.90342569351196289062e+00) (71, -1.14943993091583251953e+00) (72, 7.98936080932617187500e+00) (73, -5.76113080978393554688e+00) (74, 2.19810009002685546875e+00) (75, 6.24503183364868164062e+00) (76, -3.15772128105163574219e+00) (77, -1.91378760337829589844e+00) (78, -9.46511077880859375000e+00) (79, 6.33901214599609375000e+00) (80, -2.86324310302734375000e+00) (81, 1.64313011169433593750e+01) (82, -7.17706632614135742188e+00) (83, -1.31084747314453125000e+01) (84, 7.51547908782958984375e+00) (85, -2.79148530960083007812e+00) (86, 2.17756443023681640625e+01) (87, 3.35620141029357910156e+00) (88, -1.76405489444732666016e+00) (89, 3.42214608192443847656e+00) (90, 6.17730283737182617188e+00) (91, -7.42596149444580078125e+00) (92, -5.07196724414825439453e-01) (93, 1.23366069793701171875e+00) (94, 9.92789840698242187500e+00) (95, 7.78643727302551269531e-01) (96, -1.46542012691497802734e+00) (97, 3.93546998500823974609e-01) (98, -4.69932699203491210938e+00) (99, -2.18017029762268066406e+00) (100, 5.29967832565307617188e+00) (101, 7.98922348022460937500e+00) (102, 3.36101233959197998047e-01) (103, 5.63403749465942382812e+00) (104, 4.72081279754638671875e+00) (105, -7.14715051651000976562e+00) (106, 5.00065660476684570312e+00) (107, 2.69778203964233398438e+00) (108, 7.83381089568138122559e-02) (109, -1.11623072624206542969e+00) (110, -6.78684902191162109375e+00) (111, 1.37678604125976562500e+01) (112, -3.46416425704956054688e+00) (113, 2.80617618560791015625e+00) (114, -7.61728954315185546875e+00) (115, -4.64863681793212890625e+00) (116, 6.73647403717041015625e+00) (117, -1.56012549996376037598e-01) (118, -1.56941652297973632812e+01) 
